-0.0
[
  { "nodeid": 0, "depth": 0, "split": 1, "split_condition": 0.42852065, "yes": 1, "no": 2, "missing": 1, "children": [
    { "nodeid": 1, "depth": 1, "split": 32, "split_condition": 1.33240974, "yes": 3, "no": 4, "missing": 3, "children": [
      { "nodeid": 3, "depth": 2, "split": 24, "split_condition": 1.53533232, "yes": 7, "no": 8, "missing": 7, "children": [
        { "nodeid": 7, "depth": 3, "split": 27, "split_condition": -1.9135828, "yes": 13, "no": 14, "missing": 13, "children": [
          { "nodeid": 13, "depth": 4, "split": 0, "split_condition": 0.0120491069, "yes": 25, "no": 26, "missing": 25, "children": [
            { "nodeid": 25, "leaf": -0.199972853 },
            { "nodeid": 26, "depth": 5, "split": 35, "split_condition": -0.506612241, "yes": 47, "no": 48, "missing": 47, "children": [
              { "nodeid": 47, "leaf": 0.187342986 },
              { "nodeid": 48, "leaf": 0.112946033 }
            ]}
          ]},
          { "nodeid": 14, "depth": 4, "split": 31, "split_condition": -1.92660475, "yes": 27, "no": 28, "missing": 27, "children": [
            { "nodeid": 27, "depth": 5, "split": 0, "split_condition": 0.0120491069, "yes": 49, "no": 50, "missing": 49, "children": [
              { "nodeid": 49, "leaf": -0.199949428 },
              { "nodeid": 50, "leaf": 0.158851996 }
            ]},
            { "nodeid": 28, "depth": 5, "split": 1, "split_condition": 0.410937965, "yes": 51, "no": 52, "missing": 51, "children": [
              { "nodeid": 51, "leaf": -0.199990675 },
              { "nodeid": 52, "leaf": -0.184074685 }
            ]}
          ]}
        ]},
        { "nodeid": 8, "depth": 3, "split": 27, "split_condition": -1.3482945, "yes": 15, "no": 16, "missing": 15, "children": [
          { "nodeid": 15, "depth": 4, "split": 0, "split_condition": 0.0120491069, "yes": 29, "no": 30, "missing": 29, "children": [
            { "nodeid": 29, "leaf": -0.198832124 },
            { "nodeid": 30, "depth": 5, "split": 27, "split_condition": -1.72515345, "yes": 53, "no": 54, "missing": 53, "children": [
              { "nodeid": 53, "leaf": 0.191262245 },
              { "nodeid": 54, "leaf": 0.0832930952 }
            ]}
          ]},
          { "nodeid": 16, "depth": 4, "split": 19, "split_condition": -1.94977188, "yes": 31, "no": 32, "missing": 31, "children": [
            { "nodeid": 31, "depth": 5, "split": 0, "split_condition": 0.0120491069, "yes": 55, "no": 56, "missing": 55, "children": [
              { "nodeid": 55, "leaf": -0.189610392 },
              { "nodeid": 56, "leaf": 0.182533354 }
            ]},
            { "nodeid": 32, "depth": 5, "split": 31, "split_condition": -1.92660475, "yes": 57, "no": 58, "missing": 57, "children": [
              { "nodeid": 57, "leaf": 0.0873062313 },
              { "nodeid": 58, "leaf": -0.197070941 }
            ]}
          ]}
        ]}
      ]},
      { "nodeid": 4, "depth": 2, "split": 27, "split_condition": -1.15986514, "yes": 9, "no": 10, "missing": 9, "children": [
        { "nodeid": 9, "depth": 3, "split": 0, "split_condition": 0.0120491069, "yes": 17, "no": 18, "missing": 17, "children": [
          { "nodeid": 17, "leaf": -0.199567571 },
          { "nodeid": 18, "depth": 4, "split": 27, "split_condition": -1.53672397, "yes": 33, "no": 34, "missing": 33, "children": [
            { "nodeid": 33, "depth": 5, "split": 27, "split_condition": -1.9135828, "yes": 59, "no": 60, "missing": 59, "children": [
              { "nodeid": 59, "leaf": 0.193609104 },
              { "nodeid": 60, "leaf": 0.161814094 }
            ]},
            { "nodeid": 34, "depth": 5, "split": 31, "split_condition": -1.74657226, "yes": 61, "no": 62, "missing": 61, "children": [
              { "nodeid": 61, "leaf": 0.164527088 },
              { "nodeid": 62, "leaf": -0.0363011025 }
            ]}
          ]}
        ]},
        { "nodeid": 10, "depth": 3, "split": 19, "split_condition": -1.94977188, "yes": 19, "no": 20, "missing": 19, "children": [
          { "nodeid": 19, "depth": 4, "split": 0, "split_condition": 0.0120491069, "yes": 35, "no": 36, "missing": 35, "children": [
            { "nodeid": 35, "leaf": -0.188888893 },
            { "nodeid": 36, "depth": 5, "split": 19, "split_condition": -2.13040638, "yes": 63, "no": 64, "missing": 63, "children": [
              { "nodeid": 63, "leaf": 0.194298133 },
              { "nodeid": 64, "leaf": 0.143497631 }
            ]}
          ]},
          { "nodeid": 20, "depth": 4, "split": 31, "split_condition": -1.92660475, "yes": 37, "no": 38, "missing": 37, "children": [
            { "nodeid": 37, "depth": 5, "split": 0, "split_condition": 0.0120491069, "yes": 65, "no": 66, "missing": 65, "children": [
              { "nodeid": 65, "leaf": -0.196039602 },
              { "nodeid": 66, "leaf": 0.153542086 }
            ]},
            { "nodeid": 38, "depth": 5, "split": 35, "split_condition": -2.13551331, "yes": 67, "no": 68, "missing": 67, "children": [
              { "nodeid": 67, "leaf": 0.0601078384 },
              { "nodeid": 68, "leaf": -0.19960472 }
            ]}
          ]}
        ]}
      ]}
    ]},
    { "nodeid": 2, "depth": 1, "split": 0, "split_condition": 0.0120491069, "yes": 5, "no": 6, "missing": 5, "children": [
      { "nodeid": 5, "leaf": -0.199837103 },
      { "nodeid": 6, "depth": 2, "split": 1, "split_condition": 0.714727104, "yes": 11, "no": 12, "missing": 11, "children": [
        { "nodeid": 11, "depth": 3, "split": 27, "split_condition": -0.594576836, "yes": 21, "no": 22, "missing": 21, "children": [
          { "nodeid": 21, "depth": 4, "split": 27, "split_condition": -1.15986514, "yes": 39, "no": 40, "missing": 39, "children": [
            { "nodeid": 39, "depth": 5, "split": 27, "split_condition": -1.53672397, "yes": 69, "no": 70, "missing": 69, "children": [
              { "nodeid": 69, "leaf": 0.196166188 },
              { "nodeid": 70, "leaf": 0.17194289 }
            ]},
            { "nodeid": 40, "depth": 5, "split": 36, "split_condition": -0.0422272943, "yes": 71, "no": 72, "missing": 71, "children": [
              { "nodeid": 71, "leaf": -0.0260610711 },
              { "nodeid": 72, "leaf": 0.17708455 }
            ]}
          ]},
          { "nodeid": 22, "depth": 4, "split": 31, "split_condition": -1.20647526, "yes": 41, "no": 42, "missing": 41, "children": [
            { "nodeid": 41, "depth": 5, "split": 36, "split_condition": -0.0151666664, "yes": 73, "no": 74, "missing": 73, "children": [
              { "nodeid": 73, "leaf": 0.0618638955 },
              { "nodeid": 74, "leaf": 0.174440756 }
            ]},
            { "nodeid": 42, "depth": 5, "split": 19, "split_condition": -1.58850229, "yes": 75, "no": 76, "missing": 75, "children": [
              { "nodeid": 75, "leaf": 0.17523019 },
              { "nodeid": 76, "leaf": -0.184021637 }
            ]}
          ]}
        ]},
        { "nodeid": 12, "depth": 3, "split": 0, "split_condition": 0.509461164, "yes": 23, "no": 24, "missing": 23, "children": [
          { "nodeid": 23, "depth": 4, "split": 27, "split_condition": -0.971435726, "yes": 43, "no": 44, "missing": 43, "children": [
            { "nodeid": 43, "depth": 5, "split": 35, "split_condition": -0.325623214, "yes": 77, "no": 78, "missing": 77, "children": [
              { "nodeid": 77, "leaf": 0.1967154 },
              { "nodeid": 78, "leaf": 0.168576613 }
            ]},
            { "nodeid": 44, "depth": 5, "split": 1, "split_condition": 1.11736679, "yes": 79, "no": 80, "missing": 79, "children": [
              { "nodeid": 79, "leaf": 0.00700399233 },
              { "nodeid": 80, "leaf": 0.188343391 }
            ]}
          ]},
          { "nodeid": 24, "depth": 4, "split": 1, "split_condition": 0.991979122, "yes": 45, "no": 46, "missing": 45, "children": [
            { "nodeid": 45, "depth": 5, "split": 27, "split_condition": 0.347570211, "yes": 81, "no": 82, "missing": 81, "children": [
              { "nodeid": 81, "leaf": 0.192722186 },
              { "nodeid": 82, "leaf": 0.0443030894 }
            ]},
            { "nodeid": 46, "depth": 5, "split": 8, "split_condition": -1.35456133, "yes": 83, "no": 84, "missing": 83, "children": [
              { "nodeid": 83, "leaf": 0.161351413 },
              { "nodeid": 84, "leaf": 0.198548689 }
            ]}
          ]}
        ]}
      ]}
    ]}
  ]},
  { "nodeid": 0, "depth": 0, "split": 1, "split_condition": 0.42852065, "yes": 1, "no": 2, "missing": 1, "children": [
    { "nodeid": 1, "depth": 1, "split": 32, "split_condition": 1.33240974, "yes": 3, "no": 4, "missing": 3, "children": [
      { "nodeid": 3, "depth": 2, "split": 24, "split_condition": 1.53533232, "yes": 7, "no": 8, "missing": 7, "children": [
        { "nodeid": 7, "depth": 3, "split": 27, "split_condition": -1.9135828, "yes": 13, "no": 14, "missing": 13, "children": [
          { "nodeid": 13, "depth": 4, "split": 0, "split_condition": 0.0120491069, "yes": 25, "no": 26, "missing": 25, "children": [
            { "nodeid": 25, "leaf": -0.181850329 },
            { "nodeid": 26, "depth": 5, "split": 35, "split_condition": -0.506612241, "yes": 47, "no": 48, "missing": 47, "children": [
              { "nodeid": 47, "leaf": 0.170162663 },
              { "nodeid": 48, "leaf": 0.102132991 }
            ]}
          ]},
          { "nodeid": 14, "depth": 4, "split": 31, "split_condition": -1.92660475, "yes": 27, "no": 28, "missing": 27, "children": [
            { "nodeid": 27, "depth": 5, "split": 0, "split_condition": 0.0120491069, "yes": 49, "no": 50, "missing": 49, "children": [
              { "nodeid": 49, "leaf": -0.181830749 },
              { "nodeid": 50, "leaf": 0.143940538 }
            ]},
            { "nodeid": 28, "depth": 5, "split": 1, "split_condition": 0.410937965, "yes": 51, "no": 52, "missing": 51, "children": [
              { "nodeid": 51, "leaf": -0.1818645 },
              { "nodeid": 52, "leaf": -0.167182267 }
            ]}
          ]}
        ]},
        { "nodeid": 8, "depth": 3, "split": 27, "split_condition": -1.53672397, "yes": 15, "no": 16, "missing": 15, "children": [
          { "nodeid": 15, "depth": 4, "split": 0, "split_condition": 0.0120491069, "yes": 29, "no": 30, "missing": 29, "children": [
            { "nodeid": 29, "leaf": -0.180781275 },
            { "nodeid": 30, "depth": 5, "split": 27, "split_condition": -1.72515345, "yes": 53, "no": 54, "missing": 53, "children": [
              { "nodeid": 53, "leaf": 0.173794255 },
              { "nodeid": 54, "leaf": 0.110750496 }
            ]}
          ]},
          { "nodeid": 16, "depth": 4, "split": 19, "split_condition": -1.94977188, "yes": 31, "no": 32, "missing": 31, "children": [
            { "nodeid": 31, "depth": 5, "split": 0, "split_condition": 0.0120491069, "yes": 55, "no": 56, "missing": 55, "children": [
              { "nodeid": 55, "leaf": -0.175312787 },
              { "nodeid": 56, "leaf": 0.166113898 }
            ]},
            { "nodeid": 32, "depth": 5, "split": 31, "split_condition": -1.92660475, "yes": 57, "no": 58, "missing": 57, "children": [
              { "nodeid": 57, "leaf": 0.0745067298 },
              { "nodeid": 58, "leaf": -0.17940037 }
            ]}
          ]}
        ]}
      ]},
      { "nodeid": 4, "depth": 2, "split": 27, "split_condition": -1.15986514, "yes": 9, "no": 10, "missing": 9, "children": [
        { "nodeid": 9, "depth": 3, "split": 0, "split_condition": 0.0120491069, "yes": 17, "no": 18, "missing": 17, "children": [
          { "nodeid": 17, "leaf": -0.181511253 },
          { "nodeid": 18, "depth": 4, "split": 27, "split_condition": -1.53672397, "yes": 33, "no": 34, "missing": 33, "children": [
            { "nodeid": 33, "depth": 5, "split": 31, "split_condition": -1.74657226, "yes": 59, "no": 60, "missing": 59, "children": [
              { "nodeid": 59, "leaf": 0.177532747 },
              { "nodeid": 60, "leaf": 0.147178993 }
            ]},
            { "nodeid": 34, "depth": 5, "split": 31, "split_condition": -1.56654, "yes": 61, "no": 62, "missing": 61, "children": [
              { "nodeid": 61, "leaf": 0.13968502 },
              { "nodeid": 62, "leaf": -0.0487236045 }
            ]}
          ]}
        ]},
        { "nodeid": 10, "depth": 3, "split": 19, "split_condition": -1.94977188, "yes": 19, "no": 20, "missing": 19, "children": [
          { "nodeid": 19, "depth": 4, "split": 0, "split_condition": 0.0120491069, "yes": 35, "no": 36, "missing": 35, "children": [
            { "nodeid": 35, "leaf": -0.172547206 },
            { "nodeid": 36, "depth": 5, "split": 19, "split_condition": -2.13040638, "yes": 63, "no": 64, "missing": 63, "children": [
              { "nodeid": 63, "leaf": 0.176658213 },
              { "nodeid": 64, "leaf": 0.130191132 }
            ]}
          ]},
          { "nodeid": 20, "depth": 4, "split": 31, "split_condition": -1.92660475, "yes": 37, "no": 38, "missing": 37, "children": [
            { "nodeid": 37, "depth": 5, "split": 0, "split_condition": 0.0120491069, "yes": 65, "no": 66, "missing": 65, "children": [
              { "nodeid": 65, "leaf": -0.178556025 },
              { "nodeid": 66, "leaf": 0.139113024 }
            ]},
            { "nodeid": 38, "depth": 5, "split": 35, "split_condition": -2.13551331, "yes": 67, "no": 68, "missing": 67, "children": [
              { "nodeid": 67, "leaf": 0.0543146692 },
              { "nodeid": 68, "leaf": -0.181514949 }
            ]}
          ]}
        ]}
      ]}
    ]},
    { "nodeid": 2, "depth": 1, "split": 0, "split_condition": 0.0120491069, "yes": 5, "no": 6, "missing": 5, "children": [
      { "nodeid": 5, "leaf": -0.181736782 },
      { "nodeid": 6, "depth": 2, "split": 1, "split_condition": 0.714727104, "yes": 11, "no": 12, "missing": 11, "children": [
        { "nodeid": 11, "depth": 3, "split": 27, "split_condition": -0.594576836, "yes": 21, "no": 22, "missing": 21, "children": [
          { "nodeid": 21, "depth": 4, "split": 27, "split_condition": -1.15986514, "yes": 39, "no": 40, "missing": 39, "children": [
            { "nodeid": 39, "depth": 5, "split": 27, "split_condition": -1.53672397, "yes": 69, "no": 70, "missing": 69, "children": [
              { "nodeid": 69, "leaf": 0.178319693 },
              { "nodeid": 70, "leaf": 0.155945107 }
            ]},
            { "nodeid": 40, "depth": 5, "split": 36, "split_condition": -0.0422272943, "yes": 71, "no": 72, "missing": 71, "children": [
              { "nodeid": 71, "leaf": -0.0234627295 },
              { "nodeid": 72, "leaf": 0.160684869 }
            ]}
          ]},
          { "nodeid": 22, "depth": 4, "split": 31, "split_condition": -1.20647526, "yes": 41, "no": 42, "missing": 41, "children": [
            { "nodeid": 41, "depth": 5, "split": 36, "split_condition": -0.0151666664, "yes": 73, "no": 74, "missing": 73, "children": [
              { "nodeid": 73, "leaf": 0.0557766967 },
              { "nodeid": 74, "leaf": 0.158288732 }
            ]},
            { "nodeid": 42, "depth": 5, "split": 19, "split_condition": -1.58850229, "yes": 75, "no": 76, "missing": 75, "children": [
              { "nodeid": 75, "leaf": 0.159048781 },
              { "nodeid": 76, "leaf": -0.167088285 }
            ]}
          ]}
        ]},
        { "nodeid": 12, "depth": 3, "split": 0, "split_condition": 0.509461164, "yes": 23, "no": 24, "missing": 23, "children": [
          { "nodeid": 23, "depth": 4, "split": 27, "split_condition": -0.78300631, "yes": 43, "no": 44, "missing": 43, "children": [
            { "nodeid": 43, "depth": 5, "split": 35, "split_condition": -0.325623214, "yes": 77, "no": 78, "missing": 77, "children": [
              { "nodeid": 77, "leaf": 0.178229541 },
              { "nodeid": 78, "leaf": 0.145063445 }
            ]},
            { "nodeid": 44, "depth": 5, "split": 1, "split_condition": 1.1390059, "yes": 79, "no": 80, "missing": 79, "children": [
              { "nodeid": 79, "leaf": -0.0235949047 },
              { "nodeid": 80, "leaf": 0.172174498 }
            ]}
          ]},
          { "nodeid": 24, "depth": 4, "split": 1, "split_condition": 1.05583429, "yes": 45, "no": 46, "missing": 45, "children": [
            { "nodeid": 45, "depth": 5, "split": 8, "split_condition": -0.957014859, "yes": 81, "no": 82, "missing": 81, "children": [
              { "nodeid": 81, "leaf": 0.0227010995 },
              { "nodeid": 82, "leaf": 0.174193159 }
            ]},
            { "nodeid": 46, "depth": 5, "split": 28, "split_condition": -0.854299426, "yes": 83, "no": 84, "missing": 83, "children": [
              { "nodeid": 83, "leaf": 0.175765201 },
              { "nodeid": 84, "leaf": 0.180957854 }
            ]}
          ]}
        ]}
      ]}
    ]}
  ]},
  { "nodeid": 0, "depth": 0, "split": 1, "split_condition": 0.417620182, "yes": 1, "no": 2, "missing": 1, "children": [
    { "nodeid": 1, "depth": 1, "split": 32, "split_condition": 1.33240974, "yes": 3, "no": 4, "missing": 3, "children": [
      { "nodeid": 3, "depth": 2, "split": 24, "split_condition": 1.53533232, "yes": 7, "no": 8, "missing": 7, "children": [
        { "nodeid": 7, "depth": 3, "split": 27, "split_condition": -1.9135828, "yes": 13, "no": 14, "missing": 13, "children": [
          { "nodeid": 13, "depth": 4, "split": 0, "split_condition": 0.0120491069, "yes": 25, "no": 26, "missing": 25, "children": [
            { "nodeid": 25, "leaf": -0.16823785 },
            { "nodeid": 26, "depth": 5, "split": 31, "split_condition": -0.846410573, "yes": 47, "no": 48, "missing": 47, "children": [
              { "nodeid": 47, "leaf": 0.157878533 },
              { "nodeid": 48, "leaf": 0.102918006 }
            ]}
          ]},
          { "nodeid": 14, "depth": 4, "split": 31, "split_condition": -1.92660475, "yes": 27, "no": 28, "missing": 27, "children": [
            { "nodeid": 27, "depth": 5, "split": 0, "split_condition": 0.0120491069, "yes": 49, "no": 50, "missing": 49, "children": [
              { "nodeid": 49, "leaf": -0.168220356 },
              { "nodeid": 50, "leaf": 0.131584316 }
            ]},
            { "nodeid": 28, "leaf": -0.16824688 }
          ]}
        ]},
        { "nodeid": 8, "depth": 3, "split": 27, "split_condition": -1.53672397, "yes": 15, "no": 16, "missing": 15, "children": [
          { "nodeid": 15, "depth": 4, "split": 0, "split_condition": 0.0120491069, "yes": 29, "no": 30, "missing": 29, "children": [
            { "nodeid": 29, "leaf": -0.167275682 },
            { "nodeid": 30, "depth": 5, "split": 27, "split_condition": -1.72515345, "yes": 51, "no": 52, "missing": 51, "children": [
              { "nodeid": 51, "leaf": 0.160724416 },
              { "nodeid": 52, "leaf": 0.0987786502 }
            ]}
          ]},
          { "nodeid": 16, "depth": 4, "split": 19, "split_condition": -1.94977188, "yes": 31, "no": 32, "missing": 31, "children": [
            { "nodeid": 31, "depth": 5, "split": 0, "split_condition": 0.0120491069, "yes": 53, "no": 54, "missing": 53, "children": [
              { "nodeid": 53, "leaf": -0.162407666 },
              { "nodeid": 54, "leaf": 0.152041197 }
            ]},
            { "nodeid": 32, "depth": 5, "split": 31, "split_condition": -1.92660475, "yes": 55, "no": 56, "missing": 55, "children": [
              { "nodeid": 55, "leaf": 0.0665899962 },
              { "nodeid": 56, "leaf": -0.166675404 }
            ]}
          ]}
        ]}
      ]},
      { "nodeid": 4, "depth": 2, "split": 27, "split_condition": -1.15986514, "yes": 9, "no": 10, "missing": 9, "children": [
        { "nodeid": 9, "depth": 3, "split": 0, "split_condition": 0.0120491069, "yes": 17, "no": 18, "missing": 17, "children": [
          { "nodeid": 17, "leaf": -0.167930827 },
          { "nodeid": 18, "depth": 4, "split": 27, "split_condition": -1.53672397, "yes": 33, "no": 34, "missing": 33, "children": [
            { "nodeid": 33, "depth": 5, "split": 27, "split_condition": -1.72515345, "yes": 57, "no": 58, "missing": 57, "children": [
              { "nodeid": 57, "leaf": 0.15952839 },
              { "nodeid": 58, "leaf": 0.115442649 }
            ]},
            { "nodeid": 34, "depth": 5, "split": 35, "split_condition": -1.59254634, "yes": 59, "no": 60, "missing": 59, "children": [
              { "nodeid": 59, "leaf": 0.148008466 },
              { "nodeid": 60, "leaf": -0.0333412811 }
            ]}
          ]}
        ]},
        { "nodeid": 10, "depth": 3, "split": 19, "split_condition": -1.94977188, "yes": 19, "no": 20, "missing": 19, "children": [
          { "nodeid": 19, "depth": 4, "split": 0, "split_condition": 0.0120491069, "yes": 35, "no": 36, "missing": 35, "children": [
            { "nodeid": 35, "leaf": -0.159948155 },
            { "nodeid": 36, "depth": 5, "split": 19, "split_condition": -2.13040638, "yes": 61, "no": 62, "missing": 61, "children": [
              { "nodeid": 61, "leaf": 0.163067847 },
              { "nodeid": 62, "leaf": 0.115485825 }
            ]}
          ]},
          { "nodeid": 20, "depth": 4, "split": 31, "split_condition": -1.92660475, "yes": 37, "no": 38, "missing": 37, "children": [
            { "nodeid": 37, "depth": 5, "split": 0, "split_condition": 0.0120491069, "yes": 63, "no": 64, "missing": 63, "children": [
              { "nodeid": 63, "leaf": -0.165229023 },
              { "nodeid": 64, "leaf": 0.124556474 }
            ]},
            { "nodeid": 38, "depth": 5, "split": 35, "split_condition": -2.13551331, "yes": 65, "no": 66, "missing": 65, "children": [
              { "nodeid": 65, "leaf": 0.0446055233 },
              { "nodeid": 66, "leaf": -0.168224737 }
            ]}
          ]}
        ]}
      ]}
    ]},
    { "nodeid": 2, "depth": 1, "split": 0, "split_condition": 0.0120491069, "yes": 5, "no": 6, "missing": 5, "children": [
      { "nodeid": 5, "leaf": -0.168291971 },
      { "nodeid": 6, "depth": 2, "split": 1, "split_condition": 0.694122493, "yes": 11, "no": 12, "missing": 11, "children": [
        { "nodeid": 11, "depth": 3, "split": 27, "split_condition": -0.594576836, "yes": 21, "no": 22, "missing": 21, "children": [
          { "nodeid": 21, "depth": 4, "split": 35, "split_condition": -0.144634202, "yes": 39, "no": 40, "missing": 39, "children": [
            { "nodeid": 39, "depth": 5, "split": 27, "split_condition": -0.971435726, "yes": 67, "no": 68, "missing": 67, "children": [
              { "nodeid": 67, "leaf": 0.160077244 },
              { "nodeid": 68, "leaf": 0.11306224 }
            ]},
            { "nodeid": 40, "depth": 5, "split": 20, "split_condition": -0.0943665951, "yes": 69, "no": 70, "missing": 69, "children": [
              { "nodeid": 69, "leaf": -0.0874119028 },
              { "nodeid": 70, "leaf": 0.147000834 }
            ]}
          ]},
          { "nodeid": 22, "depth": 4, "split": 19, "split_condition": -1.40786755, "yes": 41, "no": 42, "missing": 41, "children": [
            { "nodeid": 41, "depth": 5, "split": 19, "split_condition": -1.76913714, "yes": 71, "no": 72, "missing": 71, "children": [
              { "nodeid": 71, "leaf": 0.162457526 },
              { "nodeid": 72, "leaf": 0.0779579803 }
            ]},
            { "nodeid": 42, "depth": 5, "split": 31, "split_condition": -1.20647526, "yes": 73, "no": 74, "missing": 73, "children": [
              { "nodeid": 73, "leaf": 0.0912776217 },
              { "nodeid": 74, "leaf": -0.157144591 }
            ]}
          ]}
        ]},
        { "nodeid": 12, "depth": 3, "split": 0, "split_condition": 0.479616463, "yes": 23, "no": 24, "missing": 23, "children": [
          { "nodeid": 23, "depth": 4, "split": 35, "split_condition": -0.506612241, "yes": 43, "no": 44, "missing": 43, "children": [
            { "nodeid": 43, "depth": 5, "split": 27, "split_condition": -0.40614745, "yes": 75, "no": 76, "missing": 75, "children": [
              { "nodeid": 75, "leaf": 0.16407752 },
              { "nodeid": 76, "leaf": 0.110092126 }
            ]},
            { "nodeid": 44, "depth": 5, "split": 1, "split_condition": 1.16278195, "yes": 77, "no": 78, "missing": 77, "children": [
              { "nodeid": 77, "leaf": -0.00233035884 },
              { "nodeid": 78, "leaf": 0.160292789 }
            ]}
          ]},
          { "nodeid": 24, "depth": 4, "split": 1, "split_condition": 0.984458745, "yes": 45, "no": 46, "missing": 45, "children": [
            { "nodeid": 45, "depth": 5, "split": 27, "split_condition": 0.347570211, "yes": 79, "no": 80, "missing": 79, "children": [
              { "nodeid": 79, "leaf": 0.161265478 },
              { "nodeid": 80, "leaf": 0.0086766677 }
            ]},
            { "nodeid": 46, "depth": 5, "split": 8, "split_condition": -1.35456133, "yes": 81, "no": 82, "missing": 81, "children": [
              { "nodeid": 81, "leaf": 0.131118521 },
              { "nodeid": 82, "leaf": 0.166927949 }
            ]}
          ]}
        ]}
      ]}
    ]}
  ]},
  { "nodeid": 0, "depth": 0, "split": 1, "split_condition": 0.42852065, "yes": 1, "no": 2, "missing": 1, "children": [
    { "nodeid": 1, "depth": 1, "split": 32, "split_condition": 1.33240974, "yes": 3, "no": 4, "missing": 3, "children": [
      { "nodeid": 3, "depth": 2, "split": 24, "split_condition": 1.53533232, "yes": 7, "no": 8, "missing": 7, "children": [
        { "nodeid": 7, "depth": 3, "split": 27, "split_condition": -1.9135828, "yes": 13, "no": 14, "missing": 13, "children": [
          { "nodeid": 13, "depth": 4, "split": 0, "split_condition": 0.0120491069, "yes": 25, "no": 26, "missing": 25, "children": [
            { "nodeid": 25, "leaf": -0.157668382 },
            { "nodeid": 26, "depth": 5, "split": 35, "split_condition": -0.687601268, "yes": 47, "no": 48, "missing": 47, "children": [
              { "nodeid": 47, "leaf": 0.147172868 },
              { "nodeid": 48, "leaf": 0.0891367868 }
            ]}
          ]},
          { "nodeid": 14, "depth": 4, "split": 31, "split_condition": -1.92660475, "yes": 27, "no": 28, "missing": 27, "children": [
            { "nodeid": 27, "depth": 5, "split": 0, "split_condition": 0.0120491069, "yes": 49, "no": 50, "missing": 49, "children": [
              { "nodeid": 49, "leaf": -0.157651976 },
              { "nodeid": 50, "leaf": 0.121732824 }
            ]},
            { "nodeid": 28, "depth": 5, "split": 1, "split_condition": 0.410937965, "yes": 51, "no": 52, "missing": 51, "children": [
              { "nodeid": 51, "leaf": -0.157679185 },
              { "nodeid": 52, "leaf": -0.144611582 }
            ]}
          ]}
        ]},
        { "nodeid": 8, "depth": 3, "split": 27, "split_condition": -1.53672397, "yes": 15, "no": 16, "missing": 15, "children": [
          { "nodeid": 15, "depth": 4, "split": 0, "split_condition": 0.0120491069, "yes": 29, "no": 30, "missing": 29, "children": [
            { "nodeid": 29, "leaf": -0.156776413 },
            { "nodeid": 30, "depth": 5, "split": 27, "split_condition": -1.9135828, "yes": 53, "no": 54, "missing": 53, "children": [
              { "nodeid": 53, "leaf": 0.153885767 },
              { "nodeid": 54, "leaf": 0.111602046 }
            ]}
          ]},
          { "nodeid": 16, "depth": 4, "split": 19, "split_condition": -1.94977188, "yes": 31, "no": 32, "missing": 31, "children": [
            { "nodeid": 31, "depth": 5, "split": 0, "split_condition": 0.0120491069, "yes": 55, "no": 56, "missing": 55, "children": [
              { "nodeid": 55, "leaf": -0.152220681 },
              { "nodeid": 56, "leaf": 0.142132744 }
            ]},
            { "nodeid": 32, "depth": 5, "split": 31, "split_condition": -1.74657226, "yes": 57, "no": 58, "missing": 57, "children": [
              { "nodeid": 57, "leaf": 0.0404665694 },
              { "nodeid": 58, "leaf": -0.156849325 }
            ]}
          ]}
        ]}
      ]},
      { "nodeid": 4, "depth": 2, "split": 27, "split_condition": -1.15986514, "yes": 9, "no": 10, "missing": 9, "children": [
        { "nodeid": 9, "depth": 3, "split": 0, "split_condition": 0.0120491069, "yes": 17, "no": 18, "missing": 17, "children": [
          { "nodeid": 17, "leaf": -0.157384545 },
          { "nodeid": 18, "depth": 4, "split": 27, "split_condition": -1.53672397, "yes": 33, "no": 34, "missing": 33, "children": [
            { "nodeid": 33, "depth": 5, "split": 31, "split_condition": -1.38650751, "yes": 59, "no": 60, "missing": 59, "children": [
              { "nodeid": 59, "leaf": 0.150345832 },
              { "nodeid": 60, "leaf": 0.11222025 }
            ]},
            { "nodeid": 34, "depth": 5, "split": 35, "split_condition": -1.59254634, "yes": 61, "no": 62, "missing": 61, "children": [
              { "nodeid": 61, "leaf": 0.137906596 },
              { "nodeid": 62, "leaf": -0.0235560369 }
            ]}
          ]}
        ]},
        { "nodeid": 10, "depth": 3, "split": 19, "split_condition": -1.94977188, "yes": 19, "no": 20, "missing": 19, "children": [
          { "nodeid": 19, "depth": 4, "split": 0, "split_condition": 0.0120491069, "yes": 35, "no": 36, "missing": 35, "children": [
            { "nodeid": 35, "leaf": -0.1499369 },
            { "nodeid": 36, "depth": 5, "split": 19, "split_condition": -2.13040638, "yes": 63, "no": 64, "missing": 63, "children": [
              { "nodeid": 63, "leaf": 0.152729407 },
              { "nodeid": 64, "leaf": 0.109943949 }
            ]}
          ]},
          { "nodeid": 20, "depth": 4, "split": 31, "split_condition": -1.92660475, "yes": 37, "no": 38, "missing": 37, "children": [
            { "nodeid": 37, "depth": 5, "split": 0, "split_condition": 0.0120491069, "yes": 65, "no": 66, "missing": 65, "children": [
              { "nodeid": 65, "leaf": -0.154918134 },
              { "nodeid": 66, "leaf": 0.117586188 }
            ]},
            { "nodeid": 38, "depth": 5, "split": 35, "split_condition": -2.13551331, "yes": 67, "no": 68, "missing": 67, "children": [
              { "nodeid": 67, "leaf": 0.0444323272 },
              { "nodeid": 68, "leaf": -0.157418236 }
            ]}
          ]}
        ]}
      ]}
    ]},
    { "nodeid": 2, "depth": 1, "split": 0, "split_condition": 0.0120491069, "yes": 5, "no": 6, "missing": 5, "children": [
      { "nodeid": 5, "leaf": -0.157564327 },
      { "nodeid": 6, "depth": 2, "split": 1, "split_condition": 0.714727104, "yes": 11, "no": 12, "missing": 11, "children": [
        { "nodeid": 11, "depth": 3, "split": 27, "split_condition": -0.40614745, "yes": 21, "no": 22, "missing": 21, "children": [
          { "nodeid": 21, "depth": 4, "split": 27, "split_condition": -0.971435726, "yes": 39, "no": 40, "missing": 39, "children": [
            { "nodeid": 39, "depth": 5, "split": 27, "split_condition": -1.53672397, "yes": 69, "no": 70, "missing": 69, "children": [
              { "nodeid": 69, "leaf": 0.15493007 },
              { "nodeid": 70, "leaf": 0.125761807 }
            ]},
            { "nodeid": 40, "depth": 5, "split": 36, "split_condition": -0.0422272943, "yes": 71, "no": 72, "missing": 71, "children": [
              { "nodeid": 71, "leaf": -0.0568113327 },
              { "nodeid": 72, "leaf": 0.128324673 }
            ]}
          ]},
          { "nodeid": 22, "depth": 4, "split": 35, "split_condition": -1.41155732, "yes": 41, "no": 42, "missing": 41, "children": [
            { "nodeid": 41, "depth": 5, "split": 35, "split_condition": -1.9545244, "yes": 73, "no": 74, "missing": 73, "children": [
              { "nodeid": 73, "leaf": 0.192254528 },
              { "nodeid": 74, "leaf": 0.106437705 }
            ]},
            { "nodeid": 42, "depth": 5, "split": 19, "split_condition": -1.76913714, "yes": 75, "no": 76, "missing": 75, "children": [
              { "nodeid": 75, "leaf": 0.145873517 },
              { "nodeid": 76, "leaf": -0.146429896 }
            ]}
          ]}
        ]},
        { "nodeid": 12, "depth": 3, "split": 1, "split_condition": 0.982000113, "yes": 23, "no": 24, "missing": 23, "children": [
          { "nodeid": 23, "depth": 4, "split": 27, "split_condition": -0.0292886198, "yes": 43, "no": 44, "missing": 43, "children": [
            { "nodeid": 43, "depth": 5, "split": 36, "split_condition": -0.0863489956, "yes": 77, "no": 78, "missing": 77, "children": [
              { "nodeid": 77, "leaf": 0.123499028 },
              { "nodeid": 78, "leaf": 0.153494492 }
            ]},
            { "nodeid": 44, "depth": 5, "split": 31, "split_condition": -0.306313515, "yes": 79, "no": 80, "missing": 79, "children": [
              { "nodeid": 79, "leaf": 0.114544988 },
              { "nodeid": 80, "leaf": -0.166151151 }
            ]}
          ]},
          { "nodeid": 24, "depth": 4, "split": 8, "split_condition": -1.04466939, "yes": 45, "no": 46, "missing": 45, "children": [
            { "nodeid": 45, "depth": 5, "split": 1, "split_condition": 1.15987122, "yes": 81, "no": 82, "missing": 81, "children": [
              { "nodeid": 81, "leaf": 0.0183449779 },
              { "nodeid": 82, "leaf": 0.147220924 }
            ]},
            { "nodeid": 46, "depth": 5, "split": 1, "split_condition": 1.44663811, "yes": 83, "no": 84, "missing": 83, "children": [
              { "nodeid": 83, "leaf": 0.154071555 },
              { "nodeid": 84, "leaf": 0.157136127 }
            ]}
          ]}
        ]}
      ]}
    ]}
  ]},
  { "nodeid": 0, "depth": 0, "split": 1, "split_condition": 0.417620182, "yes": 1, "no": 2, "missing": 1, "children": [
    { "nodeid": 1, "depth": 1, "split": 32, "split_condition": 1.33240974, "yes": 3, "no": 4, "missing": 3, "children": [
      { "nodeid": 3, "depth": 2, "split": 24, "split_condition": 1.53533232, "yes": 7, "no": 8, "missing": 7, "children": [
        { "nodeid": 7, "depth": 3, "split": 27, "split_condition": -1.9135828, "yes": 13, "no": 14, "missing": 13, "children": [
          { "nodeid": 13, "depth": 4, "split": 0, "split_condition": 0.0120491069, "yes": 25, "no": 26, "missing": 25, "children": [
            { "nodeid": 25, "leaf": -0.149253234 },
            { "nodeid": 26, "depth": 5, "split": 31, "split_condition": -1.20647526, "yes": 47, "no": 48, "missing": 47, "children": [
              { "nodeid": 47, "leaf": 0.141501337 },
              { "nodeid": 48, "leaf": 0.100488268 }
            ]}
          ]},
          { "nodeid": 14, "depth": 4, "split": 31, "split_condition": -1.92660475, "yes": 27, "no": 28, "missing": 27, "children": [
            { "nodeid": 27, "depth": 5, "split": 0, "split_condition": 0.0120491069, "yes": 49, "no": 50, "missing": 49, "children": [
              { "nodeid": 49, "leaf": -0.14923726 },
              { "nodeid": 50, "leaf": 0.11277809 }
            ]},
            { "nodeid": 28, "leaf": -0.149260029 }
          ]}
        ]},
        { "nodeid": 8, "depth": 3, "split": 27, "split_condition": -1.53672397, "yes": 15, "no": 16, "missing": 15, "children": [
          { "nodeid": 15, "depth": 4, "split": 0, "split_condition": 0.0120491069, "yes": 29, "no": 30, "missing": 29, "children": [
            { "nodeid": 29, "leaf": -0.148378372 },
            { "nodeid": 30, "depth": 5, "split": 27, "split_condition": -1.72515345, "yes": 53, "no": 54, "missing": 53, "children": [
              { "nodeid": 53, "leaf": 0.141649008 },
              { "nodeid": 54, "leaf": 0.080697231 }
            ]}
          ]},
          { "nodeid": 16, "depth": 4, "split": 19, "split_condition": -1.94977188, "yes": 31, "no": 32, "missing": 31, "children": [
            { "nodeid": 31, "depth": 5, "split": 0, "split_condition": 0.0120491069, "yes": 55, "no": 56, "missing": 55, "children": [
              { "nodeid": 55, "leaf": -0.143979251 },
              { "nodeid": 56, "leaf": 0.132329687 }
            ]},
            { "nodeid": 32, "depth": 5, "split": 31, "split_condition": -1.92660475, "yes": 57, "no": 58, "missing": 57, "children": [
              { "nodeid": 57, "leaf": 0.0567330085 },
              { "nodeid": 58, "leaf": -0.147515535 }
            ]}
          ]}
        ]}
      ]},
      { "nodeid": 4, "depth": 2, "split": 27, "split_condition": -1.3482945, "yes": 9, "no": 10, "missing": 9, "children": [
        { "nodeid": 9, "depth": 3, "split": 0, "split_condition": 0.0120491069, "yes": 17, "no": 18, "missing": 17, "children": [
          { "nodeid": 17, "leaf": -0.148930788 },
          { "nodeid": 18, "depth": 4, "split": 27, "split_condition": -1.72515345, "yes": 33, "no": 34, "missing": 33, "children": [
            { "nodeid": 33, "depth": 5, "split": 31, "split_condition": -1.20647526, "yes": 59, "no": 60, "missing": 59, "children": [
              { "nodeid": 59, "leaf": 0.143493921 },
              { "nodeid": 60, "leaf": 0.115923069 }
            ]},
            { "nodeid": 34, "depth": 5, "split": 31, "split_condition": -1.74657226, "yes": 61, "no": 62, "missing": 61, "children": [
              { "nodeid": 61, "leaf": 0.131530166 },
              { "nodeid": 62, "leaf": 0.0143331094 }
            ]}
          ]}
        ]},
        { "nodeid": 10, "depth": 3, "split": 19, "split_condition": -1.58850229, "yes": 19, "no": 20, "missing": 19, "children": [
          { "nodeid": 19, "depth": 4, "split": 0, "split_condition": 0.0120491069, "yes": 35, "no": 36, "missing": 35, "children": [
            { "nodeid": 35, "leaf": -0.149126753 },
            { "nodeid": 36, "depth": 5, "split": 19, "split_condition": -1.94977188, "yes": 63, "no": 64, "missing": 63, "children": [
              { "nodeid": 63, "leaf": 0.143587708 },
              { "nodeid": 64, "leaf": 0.027510101 }
            ]}
          ]},
          { "nodeid": 20, "depth": 4, "split": 31, "split_condition": -1.92660475, "yes": 37, "no": 38, "missing": 37, "children": [
            { "nodeid": 37, "depth": 5, "split": 0, "split_condition": 0.0120491069, "yes": 65, "no": 66, "missing": 65, "children": [
              { "nodeid": 65, "leaf": -0.146681532 },
              { "nodeid": 66, "leaf": 0.104991116 }
            ]},
            { "nodeid": 38, "depth": 5, "split": 35, "split_condition": -2.31650257, "yes": 67, "no": 68, "missing": 67, "children": [
              { "nodeid": 67, "leaf": 0.0912415311 },
              { "nodeid": 68, "leaf": -0.150249764 }
            ]}
          ]}
        ]}
      ]}
    ]},
    { "nodeid": 2, "depth": 1, "split": 0, "split_condition": 0.0120491069, "yes": 5, "no": 6, "missing": 5, "children": [
      { "nodeid": 5, "leaf": -0.149317071 },
      { "nodeid": 6, "depth": 2, "split": 1, "split_condition": 0.713176966, "yes": 11, "no": 12, "missing": 11, "children": [
        { "nodeid": 11, "depth": 3, "split": 27, "split_condition": -0.594576836, "yes": 21, "no": 22, "missing": 21, "children": [
          { "nodeid": 21, "depth": 4, "split": 27, "split_condition": -1.15986514, "yes": 39, "no": 40, "missing": 39, "children": [
            { "nodeid": 39, "depth": 5, "split": 27, "split_condition": -1.53672397, "yes": 69, "no": 70, "missing": 69, "children": [
              { "nodeid": 69, "leaf": 0.146202609 },
              { "nodeid": 70, "leaf": 0.123404525 }
            ]},
            { "nodeid": 40, "depth": 5, "split": 36, "split_condition": -0.0422272943, "yes": 71, "no": 72, "missing": 71, "children": [
              { "nodeid": 71, "leaf": -0.029550707 },
              { "nodeid": 72, "leaf": 0.129494697 }
            ]}
          ]},
          { "nodeid": 22, "depth": 4, "split": 35, "split_condition": -1.23056829, "yes": 41, "no": 42, "missing": 41, "children": [
            { "nodeid": 41, "depth": 5, "split": 35, "split_condition": -1.59254634, "yes": 73, "no": 74, "missing": 73, "children": [
              { "nodeid": 73, "leaf": 0.158237934 },
              { "nodeid": 74, "leaf": 0.0439194106 }
            ]},
            { "nodeid": 42, "depth": 5, "split": 19, "split_condition": -1.58850229, "yes": 75, "no": 76, "missing": 75, "children": [
              { "nodeid": 75, "leaf": 0.128773972 },
              { "nodeid": 76, "leaf": -0.132785887 }
            ]}
          ]}
        ]},
        { "nodeid": 12, "depth": 3, "split": 0, "split_condition": 0.519409418, "yes": 23, "no": 24, "missing": 23, "children": [
          { "nodeid": 23, "depth": 4, "split": 27, "split_condition": -0.971435726, "yes": 43, "no": 44, "missing": 43, "children": [
            { "nodeid": 43, "depth": 5, "split": 35, "split_condition": 1.66525602, "yes": 77, "no": 78, "missing": 77, "children": [
              { "nodeid": 77, "leaf": 0.144900829 },
              { "nodeid": 78, "leaf": -0.0298096389 }
            ]},
            { "nodeid": 44, "depth": 5, "split": 1, "split_condition": 1.07641745, "yes": 79, "no": 80, "missing": 79, "children": [
              { "nodeid": 79, "leaf": -0.0124045834 },
              { "nodeid": 80, "leaf": 0.136802286 }
            ]}
          ]},
          { "nodeid": 24, "depth": 4, "split": 8, "split_condition": -1.04808474, "yes": 45, "no": 46, "missing": 45, "children": [
            { "nodeid": 45, "depth": 5, "split": 1, "split_condition": 1.15987122, "yes": 81, "no": 82, "missing": 81, "children": [
              { "nodeid": 81, "leaf": -0.0220859218 },
              { "nodeid": 82, "leaf": 0.137977704 }
            ]},
            { "nodeid": 46, "depth": 5, "split": 1, "split_condition": 1.17227042, "yes": 83, "no": 84, "missing": 83, "children": [
              { "nodeid": 83, "leaf": 0.142927572 },
              { "nodeid": 84, "leaf": 0.14834097 }
            ]}
          ]}
        ]}
      ]}
    ]}
  ]},
  { "nodeid": 0, "depth": 0, "split": 1, "split_condition": 0.416972637, "yes": 1, "no": 2, "missing": 1, "children": [
    { "nodeid": 1, "depth": 1, "split": 32, "split_condition": 1.33240974, "yes": 3, "no": 4, "missing": 3, "children": [
      { "nodeid": 3, "depth": 2, "split": 24, "split_condition": 1.53533232, "yes": 7, "no": 8, "missing": 7, "children": [
        { "nodeid": 7, "depth": 3, "split": 27, "split_condition": -1.9135828, "yes": 13, "no": 14, "missing": 13, "children": [
          { "nodeid": 13, "depth": 4, "split": 0, "split_condition": 0.0120491069, "yes": 25, "no": 26, "missing": 25, "children": [
            { "nodeid": 25, "leaf": -0.142420933 },
            { "nodeid": 26, "depth": 5, "split": 35, "split_condition": -0.506612241, "yes": 47, "no": 48, "missing": 47, "children": [
              { "nodeid": 47, "leaf": 0.130424738 },
              { "nodeid": 48, "leaf": 0.0607766509 }
            ]}
          ]},
          { "nodeid": 14, "depth": 4, "split": 31, "split_condition": -2.106637, "yes": 27, "no": 28, "missing": 27, "children": [
            { "nodeid": 27, "depth": 5, "split": 0, "split_condition": 0.0120491069, "yes": 49, "no": 50, "missing": 49, "children": [
              { "nodeid": 49, "leaf": -0.142379358 },
              { "nodeid": 50, "leaf": 0.127287 }
            ]},
            { "nodeid": 28, "depth": 5, "split": 31, "split_condition": -1.92660475, "yes": 51, "no": 52, "missing": 51, "children": [
              { "nodeid": 51, "leaf": -0.128856704 },
              { "nodeid": 52, "leaf": -0.142427057 }
            ]}
          ]}
        ]},
        { "nodeid": 8, "depth": 3, "split": 27, "split_condition": -1.53672397, "yes": 15, "no": 16, "missing": 15, "children": [
          { "nodeid": 15, "depth": 4, "split": 0, "split_condition": 0.0120491069, "yes": 29, "no": 30, "missing": 29, "children": [
            { "nodeid": 29, "leaf": -0.141547158 },
            { "nodeid": 30, "depth": 5, "split": 23, "split_condition": -1.74717379, "yes": 53, "no": 54, "missing": 53, "children": [
              { "nodeid": 53, "leaf": 0.140435025 },
              { "nodeid": 54, "leaf": 0.0966264531 }
            ]}
          ]},
          { "nodeid": 16, "depth": 4, "split": 19, "split_condition": -2.13040638, "yes": 31, "no": 32, "missing": 31, "children": [
            { "nodeid": 31, "depth": 5, "split": 0, "split_condition": 0.0120491069, "yes": 55, "no": 56, "missing": 55, "children": [
              { "nodeid": 55, "leaf": -0.134698644 },
              { "nodeid": 56, "leaf": 0.136200354 }
            ]},
            { "nodeid": 32, "depth": 5, "split": 31, "split_condition": -1.74657226, "yes": 57, "no": 58, "missing": 57, "children": [
              { "nodeid": 57, "leaf": 0.0409347489 },
              { "nodeid": 58, "leaf": -0.142043948 }
            ]}
          ]}
        ]}
      ]},
      { "nodeid": 4, "depth": 2, "split": 27, "split_condition": -1.3482945, "yes": 9, "no": 10, "missing": 9, "children": [
        { "nodeid": 9, "depth": 3, "split": 0, "split_condition": 0.0120491069, "yes": 17, "no": 18, "missing": 17, "children": [
          { "nodeid": 17, "leaf": -0.142099813 },
          { "nodeid": 18, "depth": 4, "split": 27, "split_condition": -1.72515345, "yes": 33, "no": 34, "missing": 33, "children": [
            { "nodeid": 33, "depth": 5, "split": 31, "split_condition": -1.74657226, "yes": 59, "no": 60, "missing": 59, "children": [
              { "nodeid": 59, "leaf": 0.13922748 },
              { "nodeid": 60, "leaf": 0.120074347 }
            ]},
            { "nodeid": 34, "depth": 5, "split": 35, "split_condition": -1.41155732, "yes": 61, "no": 62, "missing": 61, "children": [
              { "nodeid": 61, "leaf": 0.122194923 },
              { "nodeid": 62, "leaf": 0.00445965258 }
            ]}
          ]}
        ]},
        { "nodeid": 10, "depth": 3, "split": 19, "split_condition": -1.58850229, "yes": 19, "no": 20, "missing": 19, "children": [
          { "nodeid": 19, "depth": 4, "split": 0, "split_condition": 0.0120491069, "yes": 35, "no": 36, "missing": 35, "children": [
            { "nodeid": 35, "leaf": -0.141986758 },
            { "nodeid": 36, "depth": 5, "split": 19, "split_condition": -1.94977188, "yes": 63, "no": 64, "missing": 63, "children": [
              { "nodeid": 63, "leaf": 0.135434523 },
              { "nodeid": 64, "leaf": 0.0239186659 }
            ]}
          ]},
          { "nodeid": 20, "depth": 4, "split": 31, "split_condition": -1.92660475, "yes": 37, "no": 38, "missing": 37, "children": [
            { "nodeid": 37, "depth": 5, "split": 0, "split_condition": 0.0120491069, "yes": 65, "no": 66, "missing": 65, "children": [
              { "nodeid": 65, "leaf": -0.139869735 },
              { "nodeid": 66, "leaf": 0.0972962454 }
            ]},
            { "nodeid": 38, "depth": 5, "split": 35, "split_condition": -2.13551331, "yes": 67, "no": 68, "missing": 67, "children": [
              { "nodeid": 67, "leaf": 0.0379291736 },
              { "nodeid": 68, "leaf": -0.143713936 }
            ]}
          ]}
        ]}
      ]}
    ]},
    { "nodeid": 2, "depth": 1, "split": 0, "split_condition": 0.0120491069, "yes": 5, "no": 6, "missing": 5, "children": [
      { "nodeid": 5, "leaf": -0.142464876 },
      { "nodeid": 6, "depth": 2, "split": 1, "split_condition": 0.737834692, "yes": 11, "no": 12, "missing": 11, "children": [
        { "nodeid": 11, "depth": 3, "split": 27, "split_condition": -0.40614745, "yes": 21, "no": 22, "missing": 21, "children": [
          { "nodeid": 21, "depth": 4, "split": 35, "split_condition": -0.325623214, "yes": 39, "no": 40, "missing": 39, "children": [
            { "nodeid": 39, "depth": 5, "split": 31, "split_condition": -1.20647526, "yes": 69, "no": 70, "missing": 69, "children": [
              { "nodeid": 69, "leaf": 0.1397001 },
              { "nodeid": 70, "leaf": 0.107783847 }
            ]},
            { "nodeid": 40, "depth": 5, "split": 20, "split_condition": -0.103206575, "yes": 71, "no": 72, "missing": 71, "children": [
              { "nodeid": 71, "leaf": -0.0836884156 },
              { "nodeid": 72, "leaf": 0.121744595 }
            ]}
          ]},
          { "nodeid": 22, "depth": 4, "split": 31, "split_condition": -1.20647526, "yes": 41, "no": 42, "missing": 41, "children": [
            { "nodeid": 41, "depth": 5, "split": 36, "split_condition": 0.28777343, "yes": 73, "no": 74, "missing": 73, "children": [
              { "nodeid": 73, "leaf": 0.0212809891 },
              { "nodeid": 74, "leaf": 0.137081191 }
            ]},
            { "nodeid": 42, "depth": 5, "split": 19, "split_condition": -1.76913714, "yes": 75, "no": 76, "missing": 75, "children": [
              { "nodeid": 75, "leaf": 0.136486813 },
              { "nodeid": 76, "leaf": -0.139165372 }
            ]}
          ]}
        ]},
        { "nodeid": 12, "depth": 3, "split": 1, "split_condition": 0.992588282, "yes": 23, "no": 24, "missing": 23, "children": [
          { "nodeid": 23, "depth": 4, "split": 27, "split_condition": -0.0292886198, "yes": 43, "no": 44, "missing": 43, "children": [
            { "nodeid": 43, "depth": 5, "split": 36, "split_condition": -0.108621567, "yes": 77, "no": 78, "missing": 77, "children": [
              { "nodeid": 77, "leaf": 0.108957767 },
              { "nodeid": 78, "leaf": 0.138160825 }
            ]},
            { "nodeid": 44, "depth": 5, "split": 31, "split_condition": -0.306313515, "yes": 79, "no": 80, "missing": 79, "children": [
              { "nodeid": 79, "leaf": 0.103907607 },
              { "nodeid": 80, "leaf": -0.144063458 }
            ]}
          ]},
          { "nodeid": 24, "depth": 4, "split": 8, "split_condition": -1.34125555, "yes": 45, "no": 46, "missing": 45, "children": [
            { "nodeid": 45, "depth": 5, "split": 1, "split_condition": 1.17389798, "yes": 81, "no": 82, "missing": 81, "children": [
              { "nodeid": 81, "leaf": -0.0405392461 },
              { "nodeid": 82, "leaf": 0.117812015 }
            ]},
            { "nodeid": 46, "depth": 5, "split": 1, "split_condition": 1.40380979, "yes": 83, "no": 84, "missing": 83, "children": [
              { "nodeid": 83, "leaf": 0.138251781 },
              { "nodeid": 84, "leaf": 0.141703814 }
            ]}
          ]}
        ]}
      ]}
    ]}
  ]},
  { "nodeid": 0, "depth": 0, "split": 1, "split_condition": 0.42852065, "yes": 1, "no": 2, "missing": 1, "children": [
    { "nodeid": 1, "depth": 1, "split": 32, "split_condition": 1.33240974, "yes": 3, "no": 4, "missing": 3, "children": [
      { "nodeid": 3, "depth": 2, "split": 24, "split_condition": 1.53533232, "yes": 7, "no": 8, "missing": 7, "children": [
        { "nodeid": 7, "depth": 3, "split": 27, "split_condition": -1.9135828, "yes": 13, "no": 14, "missing": 13, "children": [
          { "nodeid": 13, "depth": 4, "split": 0, "split_condition": 0.0120491069, "yes": 25, "no": 26, "missing": 25, "children": [
            { "nodeid": 25, "leaf": -0.136786267 },
            { "nodeid": 26, "depth": 5, "split": 31, "split_condition": -1.026443, "yes": 47, "no": 48, "missing": 47, "children": [
              { "nodeid": 47, "leaf": 0.126994714 },
              { "nodeid": 48, "leaf": 0.0782592222 }
            ]}
          ]},
          { "nodeid": 14, "depth": 4, "split": 31, "split_condition": -1.92660475, "yes": 27, "no": 28, "missing": 27, "children": [
            { "nodeid": 27, "depth": 5, "split": 0, "split_condition": 0.0120491069, "yes": 49, "no": 50, "missing": 49, "children": [
              { "nodeid": 49, "leaf": -0.136958465 },
              { "nodeid": 50, "leaf": 0.101955615 }
            ]},
            { "nodeid": 28, "depth": 5, "split": 1, "split_condition": 0.410937965, "yes": 51, "no": 52, "missing": 51, "children": [
              { "nodeid": 51, "leaf": -0.136795878 },
              { "nodeid": 52, "leaf": -0.124054305 }
            ]}
          ]}
        ]},
        { "nodeid": 8, "depth": 3, "split": 27, "split_condition": -1.53672397, "yes": 15, "no": 16, "missing": 15, "children": [
          { "nodeid": 15, "depth": 4, "split": 0, "split_condition": 0.0120491069, "yes": 29, "no": 30, "missing": 29, "children": [
            { "nodeid": 29, "leaf": -0.135902986 },
            { "nodeid": 30, "depth": 5, "split": 27, "split_condition": -1.72515345, "yes": 53, "no": 54, "missing": 53, "children": [
              { "nodeid": 53, "leaf": 0.128250718 },
              { "nodeid": 54, "leaf": 0.0658619627 }
            ]}
          ]},
          { "nodeid": 16, "depth": 4, "split": 19, "split_condition": -1.94977188, "yes": 31, "no": 32, "missing": 31, "children": [
            { "nodeid": 31, "depth": 5, "split": 0, "split_condition": 0.0120491069, "yes": 55, "no": 56, "missing": 55, "children": [
              { "nodeid": 55, "leaf": -0.131983563 },
              { "nodeid": 56, "leaf": 0.119625188 }
            ]},
            { "nodeid": 32, "depth": 5, "split": 35, "split_condition": -1.77353537, "yes": 57, "no": 58, "missing": 57, "children": [
              { "nodeid": 57, "leaf": 0.050537236 },
              { "nodeid": 58, "leaf": -0.134319291 }
            ]}
          ]}
        ]}
      ]},
      { "nodeid": 4, "depth": 2, "split": 27, "split_condition": -1.15986514, "yes": 9, "no": 10, "missing": 9, "children": [
        { "nodeid": 9, "depth": 3, "split": 0, "split_condition": 0.0120491069, "yes": 17, "no": 18, "missing": 17, "children": [
          { "nodeid": 17, "leaf": -0.136510789 },
          { "nodeid": 18, "depth": 4, "split": 27, "split_condition": -1.72515345, "yes": 33, "no": 34, "missing": 33, "children": [
            { "nodeid": 33, "depth": 5, "split": 27, "split_condition": -1.9135828, "yes": 59, "no": 60, "missing": 59, "children": [
              { "nodeid": 59, "leaf": 0.131258294 },
              { "nodeid": 60, "leaf": 0.10808368 }
            ]},
            { "nodeid": 34, "depth": 5, "split": 31, "split_condition": -1.74657226, "yes": 61, "no": 62, "missing": 61, "children": [
              { "nodeid": 61, "leaf": 0.116543092 },
              { "nodeid": 62, "leaf": -0.0128017832 }
            ]}
          ]}
        ]},
        { "nodeid": 10, "depth": 3, "split": 19, "split_condition": -1.58850229, "yes": 19, "no": 20, "missing": 19, "children": [
          { "nodeid": 19, "depth": 4, "split": 0, "split_condition": 0.0120491069, "yes": 35, "no": 36, "missing": 35, "children": [
            { "nodeid": 35, "leaf": -0.135735855 },
            { "nodeid": 36, "depth": 5, "split": 19, "split_condition": -1.94977188, "yes": 63, "no": 64, "missing": 63, "children": [
              { "nodeid": 63, "leaf": 0.124816433 },
              { "nodeid": 64, "leaf": 0.0169004183 }
            ]}
          ]},
          { "nodeid": 20, "depth": 4, "split": 31, "split_condition": -1.92660475, "yes": 37, "no": 38, "missing": 37, "children": [
            { "nodeid": 37, "depth": 5, "split": 0, "split_condition": 0.0219973475, "yes": 65, "no": 66, "missing": 65, "children": [
              { "nodeid": 65, "leaf": -0.130105346 },
              { "nodeid": 66, "leaf": 0.0915093273 }
            ]},
            { "nodeid": 38, "depth": 5, "split": 35, "split_condition": -2.31650257, "yes": 67, "no": 68, "missing": 67, "children": [
              { "nodeid": 67, "leaf": 0.0659013987 },
              { "nodeid": 68, "leaf": -0.136122704 }
            ]}
          ]}
        ]}
      ]}
    ]},
    { "nodeid": 2, "depth": 1, "split": 0, "split_condition": 0.0120491069, "yes": 5, "no": 6, "missing": 5, "children": [
      { "nodeid": 5, "leaf": -0.136675328 },
      { "nodeid": 6, "depth": 2, "split": 0, "split_condition": 0.459719986, "yes": 11, "no": 12, "missing": 11, "children": [
        { "nodeid": 11, "depth": 3, "split": 35, "split_condition": -0.687601268, "yes": 21, "no": 22, "missing": 21, "children": [
          { "nodeid": 21, "depth": 4, "split": 31, "split_condition": -1.026443, "yes": 39, "no": 40, "missing": 39, "children": [
            { "nodeid": 39, "depth": 5, "split": 39, "split_condition": 0.0182898939, "yes": 69, "no": 70, "missing": 69, "children": [
              { "nodeid": 69, "leaf": 0.134195268 },
              { "nodeid": 70, "leaf": 0.0747179613 }
            ]},
            { "nodeid": 40, "depth": 5, "split": 19, "split_condition": -1.40786755, "yes": 71, "no": 72, "missing": 71, "children": [
              { "nodeid": 71, "leaf": 0.130586892 },
              { "nodeid": 72, "leaf": 0.0234700274 }
            ]}
          ]},
          { "nodeid": 22, "depth": 4, "split": 1, "split_condition": 1.0573647, "yes": 41, "no": 42, "missing": 41, "children": [
            { "nodeid": 41, "depth": 5, "split": 27, "split_condition": -1.53672397, "yes": 73, "no": 74, "missing": 73, "children": [
              { "nodeid": 73, "leaf": 0.131448731 },
              { "nodeid": 74, "leaf": -0.132945135 }
            ]},
            { "nodeid": 42, "depth": 5, "split": 1, "split_condition": 1.17234182, "yes": 75, "no": 76, "missing": 75, "children": [
              { "nodeid": 75, "leaf": 0.0320867896 },
              { "nodeid": 76, "leaf": 0.127145931 }
            ]}
          ]}
        ]},
        { "nodeid": 12, "depth": 3, "split": 1, "split_condition": 0.843959212, "yes": 23, "no": 24, "missing": 23, "children": [
          { "nodeid": 23, "depth": 4, "split": 27, "split_condition": -0.217718035, "yes": 43, "no": 44, "missing": 43, "children": [
            { "nodeid": 43, "depth": 5, "split": 8, "split_condition": -0.73234868, "yes": 77, "no": 78, "missing": 77, "children": [
              { "nodeid": 77, "leaf": 0.0611499026 },
              { "nodeid": 78, "leaf": 0.129572913 }
            ]},
            { "nodeid": 44, "depth": 5, "split": 31, "split_condition": -0.846410573, "yes": 79, "no": 80, "missing": 79, "children": [
              { "nodeid": 79, "leaf": 0.100931965 },
              { "nodeid": 80, "leaf": -0.123446062 }
            ]}
          ]},
          { "nodeid": 24, "depth": 4, "split": 8, "split_condition": -0.811517119, "yes": 45, "no": 46, "missing": 45, "children": [
            { "nodeid": 45, "depth": 5, "split": 1, "split_condition": 1.08324695, "yes": 81, "no": 82, "missing": 81, "children": [
              { "nodeid": 81, "leaf": 0.039919015 },
              { "nodeid": 82, "leaf": 0.127744779 }
            ]},
            { "nodeid": 46, "depth": 5, "split": 29, "split_condition": -1.31845152, "yes": 83, "no": 84, "missing": 83, "children": [
              { "nodeid": 83, "leaf": 0.128695771 },
              { "nodeid": 84, "leaf": 0.135606527 }
            ]}
          ]}
        ]}
      ]}
    ]}
  ]},
  { "nodeid": 0, "depth": 0, "split": 1, "split_condition": 0.41832906, "yes": 1, "no": 2, "missing": 1, "children": [
    { "nodeid": 1, "depth": 1, "split": 32, "split_condition": 1.33240974, "yes": 3, "no": 4, "missing": 3, "children": [
      { "nodeid": 3, "depth": 2, "split": 24, "split_condition": 1.53533232, "yes": 7, "no": 8, "missing": 7, "children": [
        { "nodeid": 7, "depth": 3, "split": 27, "split_condition": -1.9135828, "yes": 13, "no": 14, "missing": 13, "children": [
          { "nodeid": 13, "depth": 4, "split": 0, "split_condition": 0.0120491069, "yes": 25, "no": 26, "missing": 25, "children": [
            { "nodeid": 25, "leaf": -0.132079586 },
            { "nodeid": 26, "depth": 5, "split": 35, "split_condition": -1.59254634, "yes": 47, "no": 48, "missing": 47, "children": [
              { "nodeid": 47, "leaf": 0.127229765 },
              { "nodeid": 48, "leaf": 0.088866286 }
            ]}
          ]},
          { "nodeid": 14, "depth": 4, "split": 31, "split_condition": -1.92660475, "yes": 27, "no": 28, "missing": 27, "children": [
            { "nodeid": 27, "depth": 5, "split": 0, "split_condition": 0.0120491069, "yes": 49, "no": 50, "missing": 49, "children": [
              { "nodeid": 49, "leaf": -0.132221118 },
              { "nodeid": 50, "leaf": 0.0952169001 }
            ]},
            { "nodeid": 28, "depth": 5, "split": 24, "split_condition": 1.34641171, "yes": 51, "no": 52, "missing": 51, "children": [
              { "nodeid": 51, "leaf": -0.132098511 },
              { "nodeid": 52, "leaf": -0.124353759 }
            ]}
          ]}
        ]},
        { "nodeid": 8, "depth": 3, "split": 27, "split_condition": -1.53672397, "yes": 15, "no": 16, "missing": 15, "children": [
          { "nodeid": 15, "depth": 4, "split": 0, "split_condition": 0.0120491069, "yes": 29, "no": 30, "missing": 29, "children": [
            { "nodeid": 29, "leaf": -0.13115491 },
            { "nodeid": 30, "depth": 5, "split": 27, "split_condition": -1.9135828, "yes": 53, "no": 54, "missing": 53, "children": [
              { "nodeid": 53, "leaf": 0.128137648 },
              { "nodeid": 54, "leaf": 0.0795042291 }
            ]}
          ]},
          { "nodeid": 16, "depth": 4, "split": 19, "split_condition": -2.13040638, "yes": 31, "no": 32, "missing": 31, "children": [
            { "nodeid": 31, "depth": 5, "split": 0, "split_condition": 0.0120491069, "yes": 55, "no": 56, "missing": 55, "children": [
              { "nodeid": 55, "leaf": -0.124107972 },
              { "nodeid": 56, "leaf": 0.124424331 }
            ]},
            { "nodeid": 32, "depth": 5, "split": 31, "split_condition": -1.74657226, "yes": 57, "no": 58, "missing": 57, "children": [
              { "nodeid": 57, "leaf": 0.0389502682 },
              { "nodeid": 58, "leaf": -0.131697699 }
            ]}
          ]}
        ]}
      ]},
      { "nodeid": 4, "depth": 2, "split": 27, "split_condition": -1.3482945, "yes": 9, "no": 10, "missing": 9, "children": [
        { "nodeid": 9, "depth": 3, "split": 0, "split_condition": 0.0120491069, "yes": 17, "no": 18, "missing": 17, "children": [
          { "nodeid": 17, "leaf": -0.131739989 },
          { "nodeid": 18, "depth": 4, "split": 27, "split_condition": -1.72515345, "yes": 33, "no": 34, "missing": 33, "children": [
            { "nodeid": 33, "depth": 5, "split": 31, "split_condition": -1.74657226, "yes": 59, "no": 60, "missing": 59, "children": [
              { "nodeid": 59, "leaf": 0.128270075 },
              { "nodeid": 60, "leaf": 0.106821947 }
            ]},
            { "nodeid": 34, "depth": 5, "split": 19, "split_condition": -1.94977188, "yes": 61, "no": 62, "missing": 61, "children": [
              { "nodeid": 61, "leaf": 0.139239907 },
              { "nodeid": 62, "leaf": 0.0259787533 }
            ]}
          ]}
        ]},
        { "nodeid": 10, "depth": 3, "split": 19, "split_condition": -1.58850229, "yes": 19, "no": 20, "missing": 19, "children": [
          { "nodeid": 19, "depth": 4, "split": 0, "split_condition": 0.0120491069, "yes": 35, "no": 36, "missing": 35, "children": [
            { "nodeid": 35, "leaf": -0.131059065 },
            { "nodeid": 36, "depth": 5, "split": 19, "split_condition": -2.13040638, "yes": 63, "no": 64, "missing": 63, "children": [
              { "nodeid": 63, "leaf": 0.132690191 },
              { "nodeid": 64, "leaf": 0.0356287248 }
            ]}
          ]},
          { "nodeid": 20, "depth": 4, "split": 31, "split_condition": -1.92660475, "yes": 37, "no": 38, "missing": 37, "children": [
            { "nodeid": 37, "depth": 5, "split": 0, "split_condition": 0.0120491069, "yes": 65, "no": 66, "missing": 65, "children": [
              { "nodeid": 65, "leaf": -0.129502013 },
              { "nodeid": 66, "leaf": 0.0850195587 }
            ]},
            { "nodeid": 38, "depth": 5, "split": 35, "split_condition": -2.13551331, "yes": 67, "no": 68, "missing": 67, "children": [
              { "nodeid": 67, "leaf": 0.0346200727 },
              { "nodeid": 68, "leaf": -0.133495182 }
            ]}
          ]}
        ]}
      ]}
    ]},
    { "nodeid": 2, "depth": 1, "split": 0, "split_condition": 0.0120491069, "yes": 5, "no": 6, "missing": 5, "children": [
      { "nodeid": 5, "leaf": -0.132102251 },
      { "nodeid": 6, "depth": 2, "split": 1, "split_condition": 0.770492196, "yes": 11, "no": 12, "missing": 11, "children": [
        { "nodeid": 11, "depth": 3, "split": 27, "split_condition": -0.40614745, "yes": 21, "no": 22, "missing": 21, "children": [
          { "nodeid": 21, "depth": 4, "split": 27, "split_condition": -1.15986514, "yes": 39, "no": 40, "missing": 39, "children": [
            { "nodeid": 39, "depth": 5, "split": 27, "split_condition": -1.53672397, "yes": 69, "no": 70, "missing": 69, "children": [
              { "nodeid": 69, "leaf": 0.129518062 },
              { "nodeid": 70, "leaf": 0.106560722 }
            ]},
            { "nodeid": 40, "depth": 5, "split": 36, "split_condition": -0.0422272943, "yes": 71, "no": 72, "missing": 71, "children": [
              { "nodeid": 71, "leaf": -0.0344751552 },
              { "nodeid": 72, "leaf": 0.110713519 }
            ]}
          ]},
          { "nodeid": 22, "depth": 4, "split": 31, "split_condition": -1.026443, "yes": 41, "no": 42, "missing": 41, "children": [
            { "nodeid": 41, "depth": 5, "split": 36, "split_condition": 0.28777343, "yes": 73, "no": 74, "missing": 73, "children": [
              { "nodeid": 73, "leaf": -0.0149744553 },
              { "nodeid": 74, "leaf": 0.117392838 }
            ]},
            { "nodeid": 42, "depth": 5, "split": 19, "split_condition": -1.76913714, "yes": 75, "no": 76, "missing": 75, "children": [
              { "nodeid": 75, "leaf": 0.132718474 },
              { "nodeid": 76, "leaf": -0.134036228 }
            ]}
          ]}
        ]},
        { "nodeid": 12, "depth": 3, "split": 1, "split_condition": 1.05582309, "yes": 23, "no": 24, "missing": 23, "children": [
          { "nodeid": 23, "depth": 4, "split": 27, "split_condition": -0.217718035, "yes": 43, "no": 44, "missing": 43, "children": [
            { "nodeid": 43, "depth": 5, "split": 20, "split_condition": -0.126896098, "yes": 77, "no": 78, "missing": 77, "children": [
              { "nodeid": 77, "leaf": 0.105674505 },
              { "nodeid": 78, "leaf": 0.128427327 }
            ]},
            { "nodeid": 44, "depth": 5, "split": 36, "split_condition": 0.483344555, "yes": 79, "no": 80, "missing": 79, "children": [
              { "nodeid": 79, "leaf": -0.116833948 },
              { "nodeid": 80, "leaf": 0.107051633 }
            ]}
          ]},
          { "nodeid": 24, "depth": 4, "split": 8, "split_condition": -1.3524406, "yes": 45, "no": 46, "missing": 45, "children": [
            { "nodeid": 45, "depth": 5, "split": 1, "split_condition": 1.17478371, "yes": 81, "no": 82, "missing": 81, "children": [
              { "nodeid": 81, "leaf": -0.105379537 },
              { "nodeid": 82, "leaf": 0.103765987 }
            ]},
            { "nodeid": 46, "depth": 5, "split": 29, "split_condition": -1.31392944, "yes": 83, "no": 84, "missing": 83, "children": [
              { "nodeid": 83, "leaf": 0.124443606 },
              { "nodeid": 84, "leaf": 0.130864486 }
            ]}
          ]}
        ]}
      ]}
    ]}
  ]},
  { "nodeid": 0, "depth": 0, "split": 1, "split_condition": 0.394579858, "yes": 1, "no": 2, "missing": 1, "children": [
    { "nodeid": 1, "depth": 1, "split": 32, "split_condition": 1.33240974, "yes": 3, "no": 4, "missing": 3, "children": [
      { "nodeid": 3, "depth": 2, "split": 24, "split_condition": 1.34641171, "yes": 7, "no": 8, "missing": 7, "children": [
        { "nodeid": 7, "depth": 3, "split": 27, "split_condition": -1.9135828, "yes": 13, "no": 14, "missing": 13, "children": [
          { "nodeid": 13, "depth": 4, "split": 0, "split_condition": 0.0120491069, "yes": 25, "no": 26, "missing": 25, "children": [
            { "nodeid": 25, "leaf": -0.128106043 },
            { "nodeid": 26, "depth": 5, "split": 35, "split_condition": -0.506612241, "yes": 47, "no": 48, "missing": 47, "children": [
              { "nodeid": 47, "leaf": 0.113282859 },
              { "nodeid": 48, "leaf": 0.0287683737 }
            ]}
          ]},
          { "nodeid": 14, "depth": 4, "split": 31, "split_condition": -1.92660475, "yes": 27, "no": 28, "missing": 27, "children": [
            { "nodeid": 27, "depth": 5, "split": 0, "split_condition": 0.0120491069, "yes": 49, "no": 50, "missing": 49, "children": [
              { "nodeid": 49, "leaf": -0.128222957 },
              { "nodeid": 50, "leaf": 0.087062411 }
            ]},
            { "nodeid": 28, "leaf": -0.128128663 }
          ]}
        ]},
        { "nodeid": 8, "depth": 3, "split": 27, "split_condition": -1.53672397, "yes": 15, "no": 16, "missing": 15, "children": [
          { "nodeid": 15, "depth": 4, "split": 0, "split_condition": 0.0120491069, "yes": 29, "no": 30, "missing": 29, "children": [
            { "nodeid": 29, "leaf": -0.127574921 },
            { "nodeid": 30, "depth": 5, "split": 23, "split_condition": -1.74717379, "yes": 51, "no": 52, "missing": 51, "children": [
              { "nodeid": 51, "leaf": 0.1271974 },
              { "nodeid": 52, "leaf": 0.0680847317 }
            ]}
          ]},
          { "nodeid": 16, "depth": 4, "split": 19, "split_condition": -2.13040638, "yes": 31, "no": 32, "missing": 31, "children": [
            { "nodeid": 31, "depth": 5, "split": 0, "split_condition": 0.0120491069, "yes": 53, "no": 54, "missing": 53, "children": [
              { "nodeid": 53, "leaf": -0.123277448 },
              { "nodeid": 54, "leaf": 0.121053122 }
            ]},
            { "nodeid": 32, "depth": 5, "split": 31, "split_condition": -1.92660475, "yes": 55, "no": 56, "missing": 55, "children": [
              { "nodeid": 55, "leaf": 0.0274159499 },
              { "nodeid": 56, "leaf": -0.128467396 }
            ]}
          ]}
        ]}
      ]},
      { "nodeid": 4, "depth": 2, "split": 27, "split_condition": -1.3482945, "yes": 9, "no": 10, "missing": 9, "children": [
        { "nodeid": 9, "depth": 3, "split": 0, "split_condition": 0.0120491069, "yes": 17, "no": 18, "missing": 17, "children": [
          { "nodeid": 17, "leaf": -0.127739906 },
          { "nodeid": 18, "depth": 4, "split": 27, "split_condition": -1.72515345, "yes": 33, "no": 34, "missing": 33, "children": [
            { "nodeid": 33, "depth": 5, "split": 31, "split_condition": -1.74657226, "yes": 57, "no": 58, "missing": 57, "children": [
              { "nodeid": 57, "leaf": 0.123617247 },
              { "nodeid": 58, "leaf": 0.100241058 }
            ]},
            { "nodeid": 34, "depth": 5, "split": 35, "split_condition": -1.41155732, "yes": 59, "no": 60, "missing": 59, "children": [
              { "nodeid": 59, "leaf": 0.103188984 },
              { "nodeid": 60, "leaf": -0.0254574157 }
            ]}
          ]}
        ]},
        { "nodeid": 10, "depth": 3, "split": 19, "split_condition": -1.94977188, "yes": 19, "no": 20, "missing": 19, "children": [
          { "nodeid": 19, "depth": 4, "split": 0, "split_condition": 0.0120491069, "yes": 35, "no": 36, "missing": 35, "children": [
            { "nodeid": 35, "leaf": -0.121726774 },
            { "nodeid": 36, "depth": 5, "split": 19, "split_condition": -2.13040638, "yes": 61, "no": 62, "missing": 61, "children": [
              { "nodeid": 61, "leaf": 0.127118632 },
              { "nodeid": 62, "leaf": 0.0615846775 }
            ]}
          ]},
          { "nodeid": 20, "depth": 4, "split": 35, "split_condition": -1.9545244, "yes": 37, "no": 38, "missing": 37, "children": [
            { "nodeid": 37, "depth": 5, "split": 0, "split_condition": 0.0120491069, "yes": 63, "no": 64, "missing": 63, "children": [
              { "nodeid": 63, "leaf": -0.139677346 },
              { "nodeid": 64, "leaf": 0.113321938 }
            ]},
            { "nodeid": 38, "depth": 5, "split": 31, "split_condition": -2.28666925, "yes": 65, "no": 66, "missing": 65, "children": [
              { "nodeid": 65, "leaf": 0.00875370763 },
              { "nodeid": 66, "leaf": -0.128598154 }
            ]}
          ]}
        ]}
      ]}
    ]},
    { "nodeid": 2, "depth": 1, "split": 0, "split_condition": 0.0120491069, "yes": 5, "no": 6, "missing": 5, "children": [
      { "nodeid": 5, "leaf": -0.12821202 },
      { "nodeid": 6, "depth": 2, "split": 0, "split_condition": 0.459719986, "yes": 11, "no": 12, "missing": 11, "children": [
        { "nodeid": 11, "depth": 3, "split": 35, "split_condition": -0.687601268, "yes": 21, "no": 22, "missing": 21, "children": [
          { "nodeid": 21, "depth": 4, "split": 35, "split_condition": -1.23056829, "yes": 39, "no": 40, "missing": 39, "children": [
            { "nodeid": 39, "depth": 5, "split": 39, "split_condition": 0.555822194, "yes": 67, "no": 68, "missing": 67, "children": [
              { "nodeid": 67, "leaf": 0.125591263 },
              { "nodeid": 68, "leaf": 0.0047105914 }
            ]},
            { "nodeid": 40, "depth": 5, "split": 27, "split_condition": -1.15986514, "yes": 69, "no": 70, "missing": 69, "children": [
              { "nodeid": 69, "leaf": 0.111144893 },
              { "nodeid": 70, "leaf": -0.0203422531 }
            ]}
          ]},
          { "nodeid": 22, "depth": 4, "split": 1, "split_condition": 1.17072773, "yes": 41, "no": 42, "missing": 41, "children": [
            { "nodeid": 41, "depth": 5, "split": 27, "split_condition": -1.53672397, "yes": 71, "no": 72, "missing": 71, "children": [
              { "nodeid": 71, "leaf": 0.118878722 },
              { "nodeid": 72, "leaf": -0.121174149 }
            ]},
            { "nodeid": 42, "depth": 5, "split": 27, "split_condition": 1.28971732, "yes": 73, "no": 74, "missing": 73, "children": [
              { "nodeid": 73, "leaf": 0.11731007 },
              { "nodeid": 74, "leaf": 0.056062948 }
            ]}
          ]}
        ]},
        { "nodeid": 12, "depth": 3, "split": 1, "split_condition": 0.843959212, "yes": 23, "no": 24, "missing": 23, "children": [
          { "nodeid": 23, "depth": 4, "split": 27, "split_condition": -0.217718035, "yes": 43, "no": 44, "missing": 43, "children": [
            { "nodeid": 43, "depth": 5, "split": 8, "split_condition": -0.73234868, "yes": 75, "no": 76, "missing": 75, "children": [
              { "nodeid": 75, "leaf": 0.0458725281 },
              { "nodeid": 76, "leaf": 0.119532645 }
            ]},
            { "nodeid": 44, "depth": 5, "split": 31, "split_condition": -0.846410573, "yes": 77, "no": 78, "missing": 77, "children": [
              { "nodeid": 77, "leaf": 0.0867211819 },
              { "nodeid": 78, "leaf": -0.111691318 }
            ]}
          ]},
          { "nodeid": 24, "depth": 4, "split": 8, "split_condition": -1.04466939, "yes": 45, "no": 46, "missing": 45, "children": [
            { "nodeid": 45, "depth": 5, "split": 1, "split_condition": 1.15987122, "yes": 79, "no": 80, "missing": 79, "children": [
              { "nodeid": 79, "leaf": -0.0327358395 },
              { "nodeid": 80, "leaf": 0.114247799 }
            ]},
            { "nodeid": 46, "depth": 5, "split": 29, "split_condition": -1.33619857, "yes": 81, "no": 82, "missing": 81, "children": [
              { "nodeid": 81, "leaf": 0.118151024 },
              { "nodeid": 82, "leaf": 0.126580909 }
            ]}
          ]}
        ]}
      ]}
    ]}
  ]},
  { "nodeid": 0, "depth": 0, "split": 1, "split_condition": 0.394579858, "yes": 1, "no": 2, "missing": 1, "children": [
    { "nodeid": 1, "depth": 1, "split": 32, "split_condition": 1.33240974, "yes": 3, "no": 4, "missing": 3, "children": [
      { "nodeid": 3, "depth": 2, "split": 24, "split_condition": 1.34641171, "yes": 7, "no": 8, "missing": 7, "children": [
        { "nodeid": 7, "depth": 3, "split": 27, "split_condition": -1.9135828, "yes": 13, "no": 14, "missing": 13, "children": [
          { "nodeid": 13, "depth": 4, "split": 0, "split_condition": 0.0120491069, "yes": 25, "no": 26, "missing": 25, "children": [
            { "nodeid": 25, "leaf": -0.12472222 },
            { "nodeid": 26, "depth": 5, "split": 15, "split_condition": -0.519132078, "yes": 47, "no": 48, "missing": 47, "children": [
              { "nodeid": 47, "leaf": 0.109931566 },
              { "nodeid": 48, "leaf": 0.0365932547 }
            ]}
          ]},
          { "nodeid": 14, "depth": 4, "split": 31, "split_condition": -1.92660475, "yes": 27, "no": 28, "missing": 27, "children": [
            { "nodeid": 27, "depth": 5, "split": 0, "split_condition": 0.0120491069, "yes": 49, "no": 50, "missing": 49, "children": [
              { "nodeid": 49, "leaf": -0.124818526 },
              { "nodeid": 50, "leaf": 0.08165171 }
            ]},
            { "nodeid": 28, "leaf": -0.124745823 }
          ]}
        ]},
        { "nodeid": 8, "depth": 3, "split": 27, "split_condition": -1.53672397, "yes": 15, "no": 16, "missing": 15, "children": [
          { "nodeid": 15, "depth": 4, "split": 0, "split_condition": 0.0120491069, "yes": 29, "no": 30, "missing": 29, "children": [
            { "nodeid": 29, "leaf": -0.124154605 },
            { "nodeid": 30, "depth": 5, "split": 23, "split_condition": -1.74717379, "yes": 51, "no": 52, "missing": 51, "children": [
              { "nodeid": 51, "leaf": 0.12294542 },
              { "nodeid": 52, "leaf": 0.0634164065 }
            ]}
          ]},
          { "nodeid": 16, "depth": 4, "split": 19, "split_condition": -2.13040638, "yes": 31, "no": 32, "missing": 31, "children": [
            { "nodeid": 31, "depth": 5, "split": 0, "split_condition": 0.0120491069, "yes": 53, "no": 54, "missing": 53, "children": [
              { "nodeid": 53, "leaf": -0.119666331 },
              { "nodeid": 54, "leaf": 0.116114877 }
            ]},
            { "nodeid": 32, "depth": 5, "split": 31, "split_condition": -1.92660475, "yes": 55, "no": 56, "missing": 55, "children": [
              { "nodeid": 55, "leaf": 0.0248377528 },
              { "nodeid": 56, "leaf": -0.124907784 }
            ]}
          ]}
        ]}
      ]},
      { "nodeid": 4, "depth": 2, "split": 27, "split_condition": -1.3482945, "yes": 9, "no": 10, "missing": 9, "children": [
        { "nodeid": 9, "depth": 3, "split": 0, "split_condition": 0.0120491069, "yes": 17, "no": 18, "missing": 17, "children": [
          { "nodeid": 17, "leaf": -0.124335133 },
          { "nodeid": 18, "depth": 4, "split": 27, "split_condition": -1.72515345, "yes": 33, "no": 34, "missing": 33, "children": [
            { "nodeid": 33, "depth": 5, "split": 27, "split_condition": -1.9135828, "yes": 57, "no": 58, "missing": 57, "children": [
              { "nodeid": 57, "leaf": 0.117122389 },
              { "nodeid": 58, "leaf": 0.0867075846 }
            ]},
            { "nodeid": 34, "depth": 5, "split": 19, "split_condition": -1.94977188, "yes": 59, "no": 60, "missing": 59, "children": [
              { "nodeid": 59, "leaf": 0.128337339 },
              { "nodeid": 60, "leaf": 0.00102627487 }
            ]}
          ]}
        ]},
        { "nodeid": 10, "depth": 3, "split": 19, "split_condition": -1.58850229, "yes": 19, "no": 20, "missing": 19, "children": [
          { "nodeid": 19, "depth": 4, "split": 0, "split_condition": 0.0120491069, "yes": 35, "no": 36, "missing": 35, "children": [
            { "nodeid": 35, "leaf": -0.123415731 },
            { "nodeid": 36, "depth": 5, "split": 19, "split_condition": -2.13040638, "yes": 61, "no": 62, "missing": 61, "children": [
              { "nodeid": 61, "leaf": 0.12266653 },
              { "nodeid": 62, "leaf": 0.024104055 }
            ]}
          ]},
          { "nodeid": 20, "depth": 4, "split": 35, "split_condition": -1.77353537, "yes": 37, "no": 38, "missing": 37, "children": [
            { "nodeid": 37, "depth": 5, "split": 0, "split_condition": 0.0120491069, "yes": 63, "no": 64, "missing": 63, "children": [
              { "nodeid": 63, "leaf": -0.132514983 },
              { "nodeid": 64, "leaf": 0.0784560367 }
            ]},
            { "nodeid": 38, "depth": 5, "split": 31, "split_condition": -2.28666925, "yes": 65, "no": 66, "missing": 65, "children": [
              { "nodeid": 65, "leaf": 0.00127811416 },
              { "nodeid": 66, "leaf": -0.125897929 }
            ]}
          ]}
        ]}
      ]}
    ]},
    { "nodeid": 2, "depth": 1, "split": 0, "split_condition": 0.0120491069, "yes": 5, "no": 6, "missing": 5, "children": [
      { "nodeid": 5, "leaf": -0.124800444 },
      { "nodeid": 6, "depth": 2, "split": 1, "split_condition": 0.770492196, "yes": 11, "no": 12, "missing": 11, "children": [
        { "nodeid": 11, "depth": 3, "split": 27, "split_condition": -0.40614745, "yes": 21, "no": 22, "missing": 21, "children": [
          { "nodeid": 21, "depth": 4, "split": 19, "split_condition": -0.865963399, "yes": 39, "no": 40, "missing": 39, "children": [
            { "nodeid": 39, "depth": 5, "split": 19, "split_condition": -1.58850229, "yes": 67, "no": 68, "missing": 67, "children": [
              { "nodeid": 67, "leaf": 0.125298753 },
              { "nodeid": 68, "leaf": 0.104503743 }
            ]},
            { "nodeid": 40, "depth": 5, "split": 36, "split_condition": 0.0566693768, "yes": 69, "no": 70, "missing": 69, "children": [
              { "nodeid": 69, "leaf": -0.0271070693 },
              { "nodeid": 70, "leaf": 0.107393697 }
            ]}
          ]},
          { "nodeid": 22, "depth": 4, "split": 35, "split_condition": -1.41155732, "yes": 41, "no": 42, "missing": 41, "children": [
            { "nodeid": 41, "depth": 5, "split": 35, "split_condition": -1.9545244, "yes": 71, "no": 72, "missing": 71, "children": [
              { "nodeid": 71, "leaf": 0.157596096 },
              { "nodeid": 72, "leaf": 0.0684583038 }
            ]},
            { "nodeid": 42, "depth": 5, "split": 19, "split_condition": -1.76913714, "yes": 73, "no": 74, "missing": 73, "children": [
              { "nodeid": 73, "leaf": 0.127664506 },
              { "nodeid": 74, "leaf": -0.115713418 }
            ]}
          ]}
        ]},
        { "nodeid": 12, "depth": 3, "split": 1, "split_condition": 1.05581141, "yes": 23, "no": 24, "missing": 23, "children": [
          { "nodeid": 23, "depth": 4, "split": 27, "split_condition": 0.159140795, "yes": 43, "no": 44, "missing": 43, "children": [
            { "nodeid": 43, "depth": 5, "split": 20, "split_condition": -0.126896098, "yes": 75, "no": 76, "missing": 75, "children": [
              { "nodeid": 75, "leaf": 0.0871231779 },
              { "nodeid": 76, "leaf": 0.118628658 }
            ]},
            { "nodeid": 44, "depth": 5, "split": 20, "split_condition": 0.552079439, "yes": 77, "no": 78, "missing": 77, "children": [
              { "nodeid": 77, "leaf": -0.132982805 },
              { "nodeid": 78, "leaf": 0.0868681967 }
            ]}
          ]},
          { "nodeid": 24, "depth": 4, "split": 8, "split_condition": -1.34125555, "yes": 45, "no": 46, "missing": 45, "children": [
            { "nodeid": 45, "depth": 5, "split": 1, "split_condition": 1.17389798, "yes": 79, "no": 80, "missing": 79, "children": [
              { "nodeid": 79, "leaf": -0.0761127621 },
              { "nodeid": 80, "leaf": 0.0939017311 }
            ]},
            { "nodeid": 46, "depth": 5, "split": 1, "split_condition": 1.53731203, "yes": 81, "no": 82, "missing": 81, "children": [
              { "nodeid": 81, "leaf": 0.120266736 },
              { "nodeid": 82, "leaf": 0.123977236 }
            ]}
          ]}
        ]}
      ]}
    ]}
  ]},
  { "nodeid": 0, "depth": 0, "split": 1, "split_condition": 0.376752943, "yes": 1, "no": 2, "missing": 1, "children": [
    { "nodeid": 1, "depth": 1, "split": 32, "split_condition": 1.33240974, "yes": 3, "no": 4, "missing": 3, "children": [
      { "nodeid": 3, "depth": 2, "split": 24, "split_condition": 1.34641171, "yes": 7, "no": 8, "missing": 7, "children": [
        { "nodeid": 7, "depth": 3, "split": 27, "split_condition": -1.9135828, "yes": 13, "no": 14, "missing": 13, "children": [
          { "nodeid": 13, "depth": 4, "split": 0, "split_condition": 0.0120491069, "yes": 25, "no": 26, "missing": 25, "children": [
            { "nodeid": 25, "leaf": -0.121818617 },
            { "nodeid": 26, "depth": 5, "split": 31, "split_condition": -1.026443, "yes": 47, "no": 48, "missing": 47, "children": [
              { "nodeid": 47, "leaf": 0.107808568 },
              { "nodeid": 48, "leaf": 0.039489951 }
            ]}
          ]},
          { "nodeid": 14, "depth": 4, "split": 31, "split_condition": -2.106637, "yes": 27, "no": 28, "missing": 27, "children": [
            { "nodeid": 27, "depth": 5, "split": 0, "split_condition": 0.0120491069, "yes": 49, "no": 50, "missing": 49, "children": [
              { "nodeid": 49, "leaf": -0.121754341 },
              { "nodeid": 50, "leaf": 0.0985549986 }
            ]},
            { "nodeid": 28, "depth": 5, "split": 31, "split_condition": -1.92660475, "yes": 51, "no": 52, "missing": 51, "children": [
              { "nodeid": 51, "leaf": -0.111602485 },
              { "nodeid": 52, "leaf": -0.121843569 }
            ]}
          ]}
        ]},
        { "nodeid": 8, "depth": 3, "split": 27, "split_condition": -1.72515345, "yes": 15, "no": 16, "missing": 15, "children": [
          { "nodeid": 15, "depth": 4, "split": 0, "split_condition": 0.0120491069, "yes": 29, "no": 30, "missing": 29, "children": [
            { "nodeid": 29, "leaf": -0.121059813 },
            { "nodeid": 30, "depth": 5, "split": 35, "split_condition": -0.868590295, "yes": 53, "no": 54, "missing": 53, "children": [
              { "nodeid": 53, "leaf": 0.116260864 },
              { "nodeid": 54, "leaf": 0.0632444769 }
            ]}
          ]},
          { "nodeid": 16, "depth": 4, "split": 19, "split_condition": -2.13040638, "yes": 31, "no": 32, "missing": 31, "children": [
            { "nodeid": 31, "depth": 5, "split": 0, "split_condition": 0.0120491069, "yes": 55, "no": 56, "missing": 55, "children": [
              { "nodeid": 55, "leaf": -0.117636584 },
              { "nodeid": 56, "leaf": 0.114679091 }
            ]},
            { "nodeid": 32, "depth": 5, "split": 31, "split_condition": -1.92660475, "yes": 57, "no": 58, "missing": 57, "children": [
              { "nodeid": 57, "leaf": 0.0262329131 },
              { "nodeid": 58, "leaf": -0.124379374 }
            ]}
          ]}
        ]}
      ]},
      { "nodeid": 4, "depth": 2, "split": 27, "split_condition": -1.3482945, "yes": 9, "no": 10, "missing": 9, "children": [
        { "nodeid": 9, "depth": 3, "split": 0, "split_condition": 0.0120491069, "yes": 17, "no": 18, "missing": 17, "children": [
          { "nodeid": 17, "leaf": -0.121396437 },
          { "nodeid": 18, "depth": 4, "split": 27, "split_condition": -1.72515345, "yes": 33, "no": 34, "missing": 33, "children": [
            { "nodeid": 33, "depth": 5, "split": 31, "split_condition": -1.74657226, "yes": 59, "no": 60, "missing": 59, "children": [
              { "nodeid": 59, "leaf": 0.116262808 },
              { "nodeid": 60, "leaf": 0.0876234248 }
            ]},
            { "nodeid": 34, "depth": 5, "split": 31, "split_condition": -1.74657226, "yes": 61, "no": 62, "missing": 61, "children": [
              { "nodeid": 61, "leaf": 0.0963388681 },
              { "nodeid": 62, "leaf": -0.0468079969 }
            ]}
          ]}
        ]},
        { "nodeid": 10, "depth": 3, "split": 19, "split_condition": -1.94977188, "yes": 19, "no": 20, "missing": 19, "children": [
          { "nodeid": 19, "depth": 4, "split": 0, "split_condition": 0.0120491069, "yes": 35, "no": 36, "missing": 35, "children": [
            { "nodeid": 35, "leaf": -0.114705913 },
            { "nodeid": 36, "depth": 5, "split": 19, "split_condition": -2.13040638, "yes": 63, "no": 64, "missing": 63, "children": [
              { "nodeid": 63, "leaf": 0.118923448 },
              { "nodeid": 64, "leaf": 0.0462135337 }
            ]}
          ]},
          { "nodeid": 20, "depth": 4, "split": 35, "split_condition": -1.9545244, "yes": 37, "no": 38, "missing": 37, "children": [
            { "nodeid": 37, "depth": 5, "split": 0, "split_condition": 0.0120491069, "yes": 65, "no": 66, "missing": 65, "children": [
              { "nodeid": 65, "leaf": -0.129714534 },
              { "nodeid": 66, "leaf": 0.100792468 }
            ]},
            { "nodeid": 38, "depth": 5, "split": 31, "split_condition": -2.28666925, "yes": 67, "no": 68, "missing": 67, "children": [
              { "nodeid": 67, "leaf": -0.000248619326 },
              { "nodeid": 68, "leaf": -0.122511946 }
            ]}
          ]}
        ]}
      ]}
    ]},
    { "nodeid": 2, "depth": 1, "split": 0, "split_condition": 0.0120491069, "yes": 5, "no": 6, "missing": 5, "children": [
      { "nodeid": 5, "leaf": -0.121944323 },
      { "nodeid": 6, "depth": 2, "split": 0, "split_condition": 0.49951297, "yes": 11, "no": 12, "missing": 11, "children": [
        { "nodeid": 11, "depth": 3, "split": 31, "split_condition": -1.026443, "yes": 21, "no": 22, "missing": 21, "children": [
          { "nodeid": 21, "depth": 4, "split": 19, "split_condition": 0.0372103006, "yes": 39, "no": 40, "missing": 39, "children": [
            { "nodeid": 39, "depth": 5, "split": 23, "split_condition": -1.02718997, "yes": 69, "no": 70, "missing": 69, "children": [
              { "nodeid": 69, "leaf": 0.119473554 },
              { "nodeid": 70, "leaf": 0.0822573304 }
            ]},
            { "nodeid": 40, "depth": 5, "split": 39, "split_condition": -0.877597332, "yes": 71, "no": 72, "missing": 71, "children": [
              { "nodeid": 71, "leaf": 0.106483452 },
              { "nodeid": 72, "leaf": -0.0540962294 }
            ]}
          ]},
          { "nodeid": 22, "depth": 4, "split": 1, "split_condition": 1.1390059, "yes": 41, "no": 42, "missing": 41, "children": [
            { "nodeid": 41, "depth": 5, "split": 19, "split_condition": -1.40786755, "yes": 73, "no": 74, "missing": 73, "children": [
              { "nodeid": 73, "leaf": 0.106483065 },
              { "nodeid": 74, "leaf": -0.102795504 }
            ]},
            { "nodeid": 42, "depth": 5, "split": 1, "split_condition": 1.17234182, "yes": 75, "no": 76, "missing": 75, "children": [
              { "nodeid": 75, "leaf": 0.0368904732 },
              { "nodeid": 76, "leaf": 0.112017594 }
            ]}
          ]}
        ]},
        { "nodeid": 12, "depth": 3, "split": 1, "split_condition": 0.843952835, "yes": 23, "no": 24, "missing": 23, "children": [
          { "nodeid": 23, "depth": 4, "split": 27, "split_condition": -0.217718035, "yes": 43, "no": 44, "missing": 43, "children": [
            { "nodeid": 43, "depth": 5, "split": 8, "split_condition": -0.737077057, "yes": 77, "no": 78, "missing": 77, "children": [
              { "nodeid": 77, "leaf": 0.0336231962 },
              { "nodeid": 78, "leaf": 0.113053896 }
            ]},
            { "nodeid": 44, "depth": 5, "split": 31, "split_condition": -0.846410573, "yes": 79, "no": 80, "missing": 79, "children": [
              { "nodeid": 79, "leaf": 0.0845036879 },
              { "nodeid": 80, "leaf": -0.100778081 }
            ]}
          ]},
          { "nodeid": 24, "depth": 4, "split": 8, "split_condition": -0.862754226, "yes": 45, "no": 46, "missing": 45, "children": [
            { "nodeid": 45, "depth": 5, "split": 1, "split_condition": 1.16065001, "yes": 81, "no": 82, "missing": 81, "children": [
              { "nodeid": 81, "leaf": 0.0137842074 },
              { "nodeid": 82, "leaf": 0.110729061 }
            ]},
            { "nodeid": 46, "depth": 5, "split": 29, "split_condition": -1.31869745, "yes": 83, "no": 84, "missing": 83, "children": [
              { "nodeid": 83, "leaf": 0.111179106 },
              { "nodeid": 84, "leaf": 0.120151751 }
            ]}
          ]}
        ]}
      ]}
    ]}
  ]},
  { "nodeid": 0, "depth": 0, "split": 1, "split_condition": 0.457198232, "yes": 1, "no": 2, "missing": 1, "children": [
    { "nodeid": 1, "depth": 1, "split": 32, "split_condition": 1.33240974, "yes": 3, "no": 4, "missing": 3, "children": [
      { "nodeid": 3, "depth": 2, "split": 24, "split_condition": 1.34641171, "yes": 7, "no": 8, "missing": 7, "children": [
        { "nodeid": 7, "depth": 3, "split": 27, "split_condition": -1.9135828, "yes": 15, "no": 16, "missing": 15, "children": [
          { "nodeid": 15, "depth": 4, "split": 0, "split_condition": 0.0120491069, "yes": 31, "no": 32, "missing": 31, "children": [
            { "nodeid": 31, "leaf": -0.119311407 },
            { "nodeid": 32, "depth": 5, "split": 31, "split_condition": -0.846410573, "yes": 59, "no": 60, "missing": 59, "children": [
              { "nodeid": 59, "leaf": 0.103414439 },
              { "nodeid": 60, "leaf": 0.0294515397 }
            ]}
          ]},
          { "nodeid": 16, "depth": 4, "split": 31, "split_condition": -1.92660475, "yes": 33, "no": 34, "missing": 33, "children": [
            { "nodeid": 33, "depth": 5, "split": 0, "split_condition": 0.0120491069, "yes": 61, "no": 62, "missing": 61, "children": [
              { "nodeid": 61, "leaf": -0.119453922 },
              { "nodeid": 62, "leaf": 0.0770351887 }
            ]},
            { "nodeid": 34, "leaf": -0.119324766 }
          ]}
        ]},
        { "nodeid": 8, "depth": 3, "split": 27, "split_condition": -1.53672397, "yes": 17, "no": 18, "missing": 17, "children": [
          { "nodeid": 17, "depth": 4, "split": 0, "split_condition": 0.0120491069, "yes": 35, "no": 36, "missing": 35, "children": [
            { "nodeid": 35, "leaf": -0.118755579 },
            { "nodeid": 36, "depth": 5, "split": 23, "split_condition": -1.74717379, "yes": 65, "no": 66, "missing": 65, "children": [
              { "nodeid": 65, "leaf": 0.116704307 },
              { "nodeid": 66, "leaf": 0.0622002967 }
            ]}
          ]},
          { "nodeid": 18, "depth": 4, "split": 19, "split_condition": -1.76913714, "yes": 37, "no": 38, "missing": 37, "children": [
            { "nodeid": 37, "depth": 5, "split": 0, "split_condition": 0.0120491069, "yes": 67, "no": 68, "missing": 67, "children": [
              { "nodeid": 67, "leaf": -0.122134201 },
              { "nodeid": 68, "leaf": 0.0963616222 }
            ]},
            { "nodeid": 38, "depth": 5, "split": 35, "split_condition": -1.77353537, "yes": 69, "no": 70, "missing": 69, "children": [
              { "nodeid": 69, "leaf": 0.0522612445 },
              { "nodeid": 70, "leaf": -0.119515158 }
            ]}
          ]}
        ]}
      ]},
      { "nodeid": 4, "depth": 2, "split": 27, "split_condition": -1.15986514, "yes": 9, "no": 10, "missing": 9, "children": [
        { "nodeid": 9, "depth": 3, "split": 0, "split_condition": 0.0120491069, "yes": 19, "no": 20, "missing": 19, "children": [
          { "nodeid": 19, "leaf": -0.119068004 },
          { "nodeid": 20, "depth": 4, "split": 31, "split_condition": -1.38650751, "yes": 39, "no": 40, "missing": 39, "children": [
            { "nodeid": 39, "depth": 5, "split": 35, "split_condition": -1.9545244, "yes": 71, "no": 72, "missing": 71, "children": [
              { "nodeid": 71, "leaf": 0.117772974 },
              { "nodeid": 72, "leaf": 0.0857356638 }
            ]},
            { "nodeid": 40, "depth": 5, "split": 20, "split_condition": -0.040853776, "yes": 73, "no": 74, "missing": 73, "children": [
              { "nodeid": 73, "leaf": -0.0241150279 },
              { "nodeid": 74, "leaf": 0.108028881 }
            ]}
          ]}
        ]},
        { "nodeid": 10, "depth": 3, "split": 19, "split_condition": -1.58850229, "yes": 21, "no": 22, "missing": 21, "children": [
          { "nodeid": 21, "depth": 4, "split": 0, "split_condition": 0.0120491069, "yes": 41, "no": 42, "missing": 41, "children": [
            { "nodeid": 41, "leaf": -0.11668475 },
            { "nodeid": 42, "depth": 5, "split": 19, "split_condition": -1.94977188, "yes": 75, "no": 76, "missing": 75, "children": [
              { "nodeid": 75, "leaf": 0.106321156 },
              { "nodeid": 76, "leaf": 0.0166482683 }
            ]}
          ]},
          { "nodeid": 22, "depth": 4, "split": 31, "split_condition": -1.92660475, "yes": 43, "no": 44, "missing": 43, "children": [
            { "nodeid": 43, "depth": 5, "split": 0, "split_condition": 0.0219973475, "yes": 77, "no": 78, "missing": 77, "children": [
              { "nodeid": 77, "leaf": -0.114226736 },
              { "nodeid": 78, "leaf": 0.07704781 }
            ]},
            { "nodeid": 44, "depth": 5, "split": 35, "split_condition": -2.13551331, "yes": 79, "no": 80, "missing": 79, "children": [
              { "nodeid": 79, "leaf": 0.027884651 },
              { "nodeid": 80, "leaf": -0.119385004 }
            ]}
          ]}
        ]}
      ]}
    ]},
    { "nodeid": 2, "depth": 1, "split": 0, "split_condition": 0.3900823, "yes": 5, "no": 6, "missing": 5, "children": [
      { "nodeid": 5, "depth": 2, "split": 31, "split_condition": -1.20647526, "yes": 11, "no": 12, "missing": 11, "children": [
        { "nodeid": 11, "depth": 3, "split": 0, "split_condition": 0.0120491069, "yes": 23, "no": 24, "missing": 23, "children": [
          { "nodeid": 23, "leaf": -0.118610658 },
          { "nodeid": 24, "depth": 4, "split": 35, "split_condition": -0.144634202, "yes": 45, "no": 46, "missing": 45, "children": [
            { "nodeid": 45, "depth": 5, "split": 7, "split_condition": 0.0812458247, "yes": 81, "no": 82, "missing": 81, "children": [
              { "nodeid": 81, "leaf": 0.115867488 },
              { "nodeid": 82, "leaf": 0.0568699539 }
            ]},
            { "nodeid": 46, "depth": 5, "split": 27, "split_condition": -1.53672397, "yes": 83, "no": 84, "missing": 83, "children": [
              { "nodeid": 83, "leaf": 0.112203754 },
              { "nodeid": 84, "leaf": -0.0484615006 }
            ]}
          ]}
        ]},
        { "nodeid": 12, "depth": 3, "split": 27, "split_condition": -1.53672397, "yes": 25, "no": 26, "missing": 25, "children": [
          { "nodeid": 25, "depth": 4, "split": 0, "split_condition": 0.0120491069, "yes": 47, "no": 48, "missing": 47, "children": [
            { "nodeid": 47, "leaf": -0.114796124 },
            { "nodeid": 48, "depth": 5, "split": 25, "split_condition": 1.32599616, "yes": 85, "no": 86, "missing": 85, "children": [
              { "nodeid": 85, "leaf": 0.0728690699 },
              { "nodeid": 86, "leaf": 0.114574812 }
            ]}
          ]},
          { "nodeid": 26, "depth": 4, "split": 1, "split_condition": 1.17234182, "yes": 49, "no": 50, "missing": 49, "children": [
            { "nodeid": 49, "depth": 5, "split": 19, "split_condition": -1.76913714, "yes": 87, "no": 88, "missing": 87, "children": [
              { "nodeid": 87, "leaf": 0.122525357 },
              { "nodeid": 88, "leaf": -0.132845625 }
            ]},
            { "nodeid": 50, "depth": 5, "split": 0, "split_condition": 0.0120491069, "yes": 89, "no": 90, "missing": 89, "children": [
              { "nodeid": 89, "leaf": -0.103175737 },
              { "nodeid": 90, "leaf": 0.107071772 }
            ]}
          ]}
        ]}
      ]},
      { "nodeid": 6, "depth": 2, "split": 1, "split_condition": 0.981991529, "yes": 13, "no": 14, "missing": 13, "children": [
        { "nodeid": 13, "depth": 3, "split": 27, "split_condition": -0.217718035, "yes": 27, "no": 28, "missing": 27, "children": [
          { "nodeid": 27, "depth": 4, "split": 20, "split_condition": -0.12306346, "yes": 51, "no": 52, "missing": 51, "children": [
            { "nodeid": 51, "depth": 5, "split": 27, "split_condition": -1.3482945, "yes": 91, "no": 92, "missing": 91, "children": [
              { "nodeid": 91, "leaf": 0.110936679 },
              { "nodeid": 92, "leaf": -0.00748501439 }
            ]},
            { "nodeid": 52, "depth": 5, "split": 8, "split_condition": -0.698746622, "yes": 93, "no": 94, "missing": 93, "children": [
              { "nodeid": 93, "leaf": 0.0599057488 },
              { "nodeid": 94, "leaf": 0.111700356 }
            ]}
          ]},
          { "nodeid": 28, "depth": 4, "split": 31, "split_condition": -0.306313515, "yes": 53, "no": 54, "missing": 53, "children": [
            { "nodeid": 53, "depth": 5, "split": 36, "split_condition": 0.316079855, "yes": 95, "no": 96, "missing": 95, "children": [
              { "nodeid": 95, "leaf": -0.0641806126 },
              { "nodeid": 96, "leaf": 0.0930606797 }
            ]},
            { "nodeid": 54, "depth": 5, "split": 19, "split_condition": -1.40786755, "yes": 97, "no": 98, "missing": 97, "children": [
