-0.0
[
  { "nodeid": 0, "depth": 0, "split": 1, "split_condition": -0.168327048, "yes": 1, "no": 2, "missing": 1, "children": [
    { "nodeid": 1, "depth": 1, "split": 25, "split_condition": 0.481086969, "yes": 3, "no": 4, "missing": 3, "children": [
      { "nodeid": 3, "depth": 2, "split": 31, "split_condition": 0.688243985, "yes": 7, "no": 8, "missing": 7, "children": [
        { "nodeid": 7, "depth": 3, "split": 34, "split_condition": -0.326985389, "yes": 15, "no": 16, "missing": 15, "children": [
          { "nodeid": 15, "depth": 4, "split": 10, "split_condition": 0.560629129, "yes": 31, "no": 32, "missing": 31, "children": [
            { "nodeid": 31, "depth": 5, "split": 1, "split_condition": -0.28908813, "yes": 63, "no": 64, "missing": 63, "children": [
              { "nodeid": 63, "depth": 6, "split": 31, "split_condition": 0.517852962, "yes": 123, "no": 124, "missing": 123, "children": [
                { "nodeid": 123, "leaf": -0.199738428 },
                { "nodeid": 124, "depth": 7, "split": 12, "split_condition": -0.420072973, "yes": 211, "no": 212, "missing": 211, "children": [
                  { "nodeid": 211, "leaf": -0.0893229544 },
                  { "nodeid": 212, "leaf": -0.198634014 }
                ]}
              ]},
              { "nodeid": 64, "depth": 6, "split": 29, "split_condition": -0.513326108, "yes": 125, "no": 126, "missing": 125, "children": [
                { "nodeid": 125, "depth": 7, "split": 7, "split_condition": -0.887834966, "yes": 213, "no": 214, "missing": 213, "children": [
                  { "nodeid": 213, "leaf": -0.192680061 },
                  { "nodeid": 214, "leaf": 0.143259346 }
                ]},
                { "nodeid": 126, "depth": 7, "split": 9, "split_condition": -0.616058826, "yes": 215, "no": 216, "missing": 215, "children": [
                  { "nodeid": 215, "depth": 8, "split": 10, "split_condition": -0.29575032, "yes": 299, "no": 300, "missing": 299, "children": [
                    { "nodeid": 299, "leaf": -0.191197917 },
                    { "nodeid": 300, "leaf": 0.0630161911 }
                  ]},
                  { "nodeid": 216, "leaf": -0.199194297 }
                ]}
              ]}
            ]},
            { "nodeid": 32, "depth": 5, "split": 9, "split_condition": -0.325936019, "yes": 65, "no": 66, "missing": 65, "children": [
              { "nodeid": 65, "depth": 6, "split": 12, "split_condition": 0.0108601041, "yes": 127, "no": 128, "missing": 127, "children": [
                { "nodeid": 127, "leaf": 0.191094384 },
                { "nodeid": 128, "leaf": 0.103308037 }
              ]},
              { "nodeid": 66, "depth": 6, "split": 12, "split_condition": 0.549526453, "yes": 129, "no": 130, "missing": 129, "children": [
                { "nodeid": 129, "leaf": -0.143568262 },
                { "nodeid": 130, "leaf": -0.199031085 }
              ]}
            ]}
          ]},
          { "nodeid": 16, "depth": 4, "split": 13, "split_condition": -1.18156743, "yes": 33, "no": 34, "missing": 33, "children": [
            { "nodeid": 33, "depth": 5, "split": 13, "split_condition": -1.32059097, "yes": 67, "no": 68, "missing": 67, "children": [
              { "nodeid": 67, "leaf": -0.1997118 },
              { "nodeid": 68, "depth": 6, "split": 12, "split_condition": -1.3896724, "yes": 131, "no": 132, "missing": 131, "children": [
                { "nodeid": 131, "leaf": -0.0710753649 },
                { "nodeid": 132, "depth": 7, "split": 7, "split_condition": -0.850411415, "yes": 217, "no": 218, "missing": 217, "children": [
                  { "nodeid": 217, "leaf": -0.199081525 },
                  { "nodeid": 218, "leaf": -0.159682065 }
                ]}
              ]}
            ]},
            { "nodeid": 34, "depth": 5, "split": 7, "split_condition": -0.901293159, "yes": 69, "no": 70, "missing": 69, "children": [
              { "nodeid": 69, "leaf": -0.199243143 },
              { "nodeid": 70, "depth": 6, "split": 27, "split_condition": -0.228064746, "yes": 133, "no": 134, "missing": 133, "children": [
                { "nodeid": 133, "depth": 7, "split": 18, "split_condition": 0.208585769, "yes": 219, "no": 220, "missing": 219, "children": [
                  { "nodeid": 219, "depth": 8, "split": 27, "split_condition": -0.623529911, "yes": 301, "no": 302, "missing": 301, "children": [
                    { "nodeid": 301, "leaf": 0.174672395 },
                    { "nodeid": 302, "leaf": 0.0597510003 }
                  ]},
                  { "nodeid": 220, "leaf": -0.107091658 }
                ]},
                { "nodeid": 134, "depth": 7, "split": 22, "split_condition": -0.0712392926, "yes": 221, "no": 222, "missing": 221, "children": [
                  { "nodeid": 221, "depth": 8, "split": 10, "split_condition": 0.160372496, "yes": 303, "no": 304, "missing": 303, "children": [
                    { "nodeid": 303, "leaf": -0.192320526 },
                    { "nodeid": 304, "leaf": -0.0668352023 }
                  ]},
                  { "nodeid": 222, "leaf": 0.034089949 }
                ]}
              ]}
            ]}
          ]}
        ]},
        { "nodeid": 8, "depth": 3, "split": 12, "split_condition": 0.226326659, "yes": 17, "no": 18, "missing": 17, "children": [
          { "nodeid": 17, "depth": 4, "split": 25, "split_condition": -0.847250283, "yes": 35, "no": 36, "missing": 35, "children": [
            { "nodeid": 35, "depth": 5, "split": 35, "split_condition": -0.426569939, "yes": 71, "no": 72, "missing": 71, "children": [
              { "nodeid": 71, "depth": 6, "split": 15, "split_condition": -0.513413787, "yes": 135, "no": 136, "missing": 135, "children": [
                { "nodeid": 135, "leaf": -0.0237900559 },
                { "nodeid": 136, "leaf": -0.171907336 }
              ]},
              { "nodeid": 72, "depth": 6, "split": 8, "split_condition": -1.04362321, "yes": 137, "no": 138, "missing": 137, "children": [
                { "nodeid": 137, "leaf": -0.053652443 },
                { "nodeid": 138, "leaf": 0.114692248 }
              ]}
            ]},
            { "nodeid": 36, "depth": 5, "split": 7, "split_condition": 0.336231679, "yes": 73, "no": 74, "missing": 73, "children": [
              { "nodeid": 73, "depth": 6, "split": 15, "split_condition": -0.217224509, "yes": 139, "no": 140, "missing": 139, "children": [
                { "nodeid": 139, "depth": 7, "split": 34, "split_condition": -0.374791324, "yes": 223, "no": 224, "missing": 223, "children": [
                  { "nodeid": 223, "leaf": 0.0499421768 },
                  { "nodeid": 224, "depth": 8, "split": 8, "split_condition": -0.964949012, "yes": 305, "no": 306, "missing": 305, "children": [
                    { "nodeid": 305, "leaf": 0.109670185 },
                    { "nodeid": 306, "leaf": 0.185362473 }
                  ]}
                ]},
                { "nodeid": 140, "leaf": -0.0547892563 }
              ]},
              { "nodeid": 74, "depth": 6, "split": 9, "split_condition": -0.422643661, "yes": 141, "no": 142, "missing": 141, "children": [
                { "nodeid": 141, "leaf": 0.193977654 },
                { "nodeid": 142, "depth": 7, "split": 31, "split_condition": 1.62902486, "yes": 225, "no": 226, "missing": 225, "children": [
                  { "nodeid": 225, "leaf": 0.131504282 },
                  { "nodeid": 226, "leaf": 0.183889955 }
                ]}
              ]}
            ]}
          ]},
          { "nodeid": 18, "depth": 4, "split": 30, "split_condition": 0.283350438, "yes": 37, "no": 38, "missing": 37, "children": [
            { "nodeid": 37, "depth": 5, "split": 10, "split_condition": 1.17272389, "yes": 75, "no": 76, "missing": 75, "children": [
              { "nodeid": 75, "leaf": -0.0570431538 },
              { "nodeid": 76, "leaf": 0.149616271 }
            ]},
            { "nodeid": 38, "depth": 5, "split": 35, "split_condition": -0.224485129, "yes": 77, "no": 78, "missing": 77, "children": [
              { "nodeid": 77, "depth": 6, "split": 10, "split_condition": 1.2144568, "yes": 143, "no": 144, "missing": 143, "children": [
                { "nodeid": 143, "leaf": -0.196793303 },
                { "nodeid": 144, "leaf": -0.104658864 }
              ]},
              { "nodeid": 78, "leaf": 0.0372760855 }
            ]}
          ]}
        ]}
      ]},
      { "nodeid": 4, "depth": 2, "split": 12, "split_condition": 0.764993012, "yes": 9, "no": 10, "missing": 9, "children": [
        { "nodeid": 9, "depth": 3, "split": 31, "split_condition": -0.17711477, "yes": 19, "no": 20, "missing": 19, "children": [
          { "nodeid": 19, "depth": 4, "split": 34, "split_condition": -0.284341037, "yes": 39, "no": 40, "missing": 39, "children": [
            { "nodeid": 39, "depth": 5, "split": 24, "split_condition": -0.144532725, "yes": 79, "no": 80, "missing": 79, "children": [
              { "nodeid": 79, "depth": 6, "split": 25, "split_condition": 1.01458907, "yes": 145, "no": 146, "missing": 145, "children": [
                { "nodeid": 145, "leaf": 0.137261301 },
                { "nodeid": 146, "leaf": 0.192669138 }
              ]},
              { "nodeid": 80, "depth": 6, "split": 10, "split_condition": 0.593306541, "yes": 147, "no": 148, "missing": 147, "children": [
                { "nodeid": 147, "depth": 7, "split": 27, "split_condition": -1.01899505, "yes": 229, "no": 230, "missing": 229, "children": [
                  { "nodeid": 229, "depth": 8, "split": 10, "split_condition": -0.713378549, "yes": 307, "no": 308, "missing": 307, "children": [
                    { "nodeid": 307, "leaf": -0.185116217 },
                    { "nodeid": 308, "leaf": 0.0444044881 }
                  ]},
                  { "nodeid": 230, "depth": 8, "split": 25, "split_condition": 1.36008, "yes": 309, "no": 310, "missing": 309, "children": [
                    { "nodeid": 309, "leaf": -0.195321441 },
                    { "nodeid": 310, "leaf": -0.10876774 }
                  ]}
                ]},
                { "nodeid": 148, "leaf": 0.0130253164 }
              ]}
            ]},
            { "nodeid": 40, "depth": 5, "split": 14, "split_condition": -1.68596375, "yes": 81, "no": 82, "missing": 81, "children": [
              { "nodeid": 81, "leaf": -0.093181029 },
              { "nodeid": 82, "depth": 6, "split": 34, "split_condition": -0.0251385421, "yes": 149, "no": 150, "missing": 149, "children": [
                { "nodeid": 149, "depth": 7, "split": 29, "split_condition": -0.51990813, "yes": 231, "no": 232, "missing": 231, "children": [
                  { "nodeid": 231, "leaf": 0.104122914 },
                  { "nodeid": 232, "leaf": 0.0385047905 }
                ]},
                { "nodeid": 150, "depth": 7, "split": 8, "split_condition": -0.97371012, "yes": 233, "no": 234, "missing": 233, "children": [
                  { "nodeid": 233, "leaf": 0.114156775 },
                  { "nodeid": 234, "depth": 8, "split": 27, "split_condition": -0.425797343, "yes": 311, "no": 312, "missing": 311, "children": [
                    { "nodeid": 311, "leaf": 0.190039814 },
                    { "nodeid": 312, "leaf": 0.159628138 }
                  ]}
                ]}
              ]}
            ]}
          ]},
          { "nodeid": 20, "depth": 4, "split": 12, "split_condition": 0.334059924, "yes": 41, "no": 42, "missing": 41, "children": [
            { "nodeid": 41, "depth": 5, "split": 8, "split_condition": -1.30408621, "yes": 83, "no": 84, "missing": 83, "children": [
              { "nodeid": 83, "leaf": 0.0477240197 },
              { "nodeid": 84, "depth": 6, "split": 7, "split_condition": 0.393057376, "yes": 151, "no": 152, "missing": 151, "children": [
                { "nodeid": 151, "depth": 7, "split": 0, "split_condition": -0.375923425, "yes": 235, "no": 236, "missing": 235, "children": [
                  { "nodeid": 235, "leaf": 0.0251219552 },
                  { "nodeid": 236, "depth": 8, "split": 27, "split_condition": -0.623529911, "yes": 313, "no": 314, "missing": 313, "children": [
                    { "nodeid": 313, "leaf": 0.190058857 },
                    { "nodeid": 314, "leaf": 0.105939604 }
                  ]}
                ]},
                { "nodeid": 152, "depth": 7, "split": 12, "split_condition": 0.11859338, "yes": 237, "no": 238, "missing": 237, "children": [
                  { "nodeid": 237, "leaf": 0.197025493 },
                  { "nodeid": 238, "depth": 8, "split": 7, "split_condition": 1.02021241, "yes": 315, "no": 316, "missing": 315, "children": [
                    { "nodeid": 315, "leaf": 0.127158746 },
                    { "nodeid": 316, "leaf": 0.193190187 }
                  ]}
                ]}
              ]}
            ]},
            { "nodeid": 42, "depth": 5, "split": 10, "split_condition": 0.830159545, "yes": 85, "no": 86, "missing": 85, "children": [
              { "nodeid": 85, "depth": 6, "split": 34, "split_condition": -0.336671114, "yes": 153, "no": 154, "missing": 153, "children": [
                { "nodeid": 153, "depth": 7, "split": 1, "split_condition": -0.366728187, "yes": 239, "no": 240, "missing": 239, "children": [
                  { "nodeid": 239, "leaf": -0.1980149 },
                  { "nodeid": 240, "leaf": -0.164647788 }
                ]},
                { "nodeid": 154, "leaf": 0.118111514 }
              ]},
              { "nodeid": 86, "depth": 6, "split": 7, "split_condition": 1.37474132, "yes": 155, "no": 156, "missing": 155, "children": [
                { "nodeid": 155, "leaf": 0.0951397941 },
                { "nodeid": 156, "depth": 7, "split": 1, "split_condition": -0.433086991, "yes": 241, "no": 242, "missing": 241, "children": [
                  { "nodeid": 241, "leaf": 0.146664783 },
                  { "nodeid": 242, "leaf": 0.192097768 }
                ]}
              ]}
            ]}
          ]}
        ]},
        { "nodeid": 10, "depth": 3, "split": 10, "split_condition": 1.50835371, "yes": 21, "no": 22, "missing": 21, "children": [
          { "nodeid": 21, "depth": 4, "split": 35, "split_condition": -0.337571979, "yes": 43, "no": 44, "missing": 43, "children": [
            { "nodeid": 43, "depth": 5, "split": 7, "split_condition": 1.82631433, "yes": 87, "no": 88, "missing": 87, "children": [
              { "nodeid": 87, "leaf": -0.199275002 },
              { "nodeid": 88, "leaf": -0.15997079 }
            ]},
            { "nodeid": 44, "leaf": -0.0139598195 }
          ]},
          { "nodeid": 22, "depth": 4, "split": 12, "split_condition": 1.19592607, "yes": 45, "no": 46, "missing": 45, "children": [
            { "nodeid": 45, "depth": 5, "split": 1, "split_condition": -0.28138876, "yes": 89, "no": 90, "missing": 89, "children": [
              { "nodeid": 89, "leaf": 0.0900436863 },
              { "nodeid": 90, "leaf": 0.17986764 }
            ]},
            { "nodeid": 46, "leaf": -0.19712919 }
          ]}
        ]}
      ]}
    ]},
    { "nodeid": 2, "depth": 1, "split": 22, "split_condition": -0.465148151, "yes": 5, "no": 6, "missing": 5, "children": [
      { "nodeid": 5, "depth": 2, "split": 12, "split_condition": 0.549526453, "yes": 11, "no": 12, "missing": 11, "children": [
        { "nodeid": 11, "depth": 3, "split": 10, "split_condition": 0.174188524, "yes": 23, "no": 24, "missing": 23, "children": [
          { "nodeid": 23, "depth": 4, "split": 1, "split_condition": 0.21588251, "yes": 47, "no": 48, "missing": 47, "children": [
            { "nodeid": 47, "depth": 5, "split": 27, "split_condition": -0.623529911, "yes": 91, "no": 92, "missing": 91, "children": [
              { "nodeid": 91, "depth": 6, "split": 7, "split_condition": -1.00344372, "yes": 157, "no": 158, "missing": 157, "children": [
                { "nodeid": 157, "depth": 7, "split": 25, "split_condition": -0.671224415, "yes": 243, "no": 244, "missing": 243, "children": [
                  { "nodeid": 243, "leaf": -0.194459662 },
                  { "nodeid": 244, "leaf": -0.059209235 }
                ]},
                { "nodeid": 158, "depth": 7, "split": 27, "split_condition": -0.821262479, "yes": 245, "no": 246, "missing": 245, "children": [
                  { "nodeid": 245, "depth": 8, "split": 25, "split_condition": -0.507071912, "yes": 319, "no": 320, "missing": 319, "children": [
                    { "nodeid": 319, "leaf": 0.0819837376 },
                    { "nodeid": 320, "leaf": 0.174874261 }
                  ]},
                  { "nodeid": 246, "leaf": 0.0158231016 }
                ]}
              ]},
              { "nodeid": 92, "depth": 6, "split": 34, "split_condition": -0.168434292, "yes": 159, "no": 160, "missing": 159, "children": [
                { "nodeid": 159, "depth": 7, "split": 7, "split_condition": 0.178905606, "yes": 247, "no": 248, "missing": 247, "children": [
                  { "nodeid": 247, "depth": 8, "split": 12, "split_condition": -0.312339723, "yes": 321, "no": 322, "missing": 321, "children": [
                    { "nodeid": 321, "leaf": -0.169826493 },
                    { "nodeid": 322, "leaf": -0.198920414 }
                  ]},
                  { "nodeid": 248, "depth": 8, "split": 12, "split_condition": 0.226326659, "yes": 323, "no": 324, "missing": 323, "children": [
                    { "nodeid": 323, "leaf": -0.018718943 },
                    { "nodeid": 324, "leaf": -0.197653964 }
                  ]}
                ]},
                { "nodeid": 160, "leaf": 0.0556679964 }
              ]}
            ]},
            { "nodeid": 48, "depth": 5, "split": 13, "split_condition": -1.38615286, "yes": 93, "no": 94, "missing": 93, "children": [
              { "nodeid": 93, "depth": 6, "split": 1, "split_condition": 0.899674058, "yes": 161, "no": 162, "missing": 161, "children": [
                { "nodeid": 161, "leaf": -0.125886545 },
                { "nodeid": 162, "leaf": 0.0890128836 }
              ]},
              { "nodeid": 94, "depth": 6, "split": 1, "split_condition": 0.430249691, "yes": 163, "no": 164, "missing": 163, "children": [
                { "nodeid": 163, "depth": 7, "split": 27, "split_condition": -0.425797343, "yes": 249, "no": 250, "missing": 249, "children": [
                  { "nodeid": 249, "depth": 8, "split": 7, "split_condition": -0.933972001, "yes": 325, "no": 326, "missing": 325, "children": [
                    { "nodeid": 325, "leaf": 0.0750445276 },
                    { "nodeid": 326, "leaf": 0.180199072 }
                  ]},
                  { "nodeid": 250, "leaf": -0.0134701198 }
                ]},
                { "nodeid": 164, "depth": 7, "split": 26, "split_condition": 0.616601944, "yes": 251, "no": 252, "missing": 251, "children": [
                  { "nodeid": 251, "depth": 8, "split": 7, "split_condition": -0.71907109, "yes": 327, "no": 328, "missing": 327, "children": [
                    { "nodeid": 327, "leaf": 0.118003868 },
                    { "nodeid": 328, "leaf": 0.180196494 }
                  ]},
                  { "nodeid": 252, "depth": 8, "split": 12, "split_condition": -0.0968731642, "yes": 329, "no": 330, "missing": 329, "children": [
                    { "nodeid": 329, "leaf": 0.188213259 },
                    { "nodeid": 330, "leaf": 0.158377081 }
                  ]}
                ]}
              ]}
            ]}
          ]},
          { "nodeid": 24, "depth": 4, "split": 10, "split_condition": 0.550649583, "yes": 49, "no": 50, "missing": 49, "children": [
            { "nodeid": 49, "depth": 5, "split": 12, "split_condition": 0.11859338, "yes": 95, "no": 96, "missing": 95, "children": [
              { "nodeid": 95, "depth": 6, "split": 8, "split_condition": -0.65666461, "yes": 165, "no": 166, "missing": 165, "children": [
                { "nodeid": 165, "leaf": 0.0733830407 },
                { "nodeid": 166, "depth": 7, "split": 12, "split_condition": -0.0968731642, "yes": 253, "no": 254, "missing": 253, "children": [
                  { "nodeid": 253, "depth": 8, "split": 8, "split_condition": -0.0537014306, "yes": 331, "no": 332, "missing": 331, "children": [
                    { "nodeid": 331, "leaf": 0.164738372 },
                    { "nodeid": 332, "leaf": 0.194424585 }
                  ]},
                  { "nodeid": 254, "leaf": 0.154264778 }
                ]}
              ]},
              { "nodeid": 96, "depth": 6, "split": 1, "split_condition": 0.077163741, "yes": 167, "no": 168, "missing": 167, "children": [
                { "nodeid": 167, "leaf": -0.115659527 },
                { "nodeid": 168, "leaf": 0.12313664 }
              ]}
            ]},
            { "nodeid": 50, "depth": 5, "split": 8, "split_condition": -0.981209517, "yes": 97, "no": 98, "missing": 97, "children": [
              { "nodeid": 97, "depth": 6, "split": 34, "split_condition": 1.2556982, "yes": 169, "no": 170, "missing": 169, "children": [
                { "nodeid": 169, "leaf": 0.0523862503 },
                { "nodeid": 170, "leaf": 0.17546609 }
              ]},
              { "nodeid": 98, "depth": 6, "split": 35, "split_condition": -0.948926687, "yes": 171, "no": 172, "missing": 171, "children": [
                { "nodeid": 171, "leaf": 0.126098335 },
                { "nodeid": 172, "depth": 7, "split": 10, "split_condition": 0.842354059, "yes": 255, "no": 256, "missing": 255, "children": [
                  { "nodeid": 255, "depth": 8, "split": 12, "split_condition": 0.334059924, "yes": 333, "no": 334, "missing": 333, "children": [
                    { "nodeid": 333, "leaf": 0.188765511 },
                    { "nodeid": 334, "leaf": 0.110441022 }
                  ]},
                  { "nodeid": 256, "leaf": 0.195328996 }
                ]}
              ]}
            ]}
          ]}
        ]},
        { "nodeid": 12, "depth": 3, "split": 10, "split_condition": 1.06705093, "yes": 25, "no": 26, "missing": 25, "children": [
          { "nodeid": 25, "depth": 4, "split": 1, "split_condition": 0.445114136, "yes": 51, "no": 52, "missing": 51, "children": [
            { "nodeid": 51, "depth": 5, "split": 35, "split_condition": -0.288415134, "yes": 99, "no": 100, "missing": 99, "children": [
              { "nodeid": 99, "depth": 6, "split": 7, "split_condition": 1.17345846, "yes": 173, "no": 174, "missing": 173, "children": [
                { "nodeid": 173, "leaf": -0.198626921 },
                { "nodeid": 174, "depth": 7, "split": 27, "split_condition": 0.760598183, "yes": 257, "no": 258, "missing": 257, "children": [
                  { "nodeid": 257, "leaf": -0.112590216 },
                  { "nodeid": 258, "leaf": -0.198611125 }
                ]}
              ]},
              { "nodeid": 100, "leaf": -0.0664373115 }
            ]},
            { "nodeid": 52, "depth": 5, "split": 1, "split_condition": 0.666763604, "yes": 101, "no": 102, "missing": 101, "children": [
              { "nodeid": 101, "leaf": 0.063329488 },
              { "nodeid": 102, "leaf": 0.170790881 }
            ]}
          ]},
          { "nodeid": 26, "depth": 4, "split": 12, "split_condition": 1.30365944, "yes": 53, "no": 54, "missing": 53, "children": [
            { "nodeid": 53, "depth": 5, "split": 13, "split_condition": 1.95042944, "yes": 103, "no": 104, "missing": 103, "children": [
              { "nodeid": 103, "depth": 6, "split": 12, "split_condition": 0.872726321, "yes": 175, "no": 176, "missing": 175, "children": [
                { "nodeid": 175, "leaf": 0.155862615 },
                { "nodeid": 176, "leaf": -0.0169697348 }
              ]},
              { "nodeid": 104, "depth": 6, "split": 12, "split_condition": 1.08819282, "yes": 177, "no": 178, "missing": 177, "children": [
                { "nodeid": 177, "leaf": 0.193368748 },
                { "nodeid": 178, "leaf": 0.151664689 }
              ]}
            ]},
            { "nodeid": 54, "depth": 5, "split": 1, "split_condition": 0.279558778, "yes": 105, "no": 106, "missing": 105, "children": [
              { "nodeid": 105, "depth": 6, "split": 9, "split_condition": 1.02797055, "yes": 179, "no": 180, "missing": 179, "children": [
                { "nodeid": 179, "leaf": -0.158373699 },
                { "nodeid": 180, "leaf": -0.196556434 }
              ]},
              { "nodeid": 106, "leaf": 0.0385047905 }
            ]}
          ]}
        ]}
      ]},
      { "nodeid": 6, "depth": 2, "split": 13, "split_condition": -1.2827661, "yes": 13, "no": 14, "missing": 13, "children": [
        { "nodeid": 13, "depth": 3, "split": 1, "split_condition": 0.526370525, "yes": 27, "no": 28, "missing": 27, "children": [
          { "nodeid": 27, "depth": 4, "split": 28, "split_condition": -0.70559746, "yes": 55, "no": 56, "missing": 55, "children": [
            { "nodeid": 55, "depth": 5, "split": 8, "split_condition": -0.0745432675, "yes": 107, "no": 108, "missing": 107, "children": [
              { "nodeid": 107, "depth": 6, "split": 40, "split_condition": 0.944660842, "yes": 181, "no": 182, "missing": 181, "children": [
                { "nodeid": 181, "depth": 7, "split": 13, "split_condition": -1.36428928, "yes": 259, "no": 260, "missing": 259, "children": [
                  { "nodeid": 259, "depth": 8, "split": 16, "split_condition": 0.643405199, "yes": 337, "no": 338, "missing": 337, "children": [
                    { "nodeid": 337, "leaf": -0.197093323 },
                    { "nodeid": 338, "leaf": -0.0802887008 }
                  ]},
                  { "nodeid": 260, "depth": 8, "split": 38, "split_condition": -0.0834197029, "yes": 339, "no": 340, "missing": 339, "children": [
                    { "nodeid": 339, "leaf": 0.0102073438 },
                    { "nodeid": 340, "leaf": -0.146538392 }
                  ]}
                ]},
                { "nodeid": 182, "depth": 7, "split": 17, "split_condition": 0.645505965, "yes": 261, "no": 262, "missing": 261, "children": [
                  { "nodeid": 261, "leaf": -0.0273159575 },
                  { "nodeid": 262, "leaf": 0.11004921 }
                ]}
              ]},
              { "nodeid": 108, "depth": 6, "split": 7, "split_condition": -1.27560902, "yes": 183, "no": 184, "missing": 183, "children": [
                { "nodeid": 183, "leaf": -0.160800204 },
                { "nodeid": 184, "leaf": 0.138682902 }
              ]}
            ]},
            { "nodeid": 56, "depth": 5, "split": 7, "split_condition": -0.874457121, "yes": 109, "no": 110, "missing": 109, "children": [
              { "nodeid": 109, "leaf": -0.174386114 },
              { "nodeid": 110, "depth": 6, "split": 0, "split_condition": 2.15985823, "yes": 185, "no": 186, "missing": 185, "children": [
                { "nodeid": 185, "depth": 7, "split": 1, "split_condition": 0.145859405, "yes": 263, "no": 264, "missing": 263, "children": [
                  { "nodeid": 263, "leaf": 0.122875392 },
                  { "nodeid": 264, "depth": 8, "split": 28, "split_condition": -0.320999146, "yes": 341, "no": 342, "missing": 341, "children": [
                    { "nodeid": 341, "leaf": 0.149916112 },
                    { "nodeid": 342, "leaf": 0.184234843 }
                  ]}
                ]},
                { "nodeid": 186, "leaf": 0.0165641587 }
              ]}
            ]}
          ]},
          { "nodeid": 28, "depth": 4, "split": 1, "split_condition": 1.11686254, "yes": 57, "no": 58, "missing": 57, "children": [
            { "nodeid": 57, "depth": 5, "split": 28, "split_condition": -0.949623585, "yes": 111, "no": 112, "missing": 111, "children": [
              { "nodeid": 111, "depth": 6, "split": 40, "split_condition": 1.29795909, "yes": 187, "no": 188, "missing": 187, "children": [
                { "nodeid": 187, "depth": 7, "split": 38, "split_condition": -0.108887762, "yes": 265, "no": 266, "missing": 265, "children": [
                  { "nodeid": 265, "leaf": 0.118024342 },
                  { "nodeid": 266, "depth": 8, "split": 10, "split_condition": 0.859039426, "yes": 343, "no": 344, "missing": 343, "children": [
                    { "nodeid": 343, "leaf": -0.137304619 },
                    { "nodeid": 344, "leaf": 0.0179921594 }
                  ]}
                ]},
                { "nodeid": 188, "depth": 7, "split": 16, "split_condition": 1.36765933, "yes": 267, "no": 268, "missing": 267, "children": [
                  { "nodeid": 267, "leaf": 0.12909165 },
                  { "nodeid": 268, "leaf": 0.173970342 }
                ]}
              ]},
              { "nodeid": 112, "depth": 6, "split": 7, "split_condition": -0.908287525, "yes": 189, "no": 190, "missing": 189, "children": [
                { "nodeid": 189, "leaf": -0.0125353625 },
                { "nodeid": 190, "depth": 7, "split": 0, "split_condition": 2.0721426, "yes": 269, "no": 270, "missing": 269, "children": [
                  { "nodeid": 269, "depth": 8, "split": 28, "split_condition": -0.730344892, "yes": 345, "no": 346, "missing": 345, "children": [
                    { "nodeid": 345, "leaf": 0.133660361 },
                    { "nodeid": 346, "leaf": 0.186321571 }
                  ]},
                  { "nodeid": 270, "depth": 8, "split": 22, "split_condition": 0.479995012, "yes": 347, "no": 348, "missing": 347, "children": [
                    { "nodeid": 347, "leaf": 0.0315784961 },
                    { "nodeid": 348, "leaf": 0.159065023 }
                  ]}
                ]}
              ]}
            ]},
            { "nodeid": 58, "depth": 5, "split": 7, "split_condition": -1.11820102, "yes": 113, "no": 114, "missing": 113, "children": [
              { "nodeid": 113, "depth": 6, "split": 11, "split_condition": 1.46413386, "yes": 191, "no": 192, "missing": 191, "children": [
                { "nodeid": 191, "leaf": -0.100712217 },
                { "nodeid": 192, "leaf": 0.175876185 }
              ]},
              { "nodeid": 114, "depth": 6, "split": 7, "split_condition": -0.360171854, "yes": 193, "no": 194, "missing": 193, "children": [
                { "nodeid": 193, "depth": 7, "split": 11, "split_condition": 0.0389248878, "yes": 271, "no": 272, "missing": 271, "children": [
                  { "nodeid": 271, "leaf": 0.0847484618 },
                  { "nodeid": 272, "depth": 8, "split": 28, "split_condition": -1.44761765, "yes": 349, "no": 350, "missing": 349, "children": [
                    { "nodeid": 349, "leaf": 0.124315642 },
                    { "nodeid": 350, "leaf": 0.175474644 }
                  ]}
                ]},
                { "nodeid": 194, "depth": 7, "split": 0, "split_condition": 1.23485613, "yes": 273, "no": 274, "missing": 273, "children": [
                  { "nodeid": 273, "depth": 8, "split": 28, "split_condition": -0.595449567, "yes": 351, "no": 352, "missing": 351, "children": [
                    { "nodeid": 351, "leaf": 0.0982472226 },
                    { "nodeid": 352, "leaf": 0.190135419 }
                  ]},
                  { "nodeid": 274, "depth": 8, "split": 8, "split_condition": -1.11369157, "yes": 353, "no": 354, "missing": 353, "children": [
                    { "nodeid": 353, "leaf": 0.166675642 },
                    { "nodeid": 354, "leaf": 0.193692729 }
                  ]}
                ]}
              ]}
            ]}
          ]}
        ]},
        { "nodeid": 14, "depth": 3, "split": 1, "split_condition": 0.125108063, "yes": 29, "no": 30, "missing": 29, "children": [
          { "nodeid": 29, "depth": 4, "split": 12, "split_condition": 1.30365944, "yes": 59, "no": 60, "missing": 59, "children": [
            { "nodeid": 59, "depth": 5, "split": 0, "split_condition": 0.684639335, "yes": 115, "no": 116, "missing": 115, "children": [
              { "nodeid": 115, "depth": 6, "split": 34, "split_condition": -0.247832999, "yes": 195, "no": 196, "missing": 195, "children": [
                { "nodeid": 195, "depth": 7, "split": 27, "split_condition": 0.167400435, "yes": 275, "no": 276, "missing": 275, "children": [
                  { "nodeid": 275, "depth": 8, "split": 31, "split_condition": -0.8249681, "yes": 355, "no": 356, "missing": 355, "children": [
                    { "nodeid": 355, "leaf": 0.0104889655 },
                    { "nodeid": 356, "leaf": 0.170979306 }
                  ]},
                  { "nodeid": 276, "depth": 8, "split": 10, "split_condition": 0.714133799, "yes": 357, "no": 358, "missing": 357, "children": [
                    { "nodeid": 357, "leaf": -0.124637961 },
                    { "nodeid": 358, "leaf": 0.124961033 }
                  ]}
                ]},
                { "nodeid": 196, "depth": 7, "split": 14, "split_condition": -1.14909625, "yes": 277, "no": 278, "missing": 277, "children": [
                  { "nodeid": 277, "depth": 8, "split": 0, "split_condition": 0.469337136, "yes": 359, "no": 360, "missing": 359, "children": [
                    { "nodeid": 359, "leaf": 0.169820935 },
                    { "nodeid": 360, "leaf": 0.0190880261 }
                  ]},
                  { "nodeid": 278, "depth": 8, "split": 22, "split_condition": -0.120150663, "yes": 361, "no": 362, "missing": 361, "children": [
                    { "nodeid": 361, "leaf": 0.167136461 },
                    { "nodeid": 362, "leaf": 0.190527841 }
                  ]}
                ]}
              ]},
              { "nodeid": 116, "depth": 6, "split": 28, "split_condition": -0.70559746, "yes": 197, "no": 198, "missing": 197, "children": [
                { "nodeid": 197, "depth": 7, "split": 36, "split_condition": 1.82998514, "yes": 279, "no": 280, "missing": 279, "children": [
                  { "nodeid": 279, "leaf": -0.038327869 },
                  { "nodeid": 280, "leaf": -0.162524834 }
                ]},
                { "nodeid": 198, "depth": 7, "split": 8, "split_condition": -1.0938561, "yes": 281, "no": 282, "missing": 281, "children": [
                  { "nodeid": 281, "leaf": 0.0761152282 },
                  { "nodeid": 282, "leaf": 0.14940317 }
                ]}
              ]}
            ]},
            { "nodeid": 60, "depth": 5, "split": 0, "split_condition": -0.0569571778, "yes": 117, "no": 118, "missing": 117, "children": [
              { "nodeid": 117, "depth": 6, "split": 34, "split_condition": 0.0736938119, "yes": 199, "no": 200, "missing": 199, "children": [
                { "nodeid": 199, "leaf": -0.198837206 },
                { "nodeid": 200, "leaf": -0.0557963736 }
              ]},
              { "nodeid": 118, "depth": 6, "split": 35, "split_condition": 0.225323677, "yes": 201, "no": 202, "missing": 201, "children": [
                { "nodeid": 201, "leaf": 0.107231937 },
                { "nodeid": 202, "depth": 7, "split": 23, "split_condition": 0.102963865, "yes": 283, "no": 284, "missing": 283, "children": [
                  { "nodeid": 283, "leaf": 0.153167605 },
                  { "nodeid": 284, "leaf": 0.180797502 }
                ]}
              ]}
            ]}
          ]},
          { "nodeid": 30, "depth": 4, "split": 8, "split_condition": -0.373251021, "yes": 61, "no": 62, "missing": 61, "children": [
            { "nodeid": 61, "depth": 5, "split": 28, "split_condition": -0.959585786, "yes": 119, "no": 120, "missing": 119, "children": [
              { "nodeid": 119, "depth": 6, "split": 0, "split_condition": 1.37041676, "yes": 203, "no": 204, "missing": 203, "children": [
                { "nodeid": 203, "depth": 7, "split": 14, "split_condition": -0.669527054, "yes": 285, "no": 286, "missing": 285, "children": [
                  { "nodeid": 285, "depth": 8, "split": 12, "split_condition": -1.3896724, "yes": 363, "no": 364, "missing": 363, "children": [
                    { "nodeid": 363, "leaf": 0.156888396 },
                    { "nodeid": 364, "leaf": -0.110345423 }
                  ]},
                  { "nodeid": 286, "leaf": 0.176817641 }
                ]},
                { "nodeid": 204, "depth": 7, "split": 16, "split_condition": 1.71073914, "yes": 287, "no": 288, "missing": 287, "children": [
                  { "nodeid": 287, "leaf": 0.101423576 },
                  { "nodeid": 288, "depth": 8, "split": 12, "split_condition": -1.28193915, "yes": 365, "no": 366, "missing": 365, "children": [
                    { "nodeid": 365, "leaf": 0.193888232 },
                    { "nodeid": 366, "leaf": 0.158638522 }
                  ]}
                ]}
              ]},
              { "nodeid": 120, "depth": 6, "split": 7, "split_condition": -0.686936975, "yes": 205, "no": 206, "missing": 205, "children": [
                { "nodeid": 205, "leaf": 0.065092057 },
                { "nodeid": 206, "depth": 7, "split": 8, "split_condition": -1.15555394, "yes": 289, "no": 290, "missing": 289, "children": [
                  { "nodeid": 289, "depth": 8, "split": 12, "split_condition": -1.28193915, "yes": 367, "no": 368, "missing": 367, "children": [
                    { "nodeid": 367, "leaf": 0.167155296 },
                    { "nodeid": 368, "leaf": 0.0573913753 }
                  ]},
                  { "nodeid": 290, "depth": 8, "split": 28, "split_condition": -0.285013139, "yes": 369, "no": 370, "missing": 369, "children": [
                    { "nodeid": 369, "leaf": 0.163469225 },
                    { "nodeid": 370, "leaf": 0.186477557 }
                  ]}
                ]}
              ]}
            ]},
            { "nodeid": 62, "depth": 5, "split": 34, "split_condition": -0.151968554, "yes": 121, "no": 122, "missing": 121, "children": [
              { "nodeid": 121, "depth": 6, "split": 12, "split_condition": 0.980459571, "yes": 207, "no": 208, "missing": 207, "children": [
                { "nodeid": 207, "depth": 7, "split": 22, "split_condition": -0.125152186, "yes": 291, "no": 292, "missing": 291, "children": [
                  { "nodeid": 291, "depth": 8, "split": 27, "split_condition": 0.167400435, "yes": 371, "no": 372, "missing": 371, "children": [
                    { "nodeid": 371, "leaf": 0.183872193 },
                    { "nodeid": 372, "leaf": 0.140695035 }
                  ]},
                  { "nodeid": 292, "depth": 8, "split": 12, "split_condition": 0.226326659, "yes": 373, "no": 374, "missing": 373, "children": [
                    { "nodeid": 373, "leaf": 0.193880305 },
                    { "nodeid": 374, "leaf": 0.182553694 }
                  ]}
                ]},
                { "nodeid": 208, "depth": 7, "split": 1, "split_condition": 0.400050193, "yes": 293, "no": 294, "missing": 293, "children": [
                  { "nodeid": 293, "depth": 8, "split": 22, "split_condition": 0.108584434, "yes": 375, "no": 376, "missing": 375, "children": [
                    { "nodeid": 375, "leaf": -0.0670866594 },
                    { "nodeid": 376, "leaf": 0.122875392 }
                  ]},
                  { "nodeid": 294, "depth": 8, "split": 1, "split_condition": 0.479216874, "yes": 377, "no": 378, "missing": 377, "children": [
                    { "nodeid": 377, "leaf": 0.107165232 },
                    { "nodeid": 378, "leaf": 0.175884649 }
                  ]}
                ]}
              ]},
              { "nodeid": 122, "depth": 6, "split": 14, "split_condition": -0.730101705, "yes": 209, "no": 210, "missing": 209, "children": [
                { "nodeid": 209, "depth": 7, "split": 28, "split_condition": -0.893573999, "yes": 295, "no": 296, "missing": 295, "children": [
                  { "nodeid": 295, "depth": 8, "split": 0, "split_condition": 1.13916624, "yes": 379, "no": 380, "missing": 379, "children": [
                    { "nodeid": 379, "leaf": 0.0990160331 },
                    { "nodeid": 380, "leaf": 0.183083549 }
                  ]},
                  { "nodeid": 296, "depth": 8, "split": 0, "split_condition": 1.32257187, "yes": 381, "no": 382, "missing": 381, "children": [
                    { "nodeid": 381, "leaf": 0.184669673 },
                    { "nodeid": 382, "leaf": 0.198643923 }
                  ]}
                ]},
                { "nodeid": 210, "depth": 7, "split": 22, "split_condition": 0.176121384, "yes": 297, "no": 298, "missing": 297, "children": [
                  { "nodeid": 297, "depth": 8, "split": 12, "split_condition": 1.08819282, "yes": 383, "no": 384, "missing": 383, "children": [
                    { "nodeid": 383, "leaf": 0.19267346 },
                    { "nodeid": 384, "leaf": 0.176609606 }
                  ]},
                  { "nodeid": 298, "depth": 8, "split": 1, "split_condition": 0.916985512, "yes": 385, "no": 386, "missing": 385, "children": [
                    { "nodeid": 385, "leaf": 0.195247412 },
                    { "nodeid": 386, "leaf": 0.198382959 }
                  ]}
                ]}
              ]}
            ]}
          ]}
        ]}
      ]}
    ]}
  ]},
  { "nodeid": 0, "depth": 0, "split": 1, "split_condition": -0.175820976, "yes": 1, "no": 2, "missing": 1, "children": [
    { "nodeid": 1, "depth": 1, "split": 31, "split_condition": 0.517852962, "yes": 3, "no": 4, "missing": 3, "children": [
      { "nodeid": 3, "depth": 2, "split": 25, "split_condition": 0.709240437, "yes": 7, "no": 8, "missing": 7, "children": [
        { "nodeid": 7, "depth": 3, "split": 34, "split_condition": -0.326985389, "yes": 15, "no": 16, "missing": 15, "children": [
          { "nodeid": 15, "depth": 4, "split": 10, "split_condition": 0.560629129, "yes": 31, "no": 32, "missing": 31, "children": [
            { "nodeid": 31, "depth": 5, "split": 1, "split_condition": -0.28908813, "yes": 63, "no": 64, "missing": 63, "children": [
              { "nodeid": 63, "depth": 6, "split": 34, "split_condition": -0.363082349, "yes": 119, "no": 120, "missing": 119, "children": [
                { "nodeid": 119, "leaf": -0.181628808 },
                { "nodeid": 120, "depth": 7, "split": 7, "split_condition": -0.752381742, "yes": 205, "no": 206, "missing": 205, "children": [
                  { "nodeid": 205, "leaf": -0.18120186 },
                  { "nodeid": 206, "leaf": -0.136507884 }
                ]}
              ]},
              { "nodeid": 64, "depth": 6, "split": 29, "split_condition": -0.426969439, "yes": 121, "no": 122, "missing": 121, "children": [
                { "nodeid": 121, "depth": 7, "split": 7, "split_condition": -0.887834966, "yes": 207, "no": 208, "missing": 207, "children": [
                  { "nodeid": 207, "leaf": -0.175534874 },
                  { "nodeid": 208, "leaf": 0.122009054 }
                ]},
                { "nodeid": 122, "depth": 7, "split": 9, "split_condition": -0.809474111, "yes": 209, "no": 210, "missing": 209, "children": [
                  { "nodeid": 209, "depth": 8, "split": 5, "split_condition": -0.981307507, "yes": 303, "no": 304, "missing": 303, "children": [
                    { "nodeid": 303, "leaf": -0.178990707 },
                    { "nodeid": 304, "leaf": 0.0363078974 }
                  ]},
                  { "nodeid": 210, "depth": 8, "split": 28, "split_condition": 1.26749182, "yes": 305, "no": 306, "missing": 305, "children": [
                    { "nodeid": 305, "leaf": -0.181403533 },
                    { "nodeid": 306, "leaf": -0.146042153 }
                  ]}
                ]}
              ]}
            ]},
            { "nodeid": 32, "depth": 5, "split": 9, "split_condition": -0.325936019, "yes": 65, "no": 66, "missing": 65, "children": [
              { "nodeid": 65, "depth": 6, "split": 1, "split_condition": -0.378206551, "yes": 123, "no": 124, "missing": 123, "children": [
                { "nodeid": 123, "leaf": 0.0903133452 },
                { "nodeid": 124, "leaf": 0.173144028 }
              ]},
              { "nodeid": 66, "depth": 6, "split": 12, "split_condition": 0.549526453, "yes": 125, "no": 126, "missing": 125, "children": [
                { "nodeid": 125, "leaf": -0.126777142 },
                { "nodeid": 126, "leaf": -0.180910394 }
              ]}
            ]}
          ]},
          { "nodeid": 16, "depth": 4, "split": 13, "split_condition": -1.06122518, "yes": 33, "no": 34, "missing": 33, "children": [
            { "nodeid": 33, "depth": 5, "split": 13, "split_condition": -1.18156743, "yes": 67, "no": 68, "missing": 67, "children": [
              { "nodeid": 67, "depth": 6, "split": 13, "split_condition": -1.32059097, "yes": 127, "no": 128, "missing": 127, "children": [
                { "nodeid": 127, "leaf": -0.181671038 },
                { "nodeid": 128, "depth": 7, "split": 7, "split_condition": -0.866671741, "yes": 211, "no": 212, "missing": 211, "children": [
                  { "nodeid": 211, "leaf": -0.183017418 },
                  { "nodeid": 212, "depth": 8, "split": 9, "split_condition": -0.325936019, "yes": 307, "no": 308, "missing": 307, "children": [
                    { "nodeid": 307, "leaf": 0.0387371443 },
                    { "nodeid": 308, "leaf": -0.175396577 }
                  ]}
                ]}
              ]},
              { "nodeid": 68, "depth": 6, "split": 7, "split_condition": -0.901293159, "yes": 129, "no": 130, "missing": 129, "children": [
                { "nodeid": 129, "leaf": -0.180261567 },
                { "nodeid": 130, "leaf": 0.0117246406 }
              ]}
            ]},
            { "nodeid": 34, "depth": 5, "split": 27, "split_condition": -0.623529911, "yes": 69, "no": 70, "missing": 69, "children": [
              { "nodeid": 69, "depth": 6, "split": 7, "split_condition": -0.862392068, "yes": 131, "no": 132, "missing": 131, "children": [
                { "nodeid": 131, "leaf": -0.109409146 },
                { "nodeid": 132, "depth": 7, "split": 0, "split_condition": 0.317828178, "yes": 213, "no": 214, "missing": 213, "children": [
                  { "nodeid": 213, "depth": 8, "split": 1, "split_condition": -0.533419847, "yes": 309, "no": 310, "missing": 309, "children": [
                    { "nodeid": 309, "leaf": 0.131120667 },
                    { "nodeid": 310, "leaf": 0.175038546 }
                  ]},
                  { "nodeid": 214, "leaf": -0.0172422584 }
                ]}
              ]},
              { "nodeid": 70, "depth": 6, "split": 34, "split_condition": 0.0283784606, "yes": 133, "no": 134, "missing": 133, "children": [
                { "nodeid": 133, "depth": 7, "split": 10, "split_condition": 0.177929252, "yes": 215, "no": 216, "missing": 215, "children": [
                  { "nodeid": 215, "depth": 8, "split": 1, "split_condition": -0.29287979, "yes": 311, "no": 312, "missing": 311, "children": [
                    { "nodeid": 311, "leaf": -0.175636142 },
                    { "nodeid": 312, "leaf": -0.0924475044 }
                  ]},
                  { "nodeid": 216, "leaf": -0.0375416204 }
                ]},
                { "nodeid": 134, "depth": 7, "split": 1, "split_condition": -0.408034384, "yes": 217, "no": 218, "missing": 217, "children": [
                  { "nodeid": 217, "leaf": -0.0932737514 },
                  { "nodeid": 218, "depth": 8, "split": 23, "split_condition": -0.0497003868, "yes": 313, "no": 314, "missing": 313, "children": [
                    { "nodeid": 313, "leaf": 0.0542209409 },
                    { "nodeid": 314, "leaf": 0.144030824 }
                  ]}
                ]}
              ]}
            ]}
          ]}
        ]},
        { "nodeid": 8, "depth": 3, "split": 12, "split_condition": 0.334059924, "yes": 17, "no": 18, "missing": 17, "children": [
          { "nodeid": 17, "depth": 4, "split": 31, "split_condition": -0.61224705, "yes": 35, "no": 36, "missing": 35, "children": [
            { "nodeid": 35, "depth": 5, "split": 7, "split_condition": 0.335090369, "yes": 71, "no": 72, "missing": 71, "children": [
              { "nodeid": 71, "depth": 6, "split": 34, "split_condition": -0.336671114, "yes": 135, "no": 136, "missing": 135, "children": [
                { "nodeid": 135, "depth": 7, "split": 9, "split_condition": -0.712766469, "yes": 219, "no": 220, "missing": 219, "children": [
                  { "nodeid": 219, "leaf": -0.0806732848 },
                  { "nodeid": 220, "leaf": -0.17929171 }
                ]},
                { "nodeid": 136, "depth": 7, "split": 8, "split_condition": -1.07981038, "yes": 221, "no": 222, "missing": 221, "children": [
                  { "nodeid": 221, "leaf": -0.0961170644 },
                  { "nodeid": 222, "depth": 8, "split": 34, "split_condition": 0.0565865524, "yes": 315, "no": 316, "missing": 315, "children": [
                    { "nodeid": 315, "leaf": 0.0504618362 },
                    { "nodeid": 316, "leaf": 0.139960393 }
                  ]}
                ]}
              ]},
              { "nodeid": 72, "leaf": 0.126452804 }
            ]},
            { "nodeid": 36, "depth": 5, "split": 1, "split_condition": -0.626568317, "yes": 73, "no": 74, "missing": 73, "children": [
              { "nodeid": 73, "leaf": -0.00193285313 },
              { "nodeid": 74, "depth": 6, "split": 12, "split_condition": 0.11859338, "yes": 137, "no": 138, "missing": 137, "children": [
                { "nodeid": 137, "depth": 7, "split": 7, "split_condition": 0.0366173685, "yes": 223, "no": 224, "missing": 223, "children": [
                  { "nodeid": 223, "depth": 8, "split": 27, "split_condition": -1.01899505, "yes": 317, "no": 318, "missing": 317, "children": [
                    { "nodeid": 317, "leaf": 0.169663712 },
                    { "nodeid": 318, "leaf": 0.0445220396 }
                  ]},
                  { "nodeid": 224, "depth": 8, "split": 9, "split_condition": -0.519351244, "yes": 319, "no": 320, "missing": 319, "children": [
                    { "nodeid": 319, "leaf": 0.181619555 },
                    { "nodeid": 320, "leaf": 0.153351501 }
                  ]}
                ]},
                { "nodeid": 138, "depth": 7, "split": 7, "split_condition": 0.936004341, "yes": 225, "no": 226, "missing": 225, "children": [
                  { "nodeid": 225, "leaf": -0.0250738058 },
                  { "nodeid": 226, "leaf": 0.176860169 }
                ]}
              ]}
            ]}
          ]},
          { "nodeid": 18, "depth": 4, "split": 13, "split_condition": 1.66820168, "yes": 37, "no": 38, "missing": 37, "children": [
            { "nodeid": 37, "depth": 5, "split": 34, "split_condition": -0.212700307, "yes": 75, "no": 76, "missing": 75, "children": [
              { "nodeid": 75, "depth": 6, "split": 7, "split_condition": 1.28716373, "yes": 139, "no": 140, "missing": 139, "children": [
                { "nodeid": 139, "leaf": -0.183198616 },
                { "nodeid": 140, "leaf": -0.148516268 }
              ]},
              { "nodeid": 76, "leaf": -0.0434510112 }
            ]},
            { "nodeid": 38, "depth": 5, "split": 12, "split_condition": 0.980459571, "yes": 77, "no": 78, "missing": 77, "children": [
              { "nodeid": 77, "leaf": 0.144767299 },
              { "nodeid": 78, "leaf": -0.181621775 }
            ]}
          ]}
        ]}
      ]},
      { "nodeid": 4, "depth": 2, "split": 12, "split_condition": 0.764993012, "yes": 9, "no": 10, "missing": 9, "children": [
        { "nodeid": 9, "depth": 3, "split": 25, "split_condition": -0.320156991, "yes": 19, "no": 20, "missing": 19, "children": [
          { "nodeid": 19, "depth": 4, "split": 35, "split_condition": -0.42487511, "yes": 39, "no": 40, "missing": 39, "children": [
            { "nodeid": 39, "depth": 5, "split": 30, "split_condition": 0.0635145754, "yes": 79, "no": 80, "missing": 79, "children": [
              { "nodeid": 79, "depth": 6, "split": 31, "split_condition": 0.752925515, "yes": 141, "no": 142, "missing": 141, "children": [
                { "nodeid": 141, "leaf": -0.0352989398 },
                { "nodeid": 142, "leaf": 0.161073431 }
              ]},
              { "nodeid": 80, "depth": 6, "split": 31, "split_condition": 1.45814288, "yes": 143, "no": 144, "missing": 143, "children": [
                { "nodeid": 143, "depth": 7, "split": 22, "split_condition": -0.380237699, "yes": 227, "no": 228, "missing": 227, "children": [
                  { "nodeid": 227, "depth": 8, "split": 29, "split_condition": 0.544102967, "yes": 321, "no": 322, "missing": 321, "children": [
                    { "nodeid": 321, "leaf": -0.184684128 },
                    { "nodeid": 322, "leaf": -0.131489679 }
                  ]},
                  { "nodeid": 228, "leaf": -0.111825012 }
                ]},
                { "nodeid": 144, "leaf": -0.0171911679 }
              ]}
            ]},
            { "nodeid": 40, "depth": 5, "split": 8, "split_condition": -1.06797576, "yes": 81, "no": 82, "missing": 81, "children": [
              { "nodeid": 81, "depth": 6, "split": 7, "split_condition": -0.189326942, "yes": 145, "no": 146, "missing": 145, "children": [
                { "nodeid": 145, "leaf": -0.10788852 },
                { "nodeid": 146, "leaf": 0.0354342572 }
              ]},
              { "nodeid": 82, "depth": 6, "split": 23, "split_condition": -0.464575201, "yes": 147, "no": 148, "missing": 147, "children": [
                { "nodeid": 147, "leaf": 0.0595998242 },
                { "nodeid": 148, "depth": 7, "split": 25, "split_condition": -0.984340072, "yes": 229, "no": 230, "missing": 229, "children": [
                  { "nodeid": 229, "leaf": 0.119957887 },
                  { "nodeid": 230, "leaf": 0.174130872 }
                ]}
              ]}
            ]}
          ]},
          { "nodeid": 20, "depth": 4, "split": 12, "split_condition": 0.334059924, "yes": 41, "no": 42, "missing": 41, "children": [
            { "nodeid": 41, "depth": 5, "split": 8, "split_condition": -1.30993676, "yes": 83, "no": 84, "missing": 83, "children": [
              { "nodeid": 83, "leaf": 0.0352479033 },
              { "nodeid": 84, "depth": 6, "split": 7, "split_condition": 0.356665075, "yes": 149, "no": 150, "missing": 149, "children": [
                { "nodeid": 149, "depth": 7, "split": 0, "split_condition": -0.336052656, "yes": 231, "no": 232, "missing": 231, "children": [
                  { "nodeid": 231, "leaf": 0.0157892928 },
                  { "nodeid": 232, "depth": 8, "split": 27, "split_condition": -0.623529911, "yes": 323, "no": 324, "missing": 323, "children": [
                    { "nodeid": 323, "leaf": 0.175726026 },
                    { "nodeid": 324, "leaf": 0.101374283 }
                  ]}
                ]},
                { "nodeid": 150, "depth": 7, "split": 12, "split_condition": 0.11859338, "yes": 233, "no": 234, "missing": 233, "children": [
                  { "nodeid": 233, "leaf": 0.178613707 },
                  { "nodeid": 234, "depth": 8, "split": 7, "split_condition": 0.951981783, "yes": 325, "no": 326, "missing": 325, "children": [
                    { "nodeid": 325, "leaf": 0.0851288959 },
                    { "nodeid": 326, "leaf": 0.176470026 }
                  ]}
                ]}
              ]}
            ]},
            { "nodeid": 42, "depth": 5, "split": 7, "split_condition": 1.0247308, "yes": 85, "no": 86, "missing": 85, "children": [
              { "nodeid": 85, "depth": 6, "split": 21, "split_condition": -0.15862672, "yes": 151, "no": 152, "missing": 151, "children": [
                { "nodeid": 151, "depth": 7, "split": 34, "split_condition": -0.504907966, "yes": 235, "no": 236, "missing": 235, "children": [
                  { "nodeid": 235, "leaf": -0.181983262 },
                  { "nodeid": 236, "leaf": -0.135792911 }
                ]},
                { "nodeid": 152, "leaf": 0.108184658 }
              ]},
              { "nodeid": 86, "depth": 6, "split": 10, "split_condition": 1.05433321, "yes": 153, "no": 154, "missing": 153, "children": [
                { "nodeid": 153, "leaf": 0.0767850503 },
                { "nodeid": 154, "depth": 7, "split": 14, "split_condition": 0.335418165, "yes": 237, "no": 238, "missing": 237, "children": [
                  { "nodeid": 237, "depth": 8, "split": 15, "split_condition": -0.217224509, "yes": 327, "no": 328, "missing": 327, "children": [
                    { "nodeid": 327, "leaf": 0.171864629 },
                    { "nodeid": 328, "leaf": 0.12986362 }
                  ]},
                  { "nodeid": 238, "leaf": 0.180692896 }
                ]}
              ]}
            ]}
          ]}
        ]},
        { "nodeid": 10, "depth": 3, "split": 13, "split_condition": 2.18823576, "yes": 21, "no": 22, "missing": 21, "children": [
          { "nodeid": 21, "depth": 4, "split": 34, "split_condition": 0.444643229, "yes": 43, "no": 44, "missing": 43, "children": [
            { "nodeid": 43, "depth": 5, "split": 13, "split_condition": 1.95042944, "yes": 87, "no": 88, "missing": 87, "children": [
              { "nodeid": 87, "leaf": -0.181408718 },
              { "nodeid": 88, "depth": 6, "split": 12, "split_condition": 1.73459244, "yes": 157, "no": 158, "missing": 157, "children": [
                { "nodeid": 157, "leaf": -0.0986347273 },
                { "nodeid": 158, "leaf": -0.18242456 }
              ]}
            ]},
            { "nodeid": 44, "leaf": 0.0433376059 }
          ]},
          { "nodeid": 22, "depth": 4, "split": 12, "split_condition": 1.19592607, "yes": 45, "no": 46, "missing": 45, "children": [
            { "nodeid": 45, "leaf": 0.151632518 },
            { "nodeid": 46, "leaf": -0.178089797 }
          ]}
        ]}
      ]}
    ]},
    { "nodeid": 2, "depth": 1, "split": 34, "split_condition": -0.473022819, "yes": 5, "no": 6, "missing": 5, "children": [
      { "nodeid": 5, "depth": 2, "split": 12, "split_condition": 0.549526453, "yes": 11, "no": 12, "missing": 11, "children": [
        { "nodeid": 11, "depth": 3, "split": 10, "split_condition": 0.174188524, "yes": 23, "no": 24, "missing": 23, "children": [
          { "nodeid": 23, "depth": 4, "split": 1, "split_condition": 0.209901333, "yes": 47, "no": 48, "missing": 47, "children": [
            { "nodeid": 47, "depth": 5, "split": 27, "split_condition": -0.623529911, "yes": 89, "no": 90, "missing": 89, "children": [
              { "nodeid": 89, "depth": 6, "split": 7, "split_condition": -0.867530584, "yes": 159, "no": 160, "missing": 159, "children": [
                { "nodeid": 159, "depth": 7, "split": 31, "split_condition": -0.444581509, "yes": 239, "no": 240, "missing": 239, "children": [
                  { "nodeid": 239, "depth": 8, "split": 31, "split_condition": -0.860269308, "yes": 329, "no": 330, "missing": 329, "children": [
                    { "nodeid": 329, "leaf": -0.185849473 },
                    { "nodeid": 330, "leaf": -0.138645828 }
                  ]},
                  { "nodeid": 240, "leaf": -0.00242757075 }
                ]},
                { "nodeid": 160, "depth": 7, "split": 27, "split_condition": -0.821262479, "yes": 241, "no": 242, "missing": 241, "children": [
                  { "nodeid": 241, "depth": 8, "split": 0, "split_condition": -0.46363914, "yes": 331, "no": 332, "missing": 331, "children": [
                    { "nodeid": 331, "leaf": 0.118072823 },
                    { "nodeid": 332, "leaf": 0.167222142 }
                  ]},
                  { "nodeid": 242, "leaf": 0.0195388924 }
                ]}
              ]},
              { "nodeid": 90, "depth": 6, "split": 22, "split_condition": -0.206877679, "yes": 161, "no": 162, "missing": 161, "children": [
                { "nodeid": 161, "depth": 7, "split": 12, "split_condition": -0.204606444, "yes": 243, "no": 244, "missing": 243, "children": [
                  { "nodeid": 243, "depth": 8, "split": 7, "split_condition": -0.41718477, "yes": 333, "no": 334, "missing": 333, "children": [
                    { "nodeid": 333, "leaf": -0.184933215 },
                    { "nodeid": 334, "leaf": 0.0242957715 }
                  ]},
                  { "nodeid": 244, "depth": 8, "split": 12, "split_condition": -0.0968731642, "yes": 335, "no": 336, "missing": 335, "children": [
                    { "nodeid": 335, "leaf": -0.158114046 },
                    { "nodeid": 336, "leaf": -0.183001518 }
                  ]}
                ]},
                { "nodeid": 162, "leaf": 0.037079405 }
              ]}
            ]},
            { "nodeid": 48, "depth": 5, "split": 0, "split_condition": 2.00834942, "yes": 91, "no": 92, "missing": 91, "children": [
              { "nodeid": 91, "depth": 6, "split": 7, "split_condition": -1.57638168, "yes": 163, "no": 164, "missing": 163, "children": [
                { "nodeid": 163, "leaf": -0.0249180868 },
                { "nodeid": 164, "depth": 7, "split": 1, "split_condition": 0.407990724, "yes": 245, "no": 246, "missing": 245, "children": [
                  { "nodeid": 245, "depth": 8, "split": 29, "split_condition": 0.922645926, "yes": 337, "no": 338, "missing": 337, "children": [
                    { "nodeid": 337, "leaf": 0.147932619 },
                    { "nodeid": 338, "leaf": -0.0141436253 }
                  ]},
                  { "nodeid": 246, "depth": 8, "split": 8, "split_condition": -0.141309828, "yes": 339, "no": 340, "missing": 339, "children": [
                    { "nodeid": 339, "leaf": 0.116149366 },
                    { "nodeid": 340, "leaf": 0.165651366 }
                  ]}
                ]}
              ]},
              { "nodeid": 92, "leaf": -0.0893999487 }
            ]}
          ]},
          { "nodeid": 24, "depth": 4, "split": 23, "split_condition": -0.958515167, "yes": 49, "no": 50, "missing": 49, "children": [
            { "nodeid": 49, "leaf": 0.0263247248 },
            { "nodeid": 50, "depth": 5, "split": 10, "split_condition": 0.531887233, "yes": 93, "no": 94, "missing": 93, "children": [
              { "nodeid": 93, "depth": 6, "split": 12, "split_condition": 0.11859338, "yes": 165, "no": 166, "missing": 165, "children": [
                { "nodeid": 165, "depth": 7, "split": 8, "split_condition": -0.60148406, "yes": 247, "no": 248, "missing": 247, "children": [
                  { "nodeid": 247, "leaf": 0.0898258835 },
                  { "nodeid": 248, "depth": 8, "split": 12, "split_condition": -0.0968731642, "yes": 341, "no": 342, "missing": 341, "children": [
                    { "nodeid": 341, "leaf": 0.175446823 },
                    { "nodeid": 342, "leaf": 0.143523917 }
                  ]}
                ]},
                { "nodeid": 166, "depth": 7, "split": 1, "split_condition": 0.077163741, "yes": 249, "no": 250, "missing": 249, "children": [
                  { "nodeid": 249, "leaf": -0.125555977 },
                  { "nodeid": 250, "leaf": 0.112425089 }
                ]}
              ]},
              { "nodeid": 94, "depth": 6, "split": 8, "split_condition": -0.998960972, "yes": 167, "no": 168, "missing": 167, "children": [
                { "nodeid": 167, "leaf": 0.114433818 },
                { "nodeid": 168, "depth": 7, "split": 12, "split_condition": 0.441793203, "yes": 251, "no": 252, "missing": 251, "children": [
                  { "nodeid": 251, "depth": 8, "split": 8, "split_condition": -0.575444043, "yes": 343, "no": 344, "missing": 343, "children": [
                    { "nodeid": 343, "leaf": 0.157286853 },
                    { "nodeid": 344, "leaf": 0.176917166 }
                  ]},
                  { "nodeid": 252, "depth": 8, "split": 10, "split_condition": 1.01726913, "yes": 345, "no": 346, "missing": 345, "children": [
                    { "nodeid": 345, "leaf": 0.105912045 },
                    { "nodeid": 346, "leaf": 0.175044671 }
                  ]}
                ]}
              ]}
            ]}
          ]}
        ]},
        { "nodeid": 12, "depth": 3, "split": 10, "split_condition": 1.18402219, "yes": 25, "no": 26, "missing": 25, "children": [
          { "nodeid": 25, "depth": 4, "split": 1, "split_condition": 0.525746584, "yes": 51, "no": 52, "missing": 51, "children": [
            { "nodeid": 51, "depth": 5, "split": 12, "split_condition": 0.764993012, "yes": 95, "no": 96, "missing": 95, "children": [
              { "nodeid": 95, "depth": 6, "split": 10, "split_condition": 0.719997048, "yes": 169, "no": 170, "missing": 169, "children": [
                { "nodeid": 169, "leaf": -0.179204464 },
                { "nodeid": 170, "leaf": 0.0617084689 }
              ]},
              { "nodeid": 96, "leaf": -0.182332009 }
            ]},
            { "nodeid": 52, "depth": 5, "split": 1, "split_condition": 0.721145213, "yes": 97, "no": 98, "missing": 97, "children": [
              { "nodeid": 97, "leaf": 0.109108448 },
              { "nodeid": 98, "leaf": 0.159164816 }
            ]}
          ]},
          { "nodeid": 26, "depth": 4, "split": 12, "split_condition": 1.30365944, "yes": 53, "no": 54, "missing": 53, "children": [
            { "nodeid": 53, "depth": 5, "split": 13, "split_condition": 1.95042944, "yes": 99, "no": 100, "missing": 99, "children": [
              { "nodeid": 99, "depth": 6, "split": 9, "split_condition": 0.447724879, "yes": 171, "no": 172, "missing": 171, "children": [
                { "nodeid": 171, "leaf": 0.145868585 },
                { "nodeid": 172, "leaf": 0.0194616355 }
              ]},
              { "nodeid": 100, "depth": 6, "split": 12, "split_condition": 1.08819282, "yes": 173, "no": 174, "missing": 173, "children": [
                { "nodeid": 173, "leaf": 0.177232072 },
                { "nodeid": 174, "leaf": 0.138667405 }
              ]}
            ]},
            { "nodeid": 54, "depth": 5, "split": 26, "split_condition": 1.10732794, "yes": 101, "no": 102, "missing": 101, "children": [
              { "nodeid": 101, "leaf": -0.180019796 },
              { "nodeid": 102, "leaf": -0.0881267413 }
            ]}
          ]}
        ]}
      ]},
      { "nodeid": 6, "depth": 2, "split": 13, "split_condition": -1.28099668, "yes": 13, "no": 14, "missing": 13, "children": [
        { "nodeid": 13, "depth": 3, "split": 1, "split_condition": 0.51867485, "yes": 27, "no": 28, "missing": 27, "children": [
          { "nodeid": 27, "depth": 4, "split": 28, "split_condition": -0.633976161, "yes": 55, "no": 56, "missing": 55, "children": [
            { "nodeid": 55, "depth": 5, "split": 40, "split_condition": 1.15321016, "yes": 103, "no": 104, "missing": 103, "children": [
              { "nodeid": 103, "depth": 6, "split": 8, "split_condition": -0.223611608, "yes": 175, "no": 176, "missing": 175, "children": [
                { "nodeid": 175, "depth": 7, "split": 16, "split_condition": 0.814552009, "yes": 253, "no": 254, "missing": 253, "children": [
                  { "nodeid": 253, "depth": 8, "split": 13, "split_condition": -1.35331774, "yes": 347, "no": 348, "missing": 347, "children": [
                    { "nodeid": 347, "leaf": -0.178095773 },
                    { "nodeid": 348, "leaf": -0.114203751 }
                  ]},
                  { "nodeid": 254, "leaf": -0.0528763607 }
                ]},
                { "nodeid": 176, "depth": 7, "split": 7, "split_condition": -1.36445141, "yes": 255, "no": 256, "missing": 255, "children": [
                  { "nodeid": 255, "leaf": -0.177355036 },
                  { "nodeid": 256, "depth": 8, "split": 13, "split_condition": -1.35899234, "yes": 349, "no": 350, "missing": 349, "children": [
                    { "nodeid": 349, "leaf": 0.0075677149 },
                    { "nodeid": 350, "leaf": 0.137865007 }
                  ]}
                ]}
              ]},
              { "nodeid": 104, "depth": 6, "split": 23, "split_condition": -0.169487581, "yes": 177, "no": 178, "missing": 177, "children": [
                { "nodeid": 177, "leaf": 0.118468143 },
                { "nodeid": 178, "leaf": 0.0137685435 }
              ]}
            ]},
            { "nodeid": 56, "depth": 5, "split": 7, "split_condition": -0.701895833, "yes": 105, "no": 106, "missing": 105, "children": [
              { "nodeid": 105, "leaf": -0.113228612 },
              { "nodeid": 106, "depth": 6, "split": 0, "split_condition": 2.03227186, "yes": 179, "no": 180, "missing": 179, "children": [
                { "nodeid": 179, "depth": 7, "split": 0, "split_condition": 1.06739891, "yes": 257, "no": 258, "missing": 257, "children": [
                  { "nodeid": 257, "leaf": 0.119351558 },
                  { "nodeid": 258, "leaf": 0.170065954 }
                ]},
                { "nodeid": 180, "leaf": 0.0389643274 }
              ]}
            ]}
          ]},
          { "nodeid": 28, "depth": 4, "split": 7, "split_condition": -0.679706335, "yes": 57, "no": 58, "missing": 57, "children": [
            { "nodeid": 57, "depth": 5, "split": 11, "split_condition": 0.481473237, "yes": 107, "no": 108, "missing": 107, "children": [
              { "nodeid": 107, "depth": 6, "split": 7, "split_condition": -1.02131486, "yes": 181, "no": 182, "missing": 181, "children": [
                { "nodeid": 181, "depth": 7, "split": 8, "split_condition": -0.814214468, "yes": 259, "no": 260, "missing": 259, "children": [
                  { "nodeid": 259, "leaf": -0.194687068 },
                  { "nodeid": 260, "leaf": -0.113167338 }
                ]},
                { "nodeid": 182, "depth": 7, "split": 41, "split_condition": 0.79526031, "yes": 261, "no": 262, "missing": 261, "children": [
                  { "nodeid": 261, "leaf": -0.0285532773 },
                  { "nodeid": 262, "leaf": 0.093114242 }
                ]}
              ]},
              { "nodeid": 108, "depth": 6, "split": 11, "split_condition": 1.49728882, "yes": 183, "no": 184, "missing": 183, "children": [
                { "nodeid": 183, "depth": 7, "split": 7, "split_condition": -1.12837052, "yes": 263, "no": 264, "missing": 263, "children": [
                  { "nodeid": 263, "leaf": -0.0355119668 },
                  { "nodeid": 264, "depth": 8, "split": 0, "split_condition": 1.17903709, "yes": 351, "no": 352, "missing": 351, "children": [
                    { "nodeid": 351, "leaf": 0.0640352294 },
                    { "nodeid": 352, "leaf": 0.152171329 }
                  ]}
                ]},
                { "nodeid": 184, "depth": 7, "split": 7, "split_condition": -1.36703539, "yes": 265, "no": 266, "missing": 265, "children": [
                  { "nodeid": 265, "leaf": 0.133601174 },
                  { "nodeid": 266, "leaf": 0.173370719 }
                ]}
              ]}
            ]},
            { "nodeid": 58, "depth": 5, "split": 0, "split_condition": 1.17106295, "yes": 109, "no": 110, "missing": 109, "children": [
              { "nodeid": 109, "depth": 6, "split": 29, "split_condition": -1.1398468, "yes": 185, "no": 186, "missing": 185, "children": [
                { "nodeid": 185, "depth": 7, "split": 13, "split_condition": -1.34273303, "yes": 267, "no": 268, "missing": 267, "children": [
                  { "nodeid": 267, "leaf": -0.129510149 },
                  { "nodeid": 268, "leaf": 0.0476387367 }
                ]},
                { "nodeid": 186, "depth": 7, "split": 29, "split_condition": -0.366791546, "yes": 269, "no": 270, "missing": 269, "children": [
                  { "nodeid": 269, "leaf": 0.0919532999 },
                  { "nodeid": 270, "leaf": 0.169150099 }
                ]}
              ]},
              { "nodeid": 110, "depth": 6, "split": 1, "split_condition": 1.28893971, "yes": 187, "no": 188, "missing": 187, "children": [
                { "nodeid": 187, "depth": 7, "split": 28, "split_condition": -1.44761765, "yes": 271, "no": 272, "missing": 271, "children": [
                  { "nodeid": 271, "leaf": 0.072544001 },
                  { "nodeid": 272, "depth": 8, "split": 0, "split_condition": 2.26750946, "yes": 353, "no": 354, "missing": 353, "children": [
                    { "nodeid": 353, "leaf": 0.162525535 },
                    { "nodeid": 354, "leaf": 0.127857804 }
                  ]}
                ]},
                { "nodeid": 188, "depth": 7, "split": 8, "split_condition": -1.11111832, "yes": 273, "no": 274, "missing": 273, "children": [
                  { "nodeid": 273, "leaf": 0.142704353 },
                  { "nodeid": 274, "depth": 8, "split": 7, "split_condition": -0.305429399, "yes": 355, "no": 356, "missing": 355, "children": [
                    { "nodeid": 355, "leaf": 0.166784838 },
                    { "nodeid": 356, "leaf": 0.1773334 }
                  ]}
                ]}
              ]}
            ]}
          ]}
        ]},
        { "nodeid": 14, "depth": 3, "split": 1, "split_condition": 0.104337215, "yes": 29, "no": 30, "missing": 29, "children": [
          { "nodeid": 29, "depth": 4, "split": 12, "split_condition": 0.980459571, "yes": 59, "no": 60, "missing": 59, "children": [
            { "nodeid": 59, "depth": 5, "split": 0, "split_condition": 0.684639335, "yes": 111, "no": 112, "missing": 111, "children": [
              { "nodeid": 111, "depth": 6, "split": 22, "split_condition": -0.431877971, "yes": 189, "no": 190, "missing": 189, "children": [
                { "nodeid": 189, "depth": 7, "split": 27, "split_condition": -0.425797343, "yes": 275, "no": 276, "missing": 275, "children": [
                  { "nodeid": 275, "depth": 8, "split": 25, "split_condition": -0.354827017, "yes": 357, "no": 358, "missing": 357, "children": [
                    { "nodeid": 357, "leaf": 0.0592826568 },
                    { "nodeid": 358, "leaf": 0.171059877 }
                  ]},
                  { "nodeid": 276, "depth": 8, "split": 10, "split_condition": 0.494913101, "yes": 359, "no": 360, "missing": 359, "children": [
                    { "nodeid": 359, "leaf": -0.0938088298 },
                    { "nodeid": 360, "leaf": 0.121749856 }
                  ]}
                ]},
                { "nodeid": 190, "depth": 7, "split": 7, "split_condition": -1.08376765, "yes": 277, "no": 278, "missing": 277, "children": [
                  { "nodeid": 277, "leaf": 0.0197241567 },
                  { "nodeid": 278, "depth": 8, "split": 27, "split_condition": -0.0303321555, "yes": 361, "no": 362, "missing": 361, "children": [
                    { "nodeid": 361, "leaf": 0.172602117 },
                    { "nodeid": 362, "leaf": 0.149308532 }
                  ]}
                ]}
              ]},
              { "nodeid": 112, "depth": 6, "split": 28, "split_condition": -0.70559746, "yes": 191, "no": 192, "missing": 191, "children": [
                { "nodeid": 191, "depth": 7, "split": 36, "split_condition": 1.82998514, "yes": 279, "no": 280, "missing": 279, "children": [
                  { "nodeid": 279, "leaf": -0.0313273072 },
                  { "nodeid": 280, "leaf": -0.156593546 }
                ]},
                { "nodeid": 192, "depth": 7, "split": 28, "split_condition": 0.326787591, "yes": 281, "no": 282, "missing": 281, "children": [
                  { "nodeid": 281, "leaf": 0.0670599714 },
                  { "nodeid": 282, "leaf": 0.133755282 }
                ]}
              ]}
            ]},
            { "nodeid": 60, "depth": 5, "split": 34, "split_condition": 0.0520127267, "yes": 113, "no": 114, "missing": 113, "children": [
              { "nodeid": 113, "depth": 6, "split": 13, "split_condition": 1.94390583, "yes": 193, "no": 194, "missing": 193, "children": [
                { "nodeid": 193, "depth": 7, "split": 34, "split_condition": -0.160467029, "yes": 283, "no": 284, "missing": 283, "children": [
                  { "nodeid": 283, "leaf": -0.184859246 },
                  { "nodeid": 284, "leaf": -0.128971919 }
                ]},
                { "nodeid": 194, "leaf": 0.0272521563 }
              ]},
              { "nodeid": 114, "depth": 6, "split": 0, "split_condition": -0.0649313331, "yes": 195, "no": 196, "missing": 195, "children": [
                { "nodeid": 195, "depth": 7, "split": 9, "split_condition": 1.12467813, "yes": 285, "no": 286, "missing": 285, "children": [
                  { "nodeid": 285, "leaf": 0.137663946 },
                  { "nodeid": 286, "leaf": -0.094735764 }
                ]},
                { "nodeid": 196, "depth": 7, "split": 27, "split_condition": 1.94699371, "yes": 287, "no": 288, "missing": 287, "children": [
                  { "nodeid": 287, "depth": 8, "split": 40, "split_condition": -0.388612628, "yes": 363, "no": 364, "missing": 363, "children": [
                    { "nodeid": 363, "leaf": 0.165262461 },
                    { "nodeid": 364, "leaf": 0.125845298 }
                  ]},
                  { "nodeid": 288, "leaf": 0.118077867 }
                ]}
              ]}
            ]}
          ]},
          { "nodeid": 30, "depth": 4, "split": 8, "split_condition": -0.499573737, "yes": 61, "no": 62, "missing": 61, "children": [
            { "nodeid": 61, "depth": 5, "split": 28, "split_condition": -0.959585786, "yes": 115, "no": 116, "missing": 115, "children": [
              { "nodeid": 115, "depth": 6, "split": 1, "split_condition": 0.583465338, "yes": 197, "no": 198, "missing": 197, "children": [
                { "nodeid": 197, "depth": 7, "split": 12, "split_condition": -1.28193915, "yes": 289, "no": 290, "missing": 289, "children": [
                  { "nodeid": 289, "leaf": 0.0450491868 },
                  { "nodeid": 290, "depth": 8, "split": 13, "split_condition": -0.989953637, "yes": 365, "no": 366, "missing": 365, "children": [
                    { "nodeid": 365, "leaf": -0.167017922 },
                    { "nodeid": 366, "leaf": -0.0115821715 }
                  ]}
                ]},
                { "nodeid": 198, "depth": 7, "split": 16, "split_condition": 1.71073914, "yes": 291, "no": 292, "missing": 291, "children": [
                  { "nodeid": 291, "leaf": 0.106767334 },
                  { "nodeid": 292, "leaf": 0.169168606 }
                ]}
              ]},
              { "nodeid": 116, "depth": 6, "split": 7, "split_condition": -0.584293902, "yes": 199, "no": 200, "missing": 199, "children": [
                { "nodeid": 199, "leaf": 0.073622182 },
                { "nodeid": 200, "depth": 7, "split": 8, "split_condition": -1.20477533, "yes": 293, "no": 294, "missing": 293, "children": [
                  { "nodeid": 293, "depth": 8, "split": 12, "split_condition": -1.28193915, "yes": 367, "no": 368, "missing": 367, "children": [
                    { "nodeid": 367, "leaf": 0.154813692 },
                    { "nodeid": 368, "leaf": 0.0524831116 }
                  ]},
                  { "nodeid": 294, "depth": 8, "split": 28, "split_condition": 0.0641069338, "yes": 369, "no": 370, "missing": 369, "children": [
                    { "nodeid": 369, "leaf": 0.146755934 },
                    { "nodeid": 370, "leaf": 0.169070303 }
                  ]}
                ]}
              ]}
            ]},
            { "nodeid": 62, "depth": 5, "split": 34, "split_condition": -0.0251385421, "yes": 117, "no": 118, "missing": 117, "children": [
              { "nodeid": 117, "depth": 6, "split": 12, "split_condition": 0.872726321, "yes": 201, "no": 202, "missing": 201, "children": [
                { "nodeid": 201, "depth": 7, "split": 22, "split_condition": -0.465148151, "yes": 295, "no": 296, "missing": 295, "children": [
                  { "nodeid": 295, "depth": 8, "split": 27, "split_condition": 0.167400435, "yes": 371, "no": 372, "missing": 371, "children": [
                    { "nodeid": 371, "leaf": 0.15982312 },
                    { "nodeid": 372, "leaf": 0.0929635242 }
                  ]},
                  { "nodeid": 296, "depth": 8, "split": 7, "split_condition": -1.27660751, "yes": 373, "no": 374, "missing": 373, "children": [
                    { "nodeid": 373, "leaf": 0.110090867 },
                    { "nodeid": 374, "leaf": 0.172544464 }
                  ]}
                ]},
                { "nodeid": 202, "depth": 7, "split": 23, "split_condition": -0.125929847, "yes": 297, "no": 298, "missing": 297, "children": [
                  { "nodeid": 297, "depth": 8, "split": 12, "split_condition": 1.30365944, "yes": 375, "no": 376, "missing": 375, "children": [
                    { "nodeid": 375, "leaf": 0.074355863 },
                    { "nodeid": 376, "leaf": -0.117099546 }
                  ]},
                  { "nodeid": 298, "depth": 8, "split": 1, "split_condition": 0.265438497, "yes": 377, "no": 378, "missing": 377, "children": [
                    { "nodeid": 377, "leaf": 0.0699780136 },
                    { "nodeid": 378, "leaf": 0.160303041 }
                  ]}
                ]}
              ]},
              { "nodeid": 118, "depth": 6, "split": 14, "split_condition": -0.733389974, "yes": 203, "no": 204, "missing": 203, "children": [
                { "nodeid": 203, "depth": 7, "split": 28, "split_condition": -1.05496073, "yes": 299, "no": 300, "missing": 299, "children": [
                  { "nodeid": 299, "depth": 8, "split": 1, "split_condition": 1.22679389, "yes": 379, "no": 380, "missing": 379, "children": [
                    { "nodeid": 379, "leaf": 0.0753263235 },
                    { "nodeid": 380, "leaf": 0.16795522 }
                  ]},
                  { "nodeid": 300, "depth": 8, "split": 7, "split_condition": -0.0986489356, "yes": 381, "no": 382, "missing": 381, "children": [
                    { "nodeid": 381, "leaf": 0.154044881 },
                    { "nodeid": 382, "leaf": 0.177979156 }
                  ]}
                ]},
                { "nodeid": 204, "depth": 7, "split": 1, "split_condition": 0.704218268, "yes": 301, "no": 302, "missing": 301, "children": [
                  { "nodeid": 301, "depth": 8, "split": 27, "split_condition": 0.365133017, "yes": 383, "no": 384, "missing": 383, "children": [
                    { "nodeid": 383, "leaf": 0.178496346 },
                    { "nodeid": 384, "leaf": 0.172179341 }
                  ]},
                  { "nodeid": 302, "depth": 8, "split": 1, "split_condition": 1.43195605, "yes": 385, "no": 386, "missing": 385, "children": [
                    { "nodeid": 385, "leaf": 0.178701967 },
                    { "nodeid": 386, "leaf": 0.181025907 }
                  ]}
                ]}
              ]}
            ]}
          ]}
        ]}
      ]}
    ]}
  ]},
  { "nodeid": 0, "depth": 0, "split": 1, "split_condition": -0.162560195, "yes": 1, "no": 2, "missing": 1, "children": [
    { "nodeid": 1, "depth": 1, "split": 25, "split_condition": 0.481086969, "yes": 3, "no": 4, "missing": 3, "children": [
      { "nodeid": 3, "depth": 2, "split": 34, "split_condition": -0.247832999, "yes": 7, "no": 8, "missing": 7, "children": [
        { "nodeid": 7, "depth": 3, "split": 31, "split_condition": 0.69862175, "yes": 15, "no": 16, "missing": 15, "children": [
          { "nodeid": 15, "depth": 4, "split": 10, "split_condition": 0.560629129, "yes": 31, "no": 32, "missing": 31, "children": [
            { "nodeid": 31, "depth": 5, "split": 1, "split_condition": -0.28908813, "yes": 61, "no": 62, "missing": 61, "children": [
              { "nodeid": 61, "depth": 6, "split": 34, "split_condition": -0.350416422, "yes": 115, "no": 116, "missing": 115, "children": [
                { "nodeid": 115, "depth": 7, "split": 31, "split_condition": 0.517852962, "yes": 203, "no": 204, "missing": 203, "children": [
                  { "nodeid": 203, "leaf": -0.168112084 },
                  { "nodeid": 204, "depth": 8, "split": 9, "split_condition": -0.712766469, "yes": 299, "no": 300, "missing": 299, "children": [
                    { "nodeid": 299, "leaf": -0.0886792094 },
                    { "nodeid": 300, "leaf": -0.168843046 }
                  ]}
                ]},
                { "nodeid": 116, "depth": 7, "split": 31, "split_condition": -0.147801131, "yes": 205, "no": 206, "missing": 205, "children": [
                  { "nodeid": 205, "depth": 8, "split": 26, "split_condition": 0.0921580195, "yes": 301, "no": 302, "missing": 301, "children": [
                    { "nodeid": 301, "leaf": -0.168300182 },
                    { "nodeid": 302, "leaf": -0.137211546 }
                  ]},
                  { "nodeid": 206, "leaf": -0.0894559622 }
                ]}
              ]},
              { "nodeid": 62, "depth": 6, "split": 29, "split_condition": -0.454299152, "yes": 117, "no": 118, "missing": 117, "children": [
                { "nodeid": 117, "depth": 7, "split": 7, "split_condition": -0.887834966, "yes": 207, "no": 208, "missing": 207, "children": [
                  { "nodeid": 207, "leaf": -0.163391322 },
                  { "nodeid": 208, "leaf": 0.124938183 }
                ]},
                { "nodeid": 118, "depth": 7, "split": 9, "split_condition": -0.809474111, "yes": 209, "no": 210, "missing": 209, "children": [
                  { "nodeid": 209, "depth": 8, "split": 10, "split_condition": -0.517895758, "yes": 303, "no": 304, "missing": 303, "children": [
                    { "nodeid": 303, "leaf": -0.161572248 },
                    { "nodeid": 304, "leaf": 0.0961621925 }
                  ]},
                  { "nodeid": 210, "depth": 8, "split": 9, "split_condition": -0.616058826, "yes": 305, "no": 306, "missing": 305, "children": [
                    { "nodeid": 305, "leaf": -0.143405899 },
                    { "nodeid": 306, "leaf": -0.168326184 }
                  ]}
                ]}
              ]}
            ]},
            { "nodeid": 32, "depth": 5, "split": 12, "split_condition": 0.334059924, "yes": 63, "no": 64, "missing": 63, "children": [
              { "nodeid": 63, "depth": 6, "split": 9, "split_condition": -0.616058826, "yes": 119, "no": 120, "missing": 119, "children": [
                { "nodeid": 119, "leaf": 0.163355395 },
                { "nodeid": 120, "leaf": 0.0710662305 }
              ]},
              { "nodeid": 64, "depth": 6, "split": 29, "split_condition": 1.04658902, "yes": 121, "no": 122, "missing": 121, "children": [
                { "nodeid": 121, "leaf": -0.168183729 },
                { "nodeid": 122, "leaf": -0.140838727 }
              ]}
            ]}
          ]},
          { "nodeid": 16, "depth": 4, "split": 30, "split_condition": 0.283350438, "yes": 33, "no": 34, "missing": 33, "children": [
            { "nodeid": 33, "depth": 5, "split": 6, "split_condition": -0.452571899, "yes": 65, "no": 66, "missing": 65, "children": [
              { "nodeid": 65, "depth": 6, "split": 7, "split_condition": 0.288392067, "yes": 123, "no": 124, "missing": 123, "children": [
                { "nodeid": 123, "leaf": 0.0787410662 },
                { "nodeid": 124, "depth": 7, "split": 12, "split_condition": 0.11859338, "yes": 211, "no": 212, "missing": 211, "children": [
                  { "nodeid": 211, "leaf": 0.165366575 },
                  { "nodeid": 212, "leaf": 0.124411583 }
                ]}
              ]},
              { "nodeid": 66, "leaf": -0.0104925074 }
            ]},
            { "nodeid": 34, "depth": 5, "split": 27, "split_condition": -0.821262479, "yes": 67, "no": 68, "missing": 67, "children": [
              { "nodeid": 67, "depth": 6, "split": 25, "split_condition": -0.690505683, "yes": 125, "no": 126, "missing": 125, "children": [
                { "nodeid": 125, "leaf": -0.129025578 },
                { "nodeid": 126, "leaf": 0.0900385901 }
              ]},
              { "nodeid": 68, "depth": 6, "split": 10, "split_condition": 1.2144568, "yes": 127, "no": 128, "missing": 127, "children": [
                { "nodeid": 127, "depth": 7, "split": 12, "split_condition": 0.226326659, "yes": 213, "no": 214, "missing": 213, "children": [
                  { "nodeid": 213, "depth": 8, "split": 7, "split_condition": -0.0458340496, "yes": 307, "no": 308, "missing": 307, "children": [
                    { "nodeid": 307, "leaf": -0.174670532 },
                    { "nodeid": 308, "leaf": -0.0392753147 }
                  ]},
                  { "nodeid": 214, "depth": 8, "split": 7, "split_condition": 1.29406762, "yes": 309, "no": 310, "missing": 309, "children": [
                    { "nodeid": 309, "leaf": -0.169368669 },
                    { "nodeid": 310, "leaf": -0.151203319 }
                  ]}
                ]},
                { "nodeid": 128, "leaf": -0.0761790201 }
              ]}
            ]}
          ]}
        ]},
        { "nodeid": 8, "depth": 3, "split": 13, "split_condition": -1.17617059, "yes": 17, "no": 18, "missing": 17, "children": [
          { "nodeid": 17, "depth": 4, "split": 31, "split_condition": 0.938257933, "yes": 35, "no": 36, "missing": 35, "children": [
            { "nodeid": 35, "depth": 5, "split": 13, "split_condition": -1.32059097, "yes": 69, "no": 70, "missing": 69, "children": [
              { "nodeid": 69, "leaf": -0.168058977 },
              { "nodeid": 70, "depth": 6, "split": 7, "split_condition": -0.866671741, "yes": 129, "no": 130, "missing": 129, "children": [
                { "nodeid": 129, "leaf": -0.169588611 },
                { "nodeid": 130, "depth": 7, "split": 36, "split_condition": 0.473545879, "yes": 215, "no": 216, "missing": 215, "children": [
                  { "nodeid": 215, "leaf": 0.052374687 },
                  { "nodeid": 216, "leaf": -0.167829797 }
                ]}
              ]}
            ]},
            { "nodeid": 36, "leaf": -0.0010422091 }
          ]},
          { "nodeid": 18, "depth": 4, "split": 7, "split_condition": -0.901293159, "yes": 37, "no": 38, "missing": 37, "children": [
            { "nodeid": 37, "leaf": -0.170474753 },
            { "nodeid": 38, "depth": 5, "split": 27, "split_condition": 0.167400435, "yes": 71, "no": 72, "missing": 71, "children": [
              { "nodeid": 71, "depth": 6, "split": 18, "split_condition": 0.48173517, "yes": 131, "no": 132, "missing": 131, "children": [
                { "nodeid": 131, "depth": 7, "split": 1, "split_condition": -0.630399168, "yes": 217, "no": 218, "missing": 217, "children": [
                  { "nodeid": 217, "leaf": 0.02004507 },
                  { "nodeid": 218, "depth": 8, "split": 27, "split_condition": -0.623529911, "yes": 311, "no": 312, "missing": 311, "children": [
                    { "nodeid": 311, "leaf": 0.157340139 },
                    { "nodeid": 312, "leaf": 0.103576444 }
                  ]}
                ]},
                { "nodeid": 132, "leaf": -0.0880005285 }
              ]},
              { "nodeid": 72, "depth": 6, "split": 0, "split_condition": -0.0569571778, "yes": 133, "no": 134, "missing": 133, "children": [
                { "nodeid": 133, "depth": 7, "split": 7, "split_condition": 0.616227686, "yes": 219, "no": 220, "missing": 219, "children": [
                  { "nodeid": 219, "depth": 8, "split": 16, "split_condition": -0.374070734, "yes": 313, "no": 314, "missing": 313, "children": [
                    { "nodeid": 313, "leaf": -0.144483581 },
                    { "nodeid": 314, "leaf": -0.177180022 }
                  ]},
                  { "nodeid": 220, "leaf": -0.0401531421 }
                ]},
                { "nodeid": 134, "depth": 7, "split": 1, "split_condition": -0.267162681, "yes": 221, "no": 222, "missing": 221, "children": [
                  { "nodeid": 221, "leaf": -0.0323195532 },
                  { "nodeid": 222, "leaf": 0.114041366 }
                ]}
              ]}
            ]}
          ]}
        ]}
      ]},
      { "nodeid": 4, "depth": 2, "split": 12, "split_condition": 0.764993012, "yes": 9, "no": 10, "missing": 9, "children": [
        { "nodeid": 9, "depth": 3, "split": 31, "split_condition": -0.17711477, "yes": 19, "no": 20, "missing": 19, "children": [
          { "nodeid": 19, "depth": 4, "split": 34, "split_condition": -0.241899401, "yes": 39, "no": 40, "missing": 39, "children": [
            { "nodeid": 39, "depth": 5, "split": 24, "split_condition": -0.144532725, "yes": 73, "no": 74, "missing": 73, "children": [
              { "nodeid": 73, "depth": 6, "split": 26, "split_condition": 0.671978831, "yes": 135, "no": 136, "missing": 135, "children": [
                { "nodeid": 135, "leaf": 0.115926437 },
                { "nodeid": 136, "leaf": 0.164350495 }
              ]},
              { "nodeid": 74, "depth": 6, "split": 10, "split_condition": 0.593306541, "yes": 137, "no": 138, "missing": 137, "children": [
                { "nodeid": 137, "depth": 7, "split": 27, "split_condition": -1.01899505, "yes": 223, "no": 224, "missing": 223, "children": [
                  { "nodeid": 223, "depth": 8, "split": 7, "split_condition": -0.728469014, "yes": 315, "no": 316, "missing": 315, "children": [
                    { "nodeid": 315, "leaf": -0.150572568 },
                    { "nodeid": 316, "leaf": 0.0430849008 }
                  ]},
                  { "nodeid": 224, "depth": 8, "split": 25, "split_condition": 1.36008, "yes": 317, "no": 318, "missing": 317, "children": [
                    { "nodeid": 317, "leaf": -0.166066736 },
                    { "nodeid": 318, "leaf": -0.0855426341 }
                  ]}
                ]},
                { "nodeid": 138, "leaf": 0.0155550707 }
              ]}
            ]},
            { "nodeid": 40, "depth": 5, "split": 0, "split_condition": 0.373647273, "yes": 75, "no": 76, "missing": 75, "children": [
              { "nodeid": 75, "depth": 6, "split": 34, "split_condition": 0.0283784606, "yes": 139, "no": 140, "missing": 139, "children": [
                { "nodeid": 139, "leaf": 0.0725615472 },
                { "nodeid": 140, "depth": 7, "split": 27, "split_condition": -0.228064746, "yes": 225, "no": 226, "missing": 225, "children": [
                  { "nodeid": 225, "depth": 8, "split": 13, "split_condition": -0.736087918, "yes": 319, "no": 320, "missing": 319, "children": [
                    { "nodeid": 319, "leaf": 0.137403175 },
                    { "nodeid": 320, "leaf": 0.169384345 }
                  ]},
                  { "nodeid": 226, "leaf": 0.132085294 }
                ]}
              ]},
              { "nodeid": 76, "leaf": -0.0734075755 }
            ]}
          ]},
          { "nodeid": 20, "depth": 4, "split": 12, "split_condition": 0.549526453, "yes": 41, "no": 42, "missing": 41, "children": [
            { "nodeid": 41, "depth": 5, "split": 7, "split_condition": 0.679130316, "yes": 77, "no": 78, "missing": 77, "children": [
              { "nodeid": 77, "depth": 6, "split": 27, "split_condition": -0.425797343, "yes": 141, "no": 142, "missing": 141, "children": [
                { "nodeid": 141, "depth": 7, "split": 0, "split_condition": -0.344026804, "yes": 227, "no": 228, "missing": 227, "children": [
                  { "nodeid": 227, "depth": 8, "split": 9, "split_condition": -0.712766469, "yes": 321, "no": 322, "missing": 321, "children": [
                    { "nodeid": 321, "leaf": 0.164072439 },
                    { "nodeid": 322, "leaf": -0.0435554422 }
                  ]},
                  { "nodeid": 228, "depth": 8, "split": 35, "split_condition": -0.888121724, "yes": 323, "no": 324, "missing": 323, "children": [
                    { "nodeid": 323, "leaf": 0.130413026 },
                    { "nodeid": 324, "leaf": 0.165229157 }
                  ]}
                ]},
                { "nodeid": 142, "depth": 7, "split": 34, "split_condition": -0.140253782, "yes": 229, "no": 230, "missing": 229, "children": [
                  { "nodeid": 229, "leaf": -0.142437339 },
                  { "nodeid": 230, "leaf": 0.093567811 }
                ]}
              ]},
              { "nodeid": 78, "depth": 6, "split": 7, "split_condition": 1.00815248, "yes": 143, "no": 144, "missing": 143, "children": [
                { "nodeid": 143, "depth": 7, "split": 12, "split_condition": 0.11859338, "yes": 231, "no": 232, "missing": 231, "children": [
                  { "nodeid": 231, "leaf": 0.163215593 },
                  { "nodeid": 232, "leaf": 0.0787914246 }
                ]},
                { "nodeid": 144, "leaf": 0.165150866 }
              ]}
            ]},
            { "nodeid": 42, "depth": 5, "split": 10, "split_condition": 1.00157297, "yes": 79, "no": 80, "missing": 79, "children": [
              { "nodeid": 79, "depth": 6, "split": 22, "split_condition": -0.513019323, "yes": 145, "no": 146, "missing": 145, "children": [
                { "nodeid": 145, "leaf": -0.166321546 },
                { "nodeid": 146, "leaf": -0.0117626367 }
              ]},
              { "nodeid": 80, "depth": 6, "split": 32, "split_condition": 0.0881917477, "yes": 147, "no": 148, "missing": 147, "children": [
                { "nodeid": 147, "leaf": 0.103028037 },
                { "nodeid": 148, "leaf": 0.157691449 }
              ]}
            ]}
          ]}
        ]},
        { "nodeid": 10, "depth": 3, "split": 34, "split_condition": 0.297765613, "yes": 21, "no": 22, "missing": 21, "children": [
          { "nodeid": 21, "depth": 4, "split": 7, "split_condition": 2.11201477, "yes": 43, "no": 44, "missing": 43, "children": [
            { "nodeid": 43, "depth": 5, "split": 12, "split_condition": 0.872726321, "yes": 81, "no": 82, "missing": 81, "children": [
              { "nodeid": 81, "depth": 6, "split": 7, "split_condition": 0.789937019, "yes": 149, "no": 150, "missing": 149, "children": [
                { "nodeid": 149, "leaf": -0.167370066 },
                { "nodeid": 150, "leaf": -0.0841622055 }
              ]},
              { "nodeid": 82, "depth": 6, "split": 25, "split_condition": 1.9222548, "yes": 151, "no": 152, "missing": 151, "children": [
                { "nodeid": 151, "leaf": -0.168565825 },
                { "nodeid": 152, "leaf": -0.145030543 }
              ]}
            ]},
            { "nodeid": 44, "depth": 5, "split": 12, "split_condition": 1.19592607, "yes": 83, "no": 84, "missing": 83, "children": [
              { "nodeid": 83, "leaf": 0.133401379 },
              { "nodeid": 84, "leaf": -0.167521566 }
            ]}
          ]},
          { "nodeid": 22, "leaf": 0.0543674529 }
        ]}
      ]}
    ]},
    { "nodeid": 2, "depth": 1, "split": 34, "split_condition": -0.45656848, "yes": 5, "no": 6, "missing": 5, "children": [
      { "nodeid": 5, "depth": 2, "split": 12, "split_condition": 0.549526453, "yes": 11, "no": 12, "missing": 11, "children": [
        { "nodeid": 11, "depth": 3, "split": 10, "split_condition": 0.174188524, "yes": 23, "no": 24, "missing": 23, "children": [
          { "nodeid": 23, "depth": 4, "split": 1, "split_condition": 0.0774671361, "yes": 45, "no": 46, "missing": 45, "children": [
            { "nodeid": 45, "depth": 5, "split": 29, "split_condition": 0.0360255018, "yes": 85, "no": 86, "missing": 85, "children": [
              { "nodeid": 85, "depth": 6, "split": 7, "split_condition": -1.06766737, "yes": 153, "no": 154, "missing": 153, "children": [
                { "nodeid": 153, "leaf": -0.164402395 },
                { "nodeid": 154, "depth": 7, "split": 27, "split_condition": -1.01899505, "yes": 233, "no": 234, "missing": 233, "children": [
                  { "nodeid": 233, "depth": 8, "split": 7, "split_condition": -0.616863847, "yes": 325, "no": 326, "missing": 325, "children": [
                    { "nodeid": 325, "leaf": 0.11603111 },
                    { "nodeid": 326, "leaf": 0.157186329 }
                  ]},
                  { "nodeid": 234, "leaf": 0.0645211563 }
                ]}
              ]},
              { "nodeid": 86, "depth": 6, "split": 12, "split_condition": -0.312339723, "yes": 155, "no": 156, "missing": 155, "children": [
                { "nodeid": 155, "depth": 7, "split": 7, "split_condition": -0.336397767, "yes": 235, "no": 236, "missing": 235, "children": [
                  { "nodeid": 235, "depth": 8, "split": 10, "split_condition": -0.856815577, "yes": 327, "no": 328, "missing": 327, "children": [
