-0.0
[
  { "nodeid": 0, "depth": 0, "split": 67, "split_condition": 0.149018615, "yes": 1, "no": 2, "missing": 2, "children": [
    { "nodeid": 1, "depth": 1, "split": 67, "split_condition": 0.117646061, "yes": 3, "no": 4, "missing": 4, "children": [
      { "nodeid": 3, "depth": 2, "split": 66, "split_condition": 0.258822531, "yes": 7, "no": 8, "missing": 8, "children": [
        { "nodeid": 7, "depth": 3, "split": 67, "split_condition": 0.0980382189, "yes": 15, "no": 16, "missing": 16, "children": [
          { "nodeid": 15, "depth": 4, "split": 68, "split_condition": 0.266665667, "yes": 31, "no": 32, "missing": 32, "children": [
            { "nodeid": 31, "depth": 5, "split": 66, "split_condition": 0.180391163, "yes": 63, "no": 64, "missing": 64, "children": [
              { "nodeid": 63, "depth": 6, "split": 69, "split_condition": 0.23529312, "yes": 127, "no": 128, "missing": 128, "children": [
                { "nodeid": 127, "depth": 7, "split": 65, "split_condition": 0.262744099, "yes": 255, "no": 256, "missing": 256, "children": [
                  { "nodeid": 255, "leaf": -0.59588033 },
                  { "nodeid": 256, "leaf": -0.549230516 }
                ]},
                { "nodeid": 128, "depth": 7, "split": 54, "split_condition": 0.999998987, "yes": 257, "no": 258, "missing": 258, "children": [
                  { "nodeid": 257, "leaf": -0.58536464 },
                  { "nodeid": 258, "leaf": -0.506403208 }
                ]}
              ]},
              { "nodeid": 64, "depth": 6, "split": 51, "split_condition": 0.999998987, "yes": 129, "no": 130, "missing": 130, "children": [
                { "nodeid": 129, "depth": 7, "split": 65, "split_condition": 0.290195078, "yes": 259, "no": 260, "missing": 260, "children": [
                  { "nodeid": 259, "leaf": -0.585801899 },
                  { "nodeid": 260, "leaf": -0.522907257 }
                ]},
                { "nodeid": 130, "depth": 7, "split": 20, "split_condition": 0.999998987, "yes": 261, "no": 262, "missing": 262, "children": [
                  { "nodeid": 261, "leaf": -0.50167793 },
                  { "nodeid": 262, "leaf": -0.286073744 }
                ]}
              ]}
            ]},
            { "nodeid": 32, "depth": 5, "split": 53, "split_condition": 0.999998987, "yes": 65, "no": 66, "missing": 66, "children": [
              { "nodeid": 65, "depth": 6, "split": 69, "split_condition": 0.294116646, "yes": 131, "no": 132, "missing": 132, "children": [
                { "nodeid": 131, "depth": 7, "split": 67, "split_condition": 0.0627441034, "yes": 263, "no": 264, "missing": 264, "children": [
                  { "nodeid": 263, "leaf": -0.587725937 },
                  { "nodeid": 264, "leaf": -0.564120173 }
                ]},
                { "nodeid": 132, "depth": 7, "split": 54, "split_condition": 0.999998987, "yes": 265, "no": 266, "missing": 266, "children": [
                  { "nodeid": 265, "leaf": -0.5586586 },
                  { "nodeid": 266, "leaf": -0.380653352 }
                ]}
              ]},
              { "nodeid": 66, "depth": 6, "split": 21, "split_condition": 0.999998987, "yes": 133, "no": 134, "missing": 134, "children": [
                { "nodeid": 133, "depth": 7, "split": 67, "split_condition": 0.0666656718, "yes": 267, "no": 268, "missing": 268, "children": [
                  { "nodeid": 267, "leaf": -0.518225968 },
                  { "nodeid": 268, "leaf": -0.369389683 }
                ]},
                { "nodeid": 134, "depth": 7, "split": 67, "split_condition": 0.0588225313, "yes": 269, "no": 270, "missing": 270, "children": [
                  { "nodeid": 269, "leaf": -0.397255838 },
                  { "nodeid": 270, "leaf": -0.0230787043 }
                ]}
              ]}
            ]}
          ]},
          { "nodeid": 16, "depth": 4, "split": 21, "split_condition": 0.999998987, "yes": 33, "no": 34, "missing": 34, "children": [
            { "nodeid": 33, "depth": 5, "split": 66, "split_condition": 0.192155868, "yes": 67, "no": 68, "missing": 68, "children": [
              { "nodeid": 67, "depth": 6, "split": 68, "split_condition": 0.266665667, "yes": 135, "no": 136, "missing": 136, "children": [
                { "nodeid": 135, "depth": 7, "split": 69, "split_condition": 0.23529312, "yes": 271, "no": 272, "missing": 272, "children": [
                  { "nodeid": 271, "leaf": -0.568434238 },
                  { "nodeid": 272, "leaf": -0.467834383 }
                ]},
                { "nodeid": 136, "depth": 7, "split": 53, "split_condition": 0.999998987, "yes": 273, "no": 274, "missing": 274, "children": [
                  { "nodeid": 273, "leaf": -0.537577987 },
                  { "nodeid": 274, "leaf": -0.211862221 }
                ]}
              ]},
              { "nodeid": 68, "depth": 6, "split": 51, "split_condition": 0.999998987, "yes": 137, "no": 138, "missing": 138, "children": [
                { "nodeid": 137, "depth": 7, "split": 20, "split_condition": 0.999998987, "yes": 275, "no": 276, "missing": 276, "children": [
                  { "nodeid": 275, "leaf": -0.563571692 },
                  { "nodeid": 276, "leaf": -0.479379267 }
                ]},
                { "nodeid": 138, "depth": 7, "split": 20, "split_condition": 0.999998987, "yes": 277, "no": 278, "missing": 278, "children": [
                  { "nodeid": 277, "leaf": -0.333134085 },
                  { "nodeid": 278, "leaf": 0.0787252262 }
                ]}
              ]}
            ]},
            { "nodeid": 34, "depth": 5, "split": 23, "split_condition": 0.999998987, "yes": 69, "no": 70, "missing": 70, "children": [
              { "nodeid": 69, "depth": 6, "split": 83, "split_condition": 0.121567629, "yes": 139, "no": 140, "missing": 140, "children": [
                { "nodeid": 139, "depth": 7, "split": 68, "split_condition": 0.266665667, "yes": 279, "no": 280, "missing": 280, "children": [
                  { "nodeid": 279, "leaf": -0.440063357 },
                  { "nodeid": 280, "leaf": -0.0799515545 }
                ]},
                { "nodeid": 140, "depth": 7, "split": 68, "split_condition": 0.0470578261, "yes": 281, "no": 282, "missing": 282, "children": [
                  { "nodeid": 281, "leaf": -0.0944490209 },
                  { "nodeid": 282, "leaf": -0.343349189 }
                ]}
              ]},
              { "nodeid": 70, "depth": 6, "split": 35, "split_condition": 0.999998987, "yes": 141, "no": 142, "missing": 142, "children": [
                { "nodeid": 141, "depth": 7, "split": 49, "split_condition": 0.999998987, "yes": 283, "no": 284, "missing": 284, "children": [
                  { "nodeid": 283, "leaf": -0.57609129 },
                  { "nodeid": 284, "leaf": -0.491473466 }
                ]},
                { "nodeid": 142, "depth": 7, "split": 68, "split_condition": 0.0352931209, "yes": 285, "no": 286, "missing": 286, "children": [
                  { "nodeid": 285, "leaf": -0.28195703 },
                  { "nodeid": 286, "leaf": -0.462619424 }
                ]}
              ]}
            ]}
          ]}
        ]},
        { "nodeid": 8, "depth": 3, "split": 51, "split_condition": 0.999998987, "yes": 17, "no": 18, "missing": 18, "children": [
          { "nodeid": 17, "depth": 4, "split": 67, "split_condition": 0.0901950821, "yes": 35, "no": 36, "missing": 36, "children": [
            { "nodeid": 35, "depth": 5, "split": 21, "split_condition": 0.999998987, "yes": 71, "no": 72, "missing": 72, "children": [
              { "nodeid": 71, "depth": 6, "split": 61, "split_condition": 0.258822531, "yes": 143, "no": 144, "missing": 144, "children": [
                { "nodeid": 143, "depth": 7, "split": 67, "split_condition": 0.0705872402, "yes": 287, "no": 288, "missing": 288, "children": [
                  { "nodeid": 287, "leaf": -0.591158986 },
                  { "nodeid": 288, "leaf": -0.57365483 }
                ]},
                { "nodeid": 144, "depth": 7, "split": 77, "split_condition": 0.141175479, "yes": 289, "no": 290, "missing": 290, "children": [
                  { "nodeid": 289, "leaf": -0.550955296 },
                  { "nodeid": 290, "leaf": -0.446005315 }
                ]}
              ]},
              { "nodeid": 72, "depth": 6, "split": 53, "split_condition": 0.999998987, "yes": 145, "no": 146, "missing": 146, "children": [
                { "nodeid": 145, "depth": 7, "split": 61, "split_condition": 0.329410762, "yes": 291, "no": 292, "missing": 292, "children": [
                  { "nodeid": 291, "leaf": -0.565896273 },
                  { "nodeid": 292, "leaf": -0.485648125 }
                ]},
                { "nodeid": 146, "depth": 7, "split": 68, "split_condition": 0.349018604, "yes": 293, "no": 294, "missing": 294, "children": [
                  { "nodeid": 293, "leaf": -0.524528801 },
                  { "nodeid": 294, "leaf": -0.260801375 }
                ]}
              ]}
            ]},
            { "nodeid": 36, "depth": 5, "split": 6, "split_condition": 0.999998987, "yes": 73, "no": 74, "missing": 74, "children": [
              { "nodeid": 73, "depth": 6, "split": 84, "split_condition": 0.109802924, "yes": 147, "no": 148, "missing": 148, "children": [
                { "nodeid": 147, "depth": 7, "split": 65, "split_condition": 0.247057825, "yes": 295, "no": 296, "missing": 296, "children": [
                  { "nodeid": 295, "leaf": -0.519612134 },
                  { "nodeid": 296, "leaf": -0.440806627 }
                ]},
                { "nodeid": 148, "depth": 7, "split": 63, "split_condition": 0.0509793945, "yes": 297, "no": 298, "missing": 298, "children": [
                  { "nodeid": 297, "leaf": -0.341199607 },
                  { "nodeid": 298, "leaf": -0.45802927 }
                ]}
              ]},
              { "nodeid": 74, "depth": 6, "split": 20, "split_condition": 0.999998987, "yes": 149, "no": 150, "missing": 150, "children": [
                { "nodeid": 149, "depth": 7, "split": 61, "split_condition": 0.329410762, "yes": 299, "no": 300, "missing": 300, "children": [
                  { "nodeid": 299, "leaf": -0.575997055 },
                  { "nodeid": 300, "leaf": -0.495760351 }
                ]},
                { "nodeid": 150, "depth": 7, "split": 19, "split_condition": 0.999998987, "yes": 301, "no": 302, "missing": 302, "children": [
                  { "nodeid": 301, "leaf": -0.539570451 },
                  { "nodeid": 302, "leaf": -0.422163308 }
                ]}
              ]}
            ]}
          ]},
          { "nodeid": 18, "depth": 4, "split": 67, "split_condition": 0.0705872402, "yes": 37, "no": 38, "missing": 38, "children": [
            { "nodeid": 37, "depth": 5, "split": 20, "split_condition": 0.999998987, "yes": 75, "no": 76, "missing": 76, "children": [
              { "nodeid": 75, "depth": 6, "split": 34, "split_condition": 0.999998987, "yes": 151, "no": 152, "missing": 152, "children": [
                { "nodeid": 151, "depth": 7, "split": 35, "split_condition": 0.999998987, "yes": 303, "no": 304, "missing": 304, "children": [
                  { "nodeid": 303, "leaf": -0.432264894 },
                  { "nodeid": 304, "leaf": -0.279044092 }
                ]},
                { "nodeid": 152, "depth": 7, "split": 67, "split_condition": 0.0470578261, "yes": 305, "no": 306, "missing": 306, "children": [
                  { "nodeid": 305, "leaf": -0.316303045 },
                  { "nodeid": 306, "leaf": -0.0642487183 }
                ]}
              ]},
              { "nodeid": 76, "depth": 6, "split": 67, "split_condition": 0.0509793945, "yes": 153, "no": 154, "missing": 154, "children": [
                { "nodeid": 153, "depth": 7, "split": 64, "split_condition": 0.215685278, "yes": 307, "no": 308, "missing": 308, "children": [
                  { "nodeid": 307, "leaf": -0.299878478 },
                  { "nodeid": 308, "leaf": -0.00516891945 }
                ]},
                { "nodeid": 154, "depth": 7, "split": 4, "split_condition": 0.999998987, "yes": 309, "no": 310, "missing": 310, "children": [
                  { "nodeid": 309, "leaf": 0.0453235991 },
                  { "nodeid": 310, "leaf": -0.268254668 }
                ]}
              ]}
            ]},
            { "nodeid": 38, "depth": 5, "split": 50, "split_condition": 0.999998987, "yes": 77, "no": 78, "missing": 78, "children": [
              { "nodeid": 77, "depth": 6, "split": 5, "split_condition": 0.999998987, "yes": 155, "no": 156, "missing": 156, "children": [
                { "nodeid": 155, "depth": 7, "split": 4, "split_condition": 0.999998987, "yes": 311, "no": 312, "missing": 312, "children": [
                  { "nodeid": 311, "leaf": 0.321064293 },
                  { "nodeid": 312, "leaf": 0.0988871679 }
                ]},
                { "nodeid": 156, "depth": 7, "split": 68, "split_condition": 0.0745088086, "yes": 313, "no": 314, "missing": 314, "children": [
                  { "nodeid": 313, "leaf": 0.10046 },
                  { "nodeid": 314, "leaf": -0.259438872 }
                ]}
              ]},
              { "nodeid": 78, "depth": 6, "split": 65, "split_condition": 0.176469594, "yes": 157, "no": 158, "missing": 158, "children": [
                { "nodeid": 157, "depth": 7, "split": 4, "split_condition": 0.999998987, "yes": 315, "no": 316, "missing": 316, "children": [
                  { "nodeid": 315, "leaf": -0.298315912 },
                  { "nodeid": 316, "leaf": -0.510740399 }
                ]},
                { "nodeid": 158, "depth": 7, "split": 19, "split_condition": 0.999998987, "yes": 317, "no": 318, "missing": 318, "children": [
                  { "nodeid": 317, "leaf": -0.237188414 },
                  { "nodeid": 318, "leaf": 0.192198485 }
                ]}
              ]}
            ]}
          ]}
        ]}
      ]},
      { "nodeid": 4, "depth": 2, "split": 21, "split_condition": 0.999998987, "yes": 9, "no": 10, "missing": 10, "children": [
        { "nodeid": 9, "depth": 3, "split": 66, "split_condition": 0.258822531, "yes": 19, "no": 20, "missing": 20, "children": [
          { "nodeid": 19, "depth": 4, "split": 67, "split_condition": 0.133332342, "yes": 39, "no": 40, "missing": 40, "children": [
            { "nodeid": 39, "depth": 5, "split": 20, "split_condition": 0.999998987, "yes": 79, "no": 80, "missing": 80, "children": [
              { "nodeid": 79, "depth": 6, "split": 36, "split_condition": 0.999998987, "yes": 159, "no": 160, "missing": 160, "children": [
                { "nodeid": 159, "depth": 7, "split": 66, "split_condition": 0.180391163, "yes": 319, "no": 320, "missing": 320, "children": [
                  { "nodeid": 319, "leaf": -0.539666533 },
                  { "nodeid": 320, "leaf": -0.369541705 }
                ]},
                { "nodeid": 160, "depth": 7, "split": 5, "split_condition": 0.999998987, "yes": 321, "no": 322, "missing": 322, "children": [
                  { "nodeid": 321, "leaf": -0.352818936 },
                  { "nodeid": 322, "leaf": -0.514010251 }
                ]}
              ]},
              { "nodeid": 80, "depth": 6, "split": 4, "split_condition": 0.999998987, "yes": 161, "no": 162, "missing": 162, "children": [
                { "nodeid": 161, "depth": 7, "split": 34, "split_condition": 0.999998987, "yes": 323, "no": 324, "missing": 324, "children": [
                  { "nodeid": 323, "leaf": -0.199078307 },
                  { "nodeid": 324, "leaf": -0.463966638 }
                ]},
                { "nodeid": 162, "depth": 7, "split": 66, "split_condition": 0.192155868, "yes": 325, "no": 326, "missing": 326, "children": [
                  { "nodeid": 325, "leaf": -0.546803057 },
                  { "nodeid": 326, "leaf": -0.315301597 }
                ]}
              ]}
            ]},
            { "nodeid": 40, "depth": 5, "split": 36, "split_condition": 0.999998987, "yes": 81, "no": 82, "missing": 82, "children": [
              { "nodeid": 81, "depth": 6, "split": 20, "split_condition": 0.999998987, "yes": 163, "no": 164, "missing": 164, "children": [
                { "nodeid": 163, "depth": 7, "split": 78, "split_condition": 0.109802924, "yes": 327, "no": 328, "missing": 328, "children": [
                  { "nodeid": 327, "leaf": -0.475523889 },
                  { "nodeid": 328, "leaf": -0.33059442 }
                ]},
                { "nodeid": 164, "depth": 7, "split": 4, "split_condition": 0.999998987, "yes": 329, "no": 330, "missing": 330, "children": [
                  { "nodeid": 329, "leaf": -0.0109513942 },
                  { "nodeid": 330, "leaf": -0.447802186 }
                ]}
              ]},
              { "nodeid": 82, "depth": 6, "split": 5, "split_condition": 0.999998987, "yes": 165, "no": 166, "missing": 166, "children": [
                { "nodeid": 165, "depth": 7, "split": 4, "split_condition": 0.999998987, "yes": 331, "no": 332, "missing": 332, "children": [
                  { "nodeid": 331, "leaf": 0.0510656536 },
                  { "nodeid": 332, "leaf": -0.289225399 }
                ]},
                { "nodeid": 166, "depth": 7, "split": 48, "split_condition": 0.999998987, "yes": 333, "no": 334, "missing": 334, "children": [
                  { "nodeid": 333, "leaf": -0.279947966 },
                  { "nodeid": 334, "leaf": -0.522081375 }
                ]}
              ]}
            ]}
          ]},
          { "nodeid": 20, "depth": 4, "split": 51, "split_condition": 0.999998987, "yes": 41, "no": 42, "missing": 42, "children": [
            { "nodeid": 41, "depth": 5, "split": 46, "split_condition": 0.999998987, "yes": 83, "no": 84, "missing": 84, "children": [
              { "nodeid": 83, "depth": 6, "split": 6, "split_condition": 0.999998987, "yes": 167, "no": 168, "missing": 168, "children": [
                { "nodeid": 167, "depth": 7, "split": 34, "split_condition": 0.999998987, "yes": 335, "no": 336, "missing": 336, "children": [
                  { "nodeid": 335, "leaf": -0.418521911 },
                  { "nodeid": 336, "leaf": -0.203273773 }
                ]},
                { "nodeid": 168, "depth": 7, "split": 20, "split_condition": 0.999998987, "yes": 337, "no": 338, "missing": 338, "children": [
                  { "nodeid": 337, "leaf": -0.541000485 },
                  { "nodeid": 338, "leaf": -0.39804247 }
                ]}
              ]},
              { "nodeid": 84, "depth": 6, "split": 63, "split_condition": 0.0470578261, "yes": 169, "no": 170, "missing": 170, "children": [
                { "nodeid": 169, "depth": 7, "split": 61, "split_condition": 0.145097047, "yes": 339, "no": 340, "missing": 340, "children": [
                  { "nodeid": 339, "leaf": -0.218495399 },
                  { "nodeid": 340, "leaf": 0.136131018 }
                ]},
                { "nodeid": 170, "depth": 7, "split": 78, "split_condition": 0.0784303769, "yes": 341, "no": 342, "missing": 342, "children": [
                  { "nodeid": 341, "leaf": -0.478559136 },
                  { "nodeid": 342, "leaf": -0.340609759 }
                ]}
              ]}
            ]},
            { "nodeid": 42, "depth": 5, "split": 50, "split_condition": 0.999998987, "yes": 85, "no": 86, "missing": 86, "children": [
              { "nodeid": 85, "depth": 6, "split": 68, "split_condition": 0.0901950821, "yes": 171, "no": 172, "missing": 172, "children": [
                { "nodeid": 171, "depth": 7, "split": 5, "split_condition": 0.999998987, "yes": 343, "no": 344, "missing": 344, "children": [
                  { "nodeid": 343, "leaf": 0.453180969 },
                  { "nodeid": 344, "leaf": 0.315361083 }
                ]},
                { "nodeid": 172, "depth": 7, "split": 5, "split_condition": 0.999998987, "yes": 345, "no": 346, "missing": 346, "children": [
                  { "nodeid": 345, "leaf": 0.286002219 },
                  { "nodeid": 346, "leaf": -0.034068834 }
                ]}
              ]},
              { "nodeid": 86, "depth": 6, "split": 68, "split_condition": 0.0745088086, "yes": 173, "no": 174, "missing": 174, "children": [
                { "nodeid": 173, "depth": 7, "split": 4, "split_condition": 0.999998987, "yes": 347, "no": 348, "missing": 348, "children": [
                  { "nodeid": 347, "leaf": 0.0792945251 },
                  { "nodeid": 348, "leaf": -0.24037157 }
                ]},
                { "nodeid": 174, "depth": 7, "split": 4, "split_condition": 0.999998987, "yes": 349, "no": 350, "missing": 350, "children": [
                  { "nodeid": 349, "leaf": -0.286563784 },
                  { "nodeid": 350, "leaf": -0.487508416 }
                ]}
              ]}
            ]}
          ]}
        ]},
        { "nodeid": 10, "depth": 3, "split": 23, "split_condition": 0.999998987, "yes": 21, "no": 22, "missing": 22, "children": [
          { "nodeid": 21, "depth": 4, "split": 83, "split_condition": 0.101959787, "yes": 43, "no": 44, "missing": 44, "children": [
            { "nodeid": 43, "depth": 5, "split": 67, "split_condition": 0.133332342, "yes": 87, "no": 88, "missing": 88, "children": [
              { "nodeid": 87, "depth": 6, "split": 80, "split_condition": 0.105881356, "yes": 175, "no": 176, "missing": 176, "children": [
                { "nodeid": 175, "depth": 7, "split": 48, "split_condition": 0.999998987, "yes": 351, "no": 352, "missing": 352, "children": [
                  { "nodeid": 351, "leaf": -0.192279562 },
                  { "nodeid": 352, "leaf": -0.426596195 }
                ]},
                { "nodeid": 176, "depth": 7, "split": 64, "split_condition": 0.215685278, "yes": 353, "no": 354, "missing": 354, "children": [
                  { "nodeid": 353, "leaf": -0.0949560627 },
                  { "nodeid": 354, "leaf": 0.306925714 }
                ]}
              ]},
              { "nodeid": 88, "depth": 6, "split": 48, "split_condition": 0.999998987, "yes": 177, "no": 178, "missing": 178, "children": [
                { "nodeid": 177, "depth": 7, "split": 68, "split_condition": 0.0627441034, "yes": 355, "no": 356, "missing": 356, "children": [
                  { "nodeid": 355, "leaf": 0.276676178 },
                  { "nodeid": 356, "leaf": 0.00237617362 }
                ]},
                { "nodeid": 178, "depth": 7, "split": 80, "split_condition": 0.109802924, "yes": 357, "no": 358, "missing": 358, "children": [
                  { "nodeid": 357, "leaf": -0.262344271 },
                  { "nodeid": 358, "leaf": 0.108750395 }
                ]}
              ]}
            ]},
            { "nodeid": 44, "depth": 5, "split": 68, "split_condition": 0.0627441034, "yes": 89, "no": 90, "missing": 90, "children": [
              { "nodeid": 89, "depth": 6, "split": 53, "split_condition": 0.999998987, "yes": 179, "no": 180, "missing": 180, "children": [
                { "nodeid": 179, "depth": 7, "split": 67, "split_condition": 0.133332342, "yes": 359, "no": 360, "missing": 360, "children": [
                  { "nodeid": 359, "leaf": 0.314605415 },
                  { "nodeid": 360, "leaf": 0.48401612 }
                ]},
                { "nodeid": 180, "depth": 7, "split": 67, "split_condition": 0.133332342, "yes": 361, "no": 362, "missing": 362, "children": [
                  { "nodeid": 361, "leaf": -0.0367915593 },
                  { "nodeid": 362, "leaf": 0.272718668 }
                ]}
              ]},
              { "nodeid": 90, "depth": 6, "split": 67, "split_condition": 0.133332342, "yes": 181, "no": 182, "missing": 182, "children": [
                { "nodeid": 181, "depth": 7, "split": 66, "split_condition": 0.0627441034, "yes": 363, "no": 364, "missing": 364, "children": [
                  { "nodeid": 363, "leaf": -0.00780501822 },
                  { "nodeid": 364, "leaf": -0.210044131 }
                ]},
                { "nodeid": 182, "depth": 7, "split": 66, "split_condition": 0.0705872402, "yes": 365, "no": 366, "missing": 366, "children": [
                  { "nodeid": 365, "leaf": 0.263447642 },
                  { "nodeid": 366, "leaf": 0.0283387769 }
                ]}
              ]}
            ]}
          ]},
          { "nodeid": 22, "depth": 4, "split": 49, "split_condition": 0.999998987, "yes": 45, "no": 46, "missing": 46, "children": [
            { "nodeid": 45, "depth": 5, "split": 35, "split_condition": 0.999998987, "yes": 91, "no": 92, "missing": 92, "children": [
              { "nodeid": 91, "depth": 6, "split": 65, "split_condition": 0.207842141, "yes": 183, "no": 184, "missing": 184, "children": [
                { "nodeid": 183, "depth": 7, "split": 69, "split_condition": 0.23529312, "yes": 367, "no": 368, "missing": 368, "children": [
                  { "nodeid": 367, "leaf": -0.510796607 },
                  { "nodeid": 368, "leaf": -0.260115951 }
                ]},
                { "nodeid": 184, "depth": 7, "split": 50, "split_condition": 0.999998987, "yes": 369, "no": 370, "missing": 370, "children": [
                  { "nodeid": 369, "leaf": -0.527160048 },
                  { "nodeid": 370, "leaf": 0.0676273331 }
                ]}
              ]},
              { "nodeid": 92, "depth": 6, "split": 68, "split_condition": 0.0549009629, "yes": 185, "no": 186, "missing": 186, "children": [
                { "nodeid": 185, "depth": 7, "split": 19, "split_condition": 0.999998987, "yes": 371, "no": 372, "missing": 372, "children": [
                  { "nodeid": 371, "leaf": 0.247755334 },
                  { "nodeid": 372, "leaf": -0.295221359 }
                ]},
                { "nodeid": 186, "depth": 7, "split": 67, "split_condition": 0.133332342, "yes": 373, "no": 374, "missing": 374, "children": [
                  { "nodeid": 373, "leaf": -0.352793753 },
                  { "nodeid": 374, "leaf": -0.0906816348 }
                ]}
              ]}
            ]},
            { "nodeid": 46, "depth": 5, "split": 64, "split_condition": 0.168626457, "yes": 93, "no": 94, "missing": 94, "children": [
              { "nodeid": 93, "depth": 6, "split": 68, "split_condition": 0.0627441034, "yes": 187, "no": 188, "missing": 188, "children": [
                { "nodeid": 187, "depth": 7, "split": 67, "split_condition": 0.133332342, "yes": 375, "no": 376, "missing": 376, "children": [
                  { "nodeid": 375, "leaf": -0.208654284 },
                  { "nodeid": 376, "leaf": 0.135118872 }
                ]},
                { "nodeid": 188, "depth": 7, "split": 67, "split_condition": 0.133332342, "yes": 377, "no": 378, "missing": 378, "children": [
                  { "nodeid": 377, "leaf": -0.44603166 },
                  { "nodeid": 378, "leaf": -0.256557584 }
                ]}
              ]},
              { "nodeid": 94, "depth": 6, "split": 68, "split_condition": 0.0862735137, "yes": 189, "no": 190, "missing": 190, "children": [
                { "nodeid": 189, "depth": 7, "split": 67, "split_condition": 0.133332342, "yes": 379, "no": 380, "missing": 380, "children": [
                  { "nodeid": 379, "leaf": 0.266267449 },
                  { "nodeid": 380, "leaf": 0.462677896 }
                ]},
                { "nodeid": 190, "depth": 7, "split": 66, "split_condition": 0.0627441034, "yes": 381, "no": 382, "missing": 382, "children": [
                  { "nodeid": 381, "leaf": 0.151214838 },
                  { "nodeid": 382, "leaf": -0.216479167 }
                ]}
              ]}
            ]}
          ]}
        ]}
      ]}
    ]},
    { "nodeid": 2, "depth": 1, "split": 67, "split_condition": 0.184312731, "yes": 5, "no": 6, "missing": 6, "children": [
      { "nodeid": 5, "depth": 2, "split": 21, "split_condition": 0.999998987, "yes": 11, "no": 12, "missing": 12, "children": [
        { "nodeid": 11, "depth": 3, "split": 48, "split_condition": 0.999998987, "yes": 23, "no": 24, "missing": 24, "children": [
          { "nodeid": 23, "depth": 4, "split": 51, "split_condition": 0.999998987, "yes": 47, "no": 48, "missing": 48, "children": [
            { "nodeid": 47, "depth": 5, "split": 68, "split_condition": 0.0745088086, "yes": 95, "no": 96, "missing": 96, "children": [
              { "nodeid": 95, "depth": 6, "split": 4, "split_condition": 0.999998987, "yes": 191, "no": 192, "missing": 192, "children": [
                { "nodeid": 191, "depth": 7, "split": 5, "split_condition": 0.999998987, "yes": 383, "no": 384, "missing": 384, "children": [
                  { "nodeid": 383, "leaf": 0.463414818 },
                  { "nodeid": 384, "leaf": 0.231474265 }
                ]},
                { "nodeid": 192, "depth": 7, "split": 63, "split_condition": 0.0627441034, "yes": 385, "no": 386, "missing": 386, "children": [
                  { "nodeid": 385, "leaf": 0.259735197 },
                  { "nodeid": 386, "leaf": -0.0513956025 }
                ]}
              ]},
              { "nodeid": 96, "depth": 6, "split": 20, "split_condition": 0.999998987, "yes": 193, "no": 194, "missing": 194, "children": [
                { "nodeid": 193, "depth": 7, "split": 6, "split_condition": 0.999998987, "yes": 387, "no": 388, "missing": 388, "children": [
                  { "nodeid": 387, "leaf": 0.119092979 },
                  { "nodeid": 388, "leaf": -0.198984444 }
                ]},
                { "nodeid": 194, "depth": 7, "split": 4, "split_condition": 0.999998987, "yes": 389, "no": 390, "missing": 390, "children": [
                  { "nodeid": 389, "leaf": 0.387500286 },
                  { "nodeid": 390, "leaf": -0.105015688 }
                ]}
              ]}
            ]},
            { "nodeid": 48, "depth": 5, "split": 66, "split_condition": 0.223528415, "yes": 97, "no": 98, "missing": 98, "children": [
              { "nodeid": 97, "depth": 6, "split": 63, "split_condition": 0.0627441034, "yes": 195, "no": 196, "missing": 196, "children": [
                { "nodeid": 195, "depth": 7, "split": 67, "split_condition": 0.168626457, "yes": 391, "no": 392, "missing": 392, "children": [
                  { "nodeid": 391, "leaf": -0.161537871 },
                  { "nodeid": 392, "leaf": 0.0500821508 }
                ]},
                { "nodeid": 196, "depth": 7, "split": 4, "split_condition": 0.999998987, "yes": 393, "no": 394, "missing": 394, "children": [
                  { "nodeid": 393, "leaf": -0.240420982 },
                  { "nodeid": 394, "leaf": -0.412125826 }
                ]}
              ]},
              { "nodeid": 98, "depth": 6, "split": 50, "split_condition": 0.999998987, "yes": 197, "no": 198, "missing": 198, "children": [
                { "nodeid": 197, "depth": 7, "split": 68, "split_condition": 0.0823519453, "yes": 395, "no": 396, "missing": 396, "children": [
                  { "nodeid": 395, "leaf": 0.464545071 },
                  { "nodeid": 396, "leaf": 0.249278262 }
                ]},
                { "nodeid": 198, "depth": 7, "split": 68, "split_condition": 0.0705872402, "yes": 397, "no": 398, "missing": 398, "children": [
                  { "nodeid": 397, "leaf": 0.140763387 },
                  { "nodeid": 398, "leaf": -0.190929219 }
                ]}
              ]}
            ]}
          ]},
          { "nodeid": 24, "depth": 4, "split": 4, "split_condition": 0.999998987, "yes": 49, "no": 50, "missing": 50, "children": [
            { "nodeid": 49, "depth": 5, "split": 5, "split_condition": 0.999998987, "yes": 99, "no": 100, "missing": 100, "children": [
              { "nodeid": 99, "depth": 6, "split": 63, "split_condition": 0.192155868, "yes": 199, "no": 200, "missing": 200, "children": [
                { "nodeid": 199, "depth": 7, "split": 36, "split_condition": 0.999998987, "yes": 399, "no": 400, "missing": 400, "children": [
                  { "nodeid": 399, "leaf": -0.0850498751 },
                  { "nodeid": 400, "leaf": 0.203568548 }
                ]},
                { "nodeid": 200, "depth": 7, "split": 64, "split_condition": 0.0745088086, "yes": 401, "no": 402, "missing": 402, "children": [
                  { "nodeid": 401, "leaf": 0.453778237 },
                  { "nodeid": 402, "leaf": 0.210082918 }
                ]}
              ]},
              { "nodeid": 100, "depth": 6, "split": 46, "split_condition": 0.999998987, "yes": 201, "no": 202, "missing": 202, "children": [
                { "nodeid": 201, "depth": 7, "split": 16, "split_condition": 0.999998987, "yes": 403, "no": 404, "missing": 404, "children": [
                  { "nodeid": 403, "leaf": -0.494952232 },
                  { "nodeid": 404, "leaf": -0.263350517 }
                ]},
                { "nodeid": 202, "depth": 7, "split": 47, "split_condition": 0.999998987, "yes": 405, "no": 406, "missing": 406, "children": [
                  { "nodeid": 405, "leaf": -0.385374725 },
                  { "nodeid": 406, "leaf": 0.133780748 }
                ]}
              ]}
            ]},
            { "nodeid": 50, "depth": 5, "split": 47, "split_condition": 0.999998987, "yes": 101, "no": 102, "missing": 102, "children": [
              { "nodeid": 101, "depth": 6, "split": 17, "split_condition": 0.999998987, "yes": 203, "no": 204, "missing": 204, "children": [
                { "nodeid": 203, "depth": 7, "split": 16, "split_condition": 0.999998987, "yes": 407, "no": 408, "missing": 408, "children": [
                  { "nodeid": 407, "leaf": -0.549970031 },
                  { "nodeid": 408, "leaf": -0.366523683 }
                ]},
                { "nodeid": 204, "depth": 7, "split": 63, "split_condition": 0.180391163, "yes": 409, "no": 410, "missing": 410, "children": [
                  { "nodeid": 409, "leaf": -0.420960844 },
                  { "nodeid": 410, "leaf": 0.121377841 }
                ]}
              ]},
              { "nodeid": 102, "depth": 6, "split": 46, "split_condition": 0.999998987, "yes": 205, "no": 206, "missing": 206, "children": [
                { "nodeid": 205, "depth": 7, "split": 16, "split_condition": 0.999998987, "yes": 411, "no": 412, "missing": 412, "children": [
                  { "nodeid": 411, "leaf": -0.47588551 },
                  { "nodeid": 412, "leaf": -0.238866195 }
                ]},
                { "nodeid": 206, "depth": 7, "split": 63, "split_condition": 0.0784303769, "yes": 413, "no": 414, "missing": 414, "children": [
                  { "nodeid": 413, "leaf": 0.081309624 },
                  { "nodeid": 414, "leaf": -0.227756083 }
                ]}
              ]}
            ]}
          ]}
        ]},
        { "nodeid": 12, "depth": 3, "split": 23, "split_condition": 0.999998987, "yes": 25, "no": 26, "missing": 26, "children": [
          { "nodeid": 25, "depth": 4, "split": 83, "split_condition": 0.0901950821, "yes": 51, "no": 52, "missing": 52, "children": [
            { "nodeid": 51, "depth": 5, "split": 48, "split_condition": 0.999998987, "yes": 103, "no": 104, "missing": 104, "children": [
              { "nodeid": 103, "depth": 6, "split": 68, "split_condition": 0.0666656718, "yes": 207, "no": 208, "missing": 208, "children": [
                { "nodeid": 207, "depth": 7, "split": 4, "split_condition": 0.999998987, "yes": 415, "no": 416, "missing": 416, "children": [
                  { "nodeid": 415, "leaf": 0.492654771 },
                  { "nodeid": 416, "leaf": 0.366045684 }
                ]},
                { "nodeid": 208, "depth": 7, "split": 66, "split_condition": 0.0941166505, "yes": 417, "no": 418, "missing": 418, "children": [
                  { "nodeid": 417, "leaf": 0.326592743 },
                  { "nodeid": 418, "leaf": 0.0935096592 }
                ]}
              ]},
              { "nodeid": 104, "depth": 6, "split": 80, "split_condition": 0.0980382189, "yes": 209, "no": 210, "missing": 210, "children": [
                { "nodeid": 209, "depth": 7, "split": 63, "split_condition": 0.192155868, "yes": 419, "no": 420, "missing": 420, "children": [
                  { "nodeid": 419, "leaf": -0.0625459701 },
                  { "nodeid": 420, "leaf": 0.27686429 }
                ]},
                { "nodeid": 210, "depth": 7, "split": 63, "split_condition": 0.164704889, "yes": 421, "no": 422, "missing": 422, "children": [
                  { "nodeid": 421, "leaf": 0.235275701 },
                  { "nodeid": 422, "leaf": 0.492258728 }
                ]}
              ]}
            ]},
            { "nodeid": 52, "depth": 5, "split": 68, "split_condition": 0.0784303769, "yes": 105, "no": 106, "missing": 106, "children": [
              { "nodeid": 105, "depth": 6, "split": 53, "split_condition": 0.999998987, "yes": 211, "no": 212, "missing": 212, "children": [
                { "nodeid": 211, "depth": 7, "split": 66, "split_condition": 0.101959787, "yes": 423, "no": 424, "missing": 424, "children": [
                  { "nodeid": 423, "leaf": 0.556205034 },
                  { "nodeid": 424, "leaf": 0.492056131 }
                ]},
                { "nodeid": 212, "depth": 7, "split": 49, "split_condition": 0.999998987, "yes": 425, "no": 426, "missing": 426, "children": [
                  { "nodeid": 425, "leaf": 0.401534498 },
                  { "nodeid": 426, "leaf": 0.529586792 }
                ]}
              ]},
              { "nodeid": 106, "depth": 6, "split": 66, "split_condition": 0.0901950821, "yes": 213, "no": 214, "missing": 214, "children": [
                { "nodeid": 213, "depth": 7, "split": 84, "split_condition": 0.0941166505, "yes": 427, "no": 428, "missing": 428, "children": [
                  { "nodeid": 427, "leaf": 0.364659339 },
                  { "nodeid": 428, "leaf": 0.479058564 }
                ]},
                { "nodeid": 214, "depth": 7, "split": 60, "split_condition": 0.0705872402, "yes": 429, "no": 430, "missing": 430, "children": [
                  { "nodeid": 429, "leaf": 0.32471481 },
                  { "nodeid": 430, "leaf": 0.12626265 }
                ]}
              ]}
            ]}
          ]},
          { "nodeid": 26, "depth": 4, "split": 49, "split_condition": 0.999998987, "yes": 53, "no": 54, "missing": 54, "children": [
            { "nodeid": 53, "depth": 5, "split": 35, "split_condition": 0.999998987, "yes": 107, "no": 108, "missing": 108, "children": [
              { "nodeid": 107, "depth": 6, "split": 65, "split_condition": 0.176469594, "yes": 215, "no": 216, "missing": 216, "children": [
                { "nodeid": 215, "depth": 7, "split": 3, "split_condition": 0.999998987, "yes": 431, "no": 432, "missing": 432, "children": [
                  { "nodeid": 431, "leaf": -0.273831725 },
                  { "nodeid": 432, "leaf": 0.107542425 }
                ]},
                { "nodeid": 216, "depth": 7, "split": 50, "split_condition": 0.999998987, "yes": 433, "no": 434, "missing": 434, "children": [
                  { "nodeid": 433, "leaf": -0.347498208 },
                  { "nodeid": 434, "leaf": 0.435931504 }
                ]}
              ]},
              { "nodeid": 108, "depth": 6, "split": 68, "split_condition": 0.0901950821, "yes": 217, "no": 218, "missing": 218, "children": [
                { "nodeid": 217, "depth": 7, "split": 19, "split_condition": 0.999998987, "yes": 435, "no": 436, "missing": 436, "children": [
                  { "nodeid": 435, "leaf": 0.50850457 },
                  { "nodeid": 436, "leaf": 0.190676585 }
                ]},
                { "nodeid": 218, "depth": 7, "split": 64, "split_condition": 0.0941166505, "yes": 437, "no": 438, "missing": 438, "children": [
                  { "nodeid": 437, "leaf": 0.204785168 },
                  { "nodeid": 438, "leaf": -0.087808311 }
                ]}
              ]}
            ]},
            { "nodeid": 54, "depth": 5, "split": 68, "split_condition": 0.0901950821, "yes": 109, "no": 110, "missing": 110, "children": [
              { "nodeid": 109, "depth": 6, "split": 64, "split_condition": 0.156861752, "yes": 219, "no": 220, "missing": 220, "children": [
                { "nodeid": 219, "depth": 7, "split": 83, "split_condition": 0.141175479, "yes": 439, "no": 440, "missing": 440, "children": [
                  { "nodeid": 439, "leaf": 0.296919346 },
                  { "nodeid": 440, "leaf": 0.45507738 }
                ]},
                { "nodeid": 220, "depth": 7, "split": 66, "split_condition": 0.0980382189, "yes": 441, "no": 442, "missing": 442, "children": [
                  { "nodeid": 441, "leaf": 0.56008774 },
                  { "nodeid": 442, "leaf": 0.47589305 }
                ]}
              ]},
              { "nodeid": 110, "depth": 6, "split": 64, "split_condition": 0.196077436, "yes": 221, "no": 222, "missing": 222, "children": [
                { "nodeid": 221, "depth": 7, "split": 66, "split_condition": 0.0705872402, "yes": 443, "no": 444, "missing": 444, "children": [
                  { "nodeid": 443, "leaf": 0.153150007 },
                  { "nodeid": 444, "leaf": -0.0959036127 }
                ]},
                { "nodeid": 222, "depth": 7, "split": 66, "split_condition": 0.101959787, "yes": 445, "no": 446, "missing": 446, "children": [
                  { "nodeid": 445, "leaf": 0.456293851 },
                  { "nodeid": 446, "leaf": 0.143887699 }
                ]}
              ]}
            ]}
          ]}
        ]}
      ]},
      { "nodeid": 6, "depth": 2, "split": 67, "split_condition": 0.23529312, "yes": 13, "no": 14, "missing": 14, "children": [
        { "nodeid": 13, "depth": 3, "split": 51, "split_condition": 0.999998987, "yes": 27, "no": 28, "missing": 28, "children": [
          { "nodeid": 27, "depth": 4, "split": 48, "split_condition": 0.999998987, "yes": 55, "no": 56, "missing": 56, "children": [
            { "nodeid": 55, "depth": 5, "split": 68, "split_condition": 0.0980382189, "yes": 111, "no": 112, "missing": 112, "children": [
              { "nodeid": 111, "depth": 6, "split": 4, "split_condition": 0.999998987, "yes": 223, "no": 224, "missing": 224, "children": [
                { "nodeid": 223, "depth": 7, "split": 66, "split_condition": 0.133332342, "yes": 447, "no": 448, "missing": 448, "children": [
                  { "nodeid": 447, "leaf": 0.557824194 },
                  { "nodeid": 448, "leaf": 0.491046697 }
                ]},
                { "nodeid": 224, "depth": 7, "split": 63, "split_condition": 0.0862735137, "yes": 449, "no": 450, "missing": 450, "children": [
                  { "nodeid": 449, "leaf": 0.511429071 },
                  { "nodeid": 450, "leaf": 0.362569124 }
                ]}
              ]},
              { "nodeid": 112, "depth": 6, "split": 66, "split_condition": 0.125489205, "yes": 225, "no": 226, "missing": 226, "children": [
                { "nodeid": 225, "depth": 7, "split": 4, "split_condition": 0.999998987, "yes": 451, "no": 452, "missing": 452, "children": [
                  { "nodeid": 451, "leaf": 0.48334825 },
                  { "nodeid": 452, "leaf": 0.344402522 }
                ]},
                { "nodeid": 226, "depth": 7, "split": 63, "split_condition": 0.0941166505, "yes": 453, "no": 454, "missing": 454, "children": [
                  { "nodeid": 453, "leaf": 0.328619719 },
                  { "nodeid": 454, "leaf": 0.0644368902 }
                ]}
              ]}
            ]},
            { "nodeid": 56, "depth": 5, "split": 4, "split_condition": 0.999998987, "yes": 113, "no": 114, "missing": 114, "children": [
              { "nodeid": 113, "depth": 6, "split": 63, "split_condition": 0.180391163, "yes": 227, "no": 228, "missing": 228, "children": [
                { "nodeid": 227, "depth": 7, "split": 49, "split_condition": 0.999998987, "yes": 455, "no": 456, "missing": 456, "children": [
                  { "nodeid": 455, "leaf": 0.298567146 },
                  { "nodeid": 456, "leaf": 0.500577271 }
                ]},
                { "nodeid": 228, "depth": 7, "split": 66, "split_condition": 0.133332342, "yes": 457, "no": 458, "missing": 458, "children": [
                  { "nodeid": 457, "leaf": 0.554642737 },
                  { "nodeid": 458, "leaf": 0.387417138 }
                ]}
              ]},
              { "nodeid": 114, "depth": 6, "split": 6, "split_condition": 0.999998987, "yes": 229, "no": 230, "missing": 230, "children": [
                { "nodeid": 229, "depth": 7, "split": 21, "split_condition": 0.999998987, "yes": 459, "no": 460, "missing": 460, "children": [
                  { "nodeid": 459, "leaf": 0.112128392 },
                  { "nodeid": 460, "leaf": 0.386628717 }
                ]},
                { "nodeid": 230, "depth": 7, "split": 50, "split_condition": 0.999998987, "yes": 461, "no": 462, "missing": 462, "children": [
                  { "nodeid": 461, "leaf": 0.119300865 },
                  { "nodeid": 462, "leaf": -0.551503539 }
                ]}
              ]}
            ]}
          ]},
          { "nodeid": 28, "depth": 4, "split": 48, "split_condition": 0.999998987, "yes": 57, "no": 58, "missing": 58, "children": [
            { "nodeid": 57, "depth": 5, "split": 68, "split_condition": 0.0745088086, "yes": 115, "no": 116, "missing": 116, "children": [
              { "nodeid": 115, "depth": 6, "split": 66, "split_condition": 0.192155868, "yes": 231, "no": 232, "missing": 232, "children": [
                { "nodeid": 231, "depth": 7, "split": 31, "split_condition": 0.999998987, "yes": 463, "no": 464, "missing": 464, "children": [
                  { "nodeid": 463, "leaf": 0.365649045 },
                  { "nodeid": 464, "leaf": 0.140699893 }
                ]},
                { "nodeid": 232, "depth": 7, "split": 50, "split_condition": 0.999998987, "yes": 465, "no": 466, "missing": 466, "children": [
                  { "nodeid": 465, "leaf": 0.517656565 },
                  { "nodeid": 466, "leaf": 0.337197572 }
                ]}
              ]},
              { "nodeid": 116, "depth": 6, "split": 63, "split_condition": 0.0823519453, "yes": 233, "no": 234, "missing": 234, "children": [
                { "nodeid": 233, "depth": 7, "split": 66, "split_condition": 0.223528415, "yes": 467, "no": 468, "missing": 468, "children": [
                  { "nodeid": 467, "leaf": 0.150251836 },
                  { "nodeid": 468, "leaf": 0.412542135 }
                ]},
                { "nodeid": 234, "depth": 7, "split": 66, "split_condition": 0.258822531, "yes": 469, "no": 470, "missing": 470, "children": [
                  { "nodeid": 469, "leaf": -0.108893387 },
                  { "nodeid": 470, "leaf": 0.198940173 }
                ]}
              ]}
            ]},
            { "nodeid": 58, "depth": 5, "split": 80, "split_condition": 0.0745088086, "yes": 117, "no": 118, "missing": 118, "children": [
              { "nodeid": 117, "depth": 6, "split": 81, "split_condition": 0.0705872402, "yes": 235, "no": 236, "missing": 236, "children": [
                { "nodeid": 235, "depth": 7, "split": 66, "split_condition": 0.192155868, "yes": 471, "no": 472, "missing": 472, "children": [
                  { "nodeid": 471, "leaf": -0.304735035 },
                  { "nodeid": 472, "leaf": 0.12138427 }
                ]},
                { "nodeid": 236, "depth": 7, "split": 4, "split_condition": 0.999998987, "yes": 473, "no": 474, "missing": 474, "children": [
                  { "nodeid": 473, "leaf": 0.155818045 },
                  { "nodeid": 474, "leaf": -0.195519164 }
                ]}
              ]},
              { "nodeid": 118, "depth": 6, "split": 5, "split_condition": 0.999998987, "yes": 237, "no": 238, "missing": 238, "children": [
                { "nodeid": 237, "depth": 7, "split": 4, "split_condition": 0.999998987, "yes": 475, "no": 476, "missing": 476, "children": [
                  { "nodeid": 475, "leaf": 0.268675894 },
                  { "nodeid": 476, "leaf": -0.200808421 }
                ]},
                { "nodeid": 238, "depth": 7, "split": 66, "split_condition": 0.207842141, "yes": 477, "no": 478, "missing": 478, "children": [
                  { "nodeid": 477, "leaf": -0.232856452 },
                  { "nodeid": 478, "leaf": 0.269044131 }
                ]}
              ]}
            ]}
          ]}
        ]},
        { "nodeid": 14, "depth": 3, "split": 51, "split_condition": 0.999998987, "yes": 29, "no": 30, "missing": 30, "children": [
          { "nodeid": 29, "depth": 4, "split": 48, "split_condition": 0.999998987, "yes": 59, "no": 60, "missing": 60, "children": [
            { "nodeid": 59, "depth": 5, "split": 68, "split_condition": 0.133332342, "yes": 119, "no": 120, "missing": 120, "children": [
              { "nodeid": 119, "depth": 6, "split": 67, "split_condition": 0.270587236, "yes": 239, "no": 240, "missing": 240, "children": [
                { "nodeid": 239, "depth": 7, "split": 66, "split_condition": 0.192155868, "yes": 479, "no": 480, "missing": 480, "children": [
                  { "nodeid": 479, "leaf": 0.573370874 },
                  { "nodeid": 480, "leaf": 0.520427167 }
                ]},
                { "nodeid": 240, "depth": 7, "split": 66, "split_condition": 0.258822531, "yes": 481, "no": 482, "missing": 482, "children": [
                  { "nodeid": 481, "leaf": 0.587492943 },
                  { "nodeid": 482, "leaf": 0.572556913 }
                ]}
              ]},
              { "nodeid": 120, "depth": 6, "split": 67, "split_condition": 0.278430372, "yes": 241, "no": 242, "missing": 242, "children": [
                { "nodeid": 241, "depth": 7, "split": 66, "split_condition": 0.156861752, "yes": 483, "no": 484, "missing": 484, "children": [
                  { "nodeid": 483, "leaf": 0.535598218 },
                  { "nodeid": 484, "leaf": 0.381372958 }
                ]},
                { "nodeid": 242, "depth": 7, "split": 63, "split_condition": 0.156861752, "yes": 485, "no": 486, "missing": 486, "children": [
                  { "nodeid": 485, "leaf": 0.572008729 },
                  { "nodeid": 486, "leaf": 0.53564924 }
                ]}
              ]}
            ]},
            { "nodeid": 60, "depth": 5, "split": 83, "split_condition": 0.0705872402, "yes": 121, "no": 122, "missing": 122, "children": [
              { "nodeid": 121, "depth": 6, "split": 67, "split_condition": 0.282351941, "yes": 243, "no": 244, "missing": 244, "children": [
                { "nodeid": 243, "depth": 7, "split": 4, "split_condition": 0.999998987, "yes": 487, "no": 488, "missing": 488, "children": [
                  { "nodeid": 487, "leaf": 0.464446187 },
                  { "nodeid": 488, "leaf": 0.176566124 }
                ]},
                { "nodeid": 244, "depth": 7, "split": 50, "split_condition": 0.999998987, "yes": 489, "no": 490, "missing": 490, "children": [
                  { "nodeid": 489, "leaf": 0.545927703 },
                  { "nodeid": 490, "leaf": 0.460609734 }
                ]}
              ]},
              { "nodeid": 122, "depth": 6, "split": 67, "split_condition": 0.278430372, "yes": 245, "no": 246, "missing": 246, "children": [
                { "nodeid": 245, "depth": 7, "split": 4, "split_condition": 0.999998987, "yes": 491, "no": 492, "missing": 492, "children": [
                  { "nodeid": 491, "leaf": 0.548687756 },
                  { "nodeid": 492, "leaf": 0.438901395 }
                ]},
                { "nodeid": 246, "depth": 7, "split": 63, "split_condition": 0.192155868, "yes": 493, "no": 494, "missing": 494, "children": [
                  { "nodeid": 493, "leaf": 0.563527465 },
                  { "nodeid": 494, "leaf": 0.58617121 }
                ]}
              ]}
            ]}
          ]},
          { "nodeid": 30, "depth": 4, "split": 67, "split_condition": 0.278430372, "yes": 61, "no": 62, "missing": 62, "children": [
            { "nodeid": 61, "depth": 5, "split": 68, "split_condition": 0.0784303769, "yes": 123, "no": 124, "missing": 124, "children": [
              { "nodeid": 123, "depth": 6, "split": 48, "split_condition": 0.999998987, "yes": 247, "no": 248, "missing": 248, "children": [
                { "nodeid": 247, "depth": 7, "split": 53, "split_condition": 0.999998987, "yes": 495, "no": 496, "missing": 496, "children": [
                  { "nodeid": 495, "leaf": 0.527398467 },
                  { "nodeid": 496, "leaf": 0.394210041 }
                ]},
                { "nodeid": 248, "depth": 7, "split": 5, "split_condition": 0.999998987, "yes": 497, "no": 498, "missing": 498, "children": [
                  { "nodeid": 497, "leaf": 0.419176728 },
                  { "nodeid": 498, "leaf": 0.107048549 }
                ]}
              ]},
              { "nodeid": 124, "depth": 6, "split": 63, "split_condition": 0.0745088086, "yes": 249, "no": 250, "missing": 250, "children": [
                { "nodeid": 249, "depth": 7, "split": 48, "split_condition": 0.999998987, "yes": 499, "no": 500, "missing": 500, "children": [
                  { "nodeid": 499, "leaf": 0.430850834 },
                  { "nodeid": 500, "leaf": 0.169818312 }
                ]},
                { "nodeid": 250, "depth": 7, "split": 4, "split_condition": 0.999998987, "yes": 501, "no": 502, "missing": 502, "children": [
                  { "nodeid": 501, "leaf": 0.268234372 },
                  { "nodeid": 502, "leaf": 0.0117085464 }
                ]}
              ]}
            ]},
            { "nodeid": 62, "depth": 5, "split": 53, "split_condition": 0.999998987, "yes": 125, "no": 126, "missing": 126, "children": [
              { "nodeid": 125, "depth": 6, "split": 68, "split_condition": 0.192155868, "yes": 251, "no": 252, "missing": 252, "children": [
                { "nodeid": 251, "depth": 7, "split": 8, "split_condition": 0.999998987, "yes": 503, "no": 504, "missing": 504, "children": [
                  { "nodeid": 503, "leaf": 0.56819731 },
                  { "nodeid": 504, "leaf": 0.48327893 }
                ]},
                { "nodeid": 252, "depth": 7, "split": 67, "split_condition": 0.364704877, "yes": 505, "no": 506, "missing": 506, "children": [
                  { "nodeid": 505, "leaf": 0.361744821 },
                  { "nodeid": 506, "leaf": 0.50257796 }
                ]}
              ]},
              { "nodeid": 126, "depth": 6, "split": 84, "split_condition": 0.141175479, "yes": 253, "no": 254, "missing": 254, "children": [
                { "nodeid": 253, "depth": 7, "split": 45, "split_condition": 0.999998987, "yes": 507, "no": 508, "missing": 508, "children": [
                  { "nodeid": 507, "leaf": 0.417435169 },
                  { "nodeid": 508, "leaf": 0.280792385 }
                ]},
                { "nodeid": 254, "depth": 7, "split": 69, "split_condition": 0.0980382189, "yes": 509, "no": 510, "missing": 510, "children": [
                  { "nodeid": 509, "leaf": 0.519252419 },
                  { "nodeid": 510, "leaf": 0.420562297 }
                ]}
              ]}
            ]}
          ]}
        ]}
      ]}
    ]}
  ]},
  { "nodeid": 0, "depth": 0, "split": 67, "split_condition": 0.152940184, "yes": 1, "no": 2, "missing": 2, "children": [
    { "nodeid": 1, "depth": 1, "split": 67, "split_condition": 0.121567629, "yes": 3, "no": 4, "missing": 4, "children": [
      { "nodeid": 3, "depth": 2, "split": 66, "split_condition": 0.250979394, "yes": 7, "no": 8, "missing": 8, "children": [
        { "nodeid": 7, "depth": 3, "split": 67, "split_condition": 0.0980382189, "yes": 15, "no": 16, "missing": 16, "children": [
          { "nodeid": 15, "depth": 4, "split": 68, "split_condition": 0.215685278, "yes": 31, "no": 32, "missing": 32, "children": [
            { "nodeid": 31, "depth": 5, "split": 66, "split_condition": 0.168626457, "yes": 63, "no": 64, "missing": 64, "children": [
              { "nodeid": 63, "depth": 6, "split": 65, "split_condition": 0.262744099, "yes": 127, "no": 128, "missing": 128, "children": [
                { "nodeid": 127, "depth": 7, "split": 69, "split_condition": 0.262744099, "yes": 255, "no": 256, "missing": 256, "children": [
                  { "nodeid": 255, "leaf": -0.461030453 },
                  { "nodeid": 256, "leaf": -0.422789544 }
                ]},
                { "nodeid": 128, "depth": 7, "split": 50, "split_condition": 0.999998987, "yes": 257, "no": 258, "missing": 258, "children": [
                  { "nodeid": 257, "leaf": -0.458763301 },
                  { "nodeid": 258, "leaf": -0.355674416 }
                ]}
              ]},
              { "nodeid": 64, "depth": 6, "split": 51, "split_condition": 0.999998987, "yes": 129, "no": 130, "missing": 130, "children": [
                { "nodeid": 129, "depth": 7, "split": 65, "split_condition": 0.290195078, "yes": 259, "no": 260, "missing": 260, "children": [
                  { "nodeid": 259, "leaf": -0.452270538 },
                  { "nodeid": 260, "leaf": -0.397149235 }
                ]},
                { "nodeid": 130, "depth": 7, "split": 20, "split_condition": 0.999998987, "yes": 261, "no": 262, "missing": 262, "children": [
                  { "nodeid": 261, "leaf": -0.394954234 },
                  { "nodeid": 262, "leaf": -0.234732062 }
                ]}
              ]}
            ]},
            { "nodeid": 32, "depth": 5, "split": 53, "split_condition": 0.999998987, "yes": 65, "no": 66, "missing": 66, "children": [
              { "nodeid": 65, "depth": 6, "split": 69, "split_condition": 0.294116646, "yes": 131, "no": 132, "missing": 132, "children": [
                { "nodeid": 131, "depth": 7, "split": 67, "split_condition": 0.0666656718, "yes": 263, "no": 264, "missing": 264, "children": [
                  { "nodeid": 263, "leaf": -0.454678088 },
                  { "nodeid": 264, "leaf": -0.434309214 }
                ]},
                { "nodeid": 132, "depth": 7, "split": 54, "split_condition": 0.999998987, "yes": 265, "no": 266, "missing": 266, "children": [
                  { "nodeid": 265, "leaf": -0.426379383 },
                  { "nodeid": 266, "leaf": -0.275972903 }
                ]}
              ]},
              { "nodeid": 66, "depth": 6, "split": 21, "split_condition": 0.999998987, "yes": 133, "no": 134, "missing": 134, "children": [
                { "nodeid": 133, "depth": 7, "split": 67, "split_condition": 0.0745088086, "yes": 267, "no": 268, "missing": 268, "children": [
                  { "nodeid": 267, "leaf": -0.399564594 },
                  { "nodeid": 268, "leaf": -0.296946645 }
                ]},
                { "nodeid": 134, "depth": 7, "split": 67, "split_condition": 0.0509793945, "yes": 269, "no": 270, "missing": 270, "children": [
                  { "nodeid": 269, "leaf": -0.352912307 },
                  { "nodeid": 270, "leaf": -0.0888384655 }
                ]}
              ]}
            ]}
          ]},
          { "nodeid": 16, "depth": 4, "split": 21, "split_condition": 0.999998987, "yes": 33, "no": 34, "missing": 34, "children": [
            { "nodeid": 33, "depth": 5, "split": 66, "split_condition": 0.168626457, "yes": 67, "no": 68, "missing": 68, "children": [
              { "nodeid": 67, "depth": 6, "split": 68, "split_condition": 0.243136257, "yes": 135, "no": 136, "missing": 136, "children": [
                { "nodeid": 135, "depth": 7, "split": 65, "split_condition": 0.207842141, "yes": 271, "no": 272, "missing": 272, "children": [
                  { "nodeid": 271, "leaf": -0.433901787 },
                  { "nodeid": 272, "leaf": -0.3204934 }
                ]},
                { "nodeid": 136, "depth": 7, "split": 53, "split_condition": 0.999998987, "yes": 273, "no": 274, "missing": 274, "children": [
                  { "nodeid": 273, "leaf": -0.412440568 },
                  { "nodeid": 274, "leaf": -0.145654678 }
                ]}
              ]},
              { "nodeid": 68, "depth": 6, "split": 51, "split_condition": 0.999998987, "yes": 137, "no": 138, "missing": 138, "children": [
                { "nodeid": 137, "depth": 7, "split": 20, "split_condition": 0.999998987, "yes": 275, "no": 276, "missing": 276, "children": [
                  { "nodeid": 275, "leaf": -0.430969715 },
                  { "nodeid": 276, "leaf": -0.348765552 }
                ]},
                { "nodeid": 138, "depth": 7, "split": 20, "split_condition": 0.999998987, "yes": 277, "no": 278, "missing": 278, "children": [
                  { "nodeid": 277, "leaf": -0.287523299 },
                  { "nodeid": 278, "leaf": 0.0140926354 }
                ]}
              ]}
            ]},
            { "nodeid": 34, "depth": 5, "split": 23, "split_condition": 0.999998987, "yes": 69, "no": 70, "missing": 70, "children": [
              { "nodeid": 69, "depth": 6, "split": 67, "split_condition": 0.109802924, "yes": 139, "no": 140, "missing": 140, "children": [
                { "nodeid": 139, "depth": 7, "split": 64, "split_condition": 0.215685278, "yes": 279, "no": 280, "missing": 280, "children": [
                  { "nodeid": 279, "leaf": -0.350443363 },
                  { "nodeid": 280, "leaf": -0.106265038 }
                ]},
                { "nodeid": 140, "depth": 7, "split": 83, "split_condition": 0.133332342, "yes": 281, "no": 282, "missing": 282, "children": [
                  { "nodeid": 281, "leaf": -0.225858465 },
                  { "nodeid": 282, "leaf": -0.00605729455 }
                ]}
              ]},
              { "nodeid": 70, "depth": 6, "split": 35, "split_condition": 0.999998987, "yes": 141, "no": 142, "missing": 142, "children": [
                { "nodeid": 141, "depth": 7, "split": 64, "split_condition": 0.247057825, "yes": 283, "no": 284, "missing": 284, "children": [
                  { "nodeid": 283, "leaf": -0.431090593 },
                  { "nodeid": 284, "leaf": -0.226718217 }
                ]},
                { "nodeid": 142, "depth": 7, "split": 73, "split_condition": 0.0470578261, "yes": 285, "no": 286, "missing": 286, "children": [
                  { "nodeid": 285, "leaf": -0.212508127 },
                  { "nodeid": 286, "leaf": -0.352181107 }
                ]}
              ]}
            ]}
          ]}
        ]},
        { "nodeid": 8, "depth": 3, "split": 51, "split_condition": 0.999998987, "yes": 17, "no": 18, "missing": 18, "children": [
          { "nodeid": 17, "depth": 4, "split": 67, "split_condition": 0.0784303769, "yes": 35, "no": 36, "missing": 36, "children": [
            { "nodeid": 35, "depth": 5, "split": 21, "split_condition": 0.999998987, "yes": 71, "no": 72, "missing": 72, "children": [
              { "nodeid": 71, "depth": 6, "split": 61, "split_condition": 0.290195078, "yes": 143, "no": 144, "missing": 144, "children": [
                { "nodeid": 143, "depth": 7, "split": 70, "split_condition": 0.250979394, "yes": 287, "no": 288, "missing": 288, "children": [
                  { "nodeid": 287, "leaf": -0.45623219 },
                  { "nodeid": 288, "leaf": -0.422298372 }
                ]},
                { "nodeid": 144, "depth": 7, "split": 75, "split_condition": 0.125489205, "yes": 289, "no": 290, "missing": 290, "children": [
                  { "nodeid": 289, "leaf": -0.419209808 },
                  { "nodeid": 290, "leaf": -0.319489807 }
                ]}
              ]},
              { "nodeid": 72, "depth": 6, "split": 53, "split_condition": 0.999998987, "yes": 145, "no": 146, "missing": 146, "children": [
                { "nodeid": 145, "depth": 7, "split": 64, "split_condition": 0.298038214, "yes": 291, "no": 292, "missing": 292, "children": [
                  { "nodeid": 291, "leaf": -0.439267188 },
                  { "nodeid": 292, "leaf": -0.387148857 }
                ]},
                { "nodeid": 146, "depth": 7, "split": 67, "split_condition": 0.0588225313, "yes": 293, "no": 294, "missing": 294, "children": [
                  { "nodeid": 293, "leaf": -0.416226476 },
                  { "nodeid": 294, "leaf": -0.343776524 }
                ]}
              ]}
            ]},
            { "nodeid": 36, "depth": 5, "split": 6, "split_condition": 0.999998987, "yes": 73, "no": 74, "missing": 74, "children": [
              { "nodeid": 73, "depth": 6, "split": 65, "split_condition": 0.290195078, "yes": 147, "no": 148, "missing": 148, "children": [
                { "nodeid": 147, "depth": 7, "split": 46, "split_condition": 0.999998987, "yes": 295, "no": 296, "missing": 296, "children": [
                  { "nodeid": 295, "leaf": -0.398869187 },
                  { "nodeid": 296, "leaf": -0.338174611 }
                ]},
                { "nodeid": 148, "depth": 7, "split": 85, "split_condition": 0.0627441034, "yes": 297, "no": 298, "missing": 298, "children": [
                  { "nodeid": 297, "leaf": -0.364826143 },
                  { "nodeid": 298, "leaf": -0.240815595 }
                ]}
              ]},
              { "nodeid": 74, "depth": 6, "split": 20, "split_condition": 0.999998987, "yes": 149, "no": 150, "missing": 150, "children": [
                { "nodeid": 149, "depth": 7, "split": 68, "split_condition": 0.349018604, "yes": 299, "no": 300, "missing": 300, "children": [
                  { "nodeid": 299, "leaf": -0.444270402 },
                  { "nodeid": 300, "leaf": -0.348650396 }
                ]},
                { "nodeid": 150, "depth": 7, "split": 74, "split_condition": 0.0274499804, "yes": 301, "no": 302, "missing": 302, "children": [
                  { "nodeid": 301, "leaf": -0.211180449 },
                  { "nodeid": 302, "leaf": -0.395996928 }
                ]}
              ]}
            ]}
          ]},
          { "nodeid": 18, "depth": 4, "split": 67, "split_condition": 0.0784303769, "yes": 37, "no": 38, "missing": 38, "children": [
            { "nodeid": 37, "depth": 5, "split": 67, "split_condition": 0.0549009629, "yes": 75, "no": 76, "missing": 76, "children": [
              { "nodeid": 75, "depth": 6, "split": 23, "split_condition": 0.999998987, "yes": 151, "no": 152, "missing": 152, "children": [
                { "nodeid": 151, "depth": 7, "split": 61, "split_condition": 0.207842141, "yes": 303, "no": 304, "missing": 304, "children": [
                  { "nodeid": 303, "leaf": -0.266918749 },
                  { "nodeid": 304, "leaf": -0.0112160193 }
                ]},
                { "nodeid": 152, "depth": 7, "split": 69, "split_condition": 0.145097047, "yes": 305, "no": 306, "missing": 306, "children": [
                  { "nodeid": 305, "leaf": -0.425771475 },
                  { "nodeid": 306, "leaf": -0.254100233 }
                ]}
              ]},
              { "nodeid": 76, "depth": 6, "split": 68, "split_condition": 0.0588225313, "yes": 153, "no": 154, "missing": 154, "children": [
                { "nodeid": 153, "depth": 7, "split": 23, "split_condition": 0.999998987, "yes": 307, "no": 308, "missing": 308, "children": [
                  { "nodeid": 307, "leaf": 0.0281899981 },
                  { "nodeid": 308, "leaf": -0.248894647 }
                ]},
                { "nodeid": 154, "depth": 7, "split": 66, "split_condition": 0.298038214, "yes": 309, "no": 310, "missing": 310, "children": [
                  { "nodeid": 309, "leaf": -0.320519805 },
                  { "nodeid": 310, "leaf": -0.139408424 }
                ]}
              ]}
            ]},
            { "nodeid": 38, "depth": 5, "split": 50, "split_condition": 0.999998987, "yes": 77, "no": 78, "missing": 78, "children": [
              { "nodeid": 77, "depth": 6, "split": 68, "split_condition": 0.0705872402, "yes": 155, "no": 156, "missing": 156, "children": [
                { "nodeid": 155, "depth": 7, "split": 23, "split_condition": 0.999998987, "yes": 311, "no": 312, "missing": 312, "children": [
                  { "nodeid": 311, "leaf": 0.27931416 },
                  { "nodeid": 312, "leaf": 0.0628409907 }
                ]},
                { "nodeid": 156, "depth": 7, "split": 5, "split_condition": 0.999998987, "yes": 313, "no": 314, "missing": 314, "children": [
                  { "nodeid": 313, "leaf": 0.081471242 },
                  { "nodeid": 314, "leaf": -0.163845241 }
                ]}
              ]},
              { "nodeid": 78, "depth": 6, "split": 83, "split_condition": 0.196077436, "yes": 157, "no": 158, "missing": 158, "children": [
                { "nodeid": 157, "depth": 7, "split": 65, "split_condition": 0.247057825, "yes": 315, "no": 316, "missing": 316, "children": [
                  { "nodeid": 315, "leaf": -0.319829226 },
                  { "nodeid": 316, "leaf": -0.105045177 }
                ]},
                { "nodeid": 158, "depth": 7, "split": 66, "split_condition": 0.298038214, "yes": 317, "no": 318, "missing": 318, "children": [
                  { "nodeid": 317, "leaf": -0.172984213 },
                  { "nodeid": 318, "leaf": 0.108710311 }
                ]}
              ]}
            ]}
          ]}
        ]}
      ]},
      { "nodeid": 4, "depth": 2, "split": 21, "split_condition": 0.999998987, "yes": 9, "no": 10, "missing": 10, "children": [
        { "nodeid": 9, "depth": 3, "split": 66, "split_condition": 0.250979394, "yes": 19, "no": 20, "missing": 20, "children": [
          { "nodeid": 19, "depth": 4, "split": 4, "split_condition": 0.999998987, "yes": 39, "no": 40, "missing": 40, "children": [
            { "nodeid": 39, "depth": 5, "split": 5, "split_condition": 0.999998987, "yes": 79, "no": 80, "missing": 80, "children": [
              { "nodeid": 79, "depth": 6, "split": 36, "split_condition": 0.999998987, "yes": 159, "no": 160, "missing": 160, "children": [
                { "nodeid": 159, "depth": 7, "split": 20, "split_condition": 0.999998987, "yes": 319, "no": 320, "missing": 320, "children": [
                  { "nodeid": 319, "leaf": -0.301083028 },
                  { "nodeid": 320, "leaf": -0.0558032356 }
                ]},
                { "nodeid": 160, "depth": 7, "split": 68, "split_condition": 0.0588225313, "yes": 321, "no": 322, "missing": 322, "children": [
                  { "nodeid": 321, "leaf": 0.103940077 },
                  { "nodeid": 322, "leaf": -0.156734779 }
                ]}
              ]},
              { "nodeid": 80, "depth": 6, "split": 48, "split_condition": 0.999998987, "yes": 161, "no": 162, "missing": 162, "children": [
                { "nodeid": 161, "depth": 7, "split": 34, "split_condition": 0.999998987, "yes": 323, "no": 324, "missing": 324, "children": [
                  { "nodeid": 323, "leaf": -0.35022825 },
                  { "nodeid": 324, "leaf": -0.175626934 }
                ]},
                { "nodeid": 162, "depth": 7, "split": 46, "split_condition": 0.999998987, "yes": 325, "no": 326, "missing": 326, "children": [
                  { "nodeid": 325, "leaf": -0.449253321 },
                  { "nodeid": 326, "leaf": -0.382777452 }
                ]}
              ]}
            ]},
            { "nodeid": 40, "depth": 5, "split": 48, "split_condition": 0.999998987, "yes": 81, "no": 82, "missing": 82, "children": [
              { "nodeid": 81, "depth": 6, "split": 35, "split_condition": 0.999998987, "yes": 163, "no": 164, "missing": 164, "children": [
                { "nodeid": 163, "depth": 7, "split": 64, "split_condition": 0.0470578261, "yes": 327, "no": 328, "missing": 328, "children": [
                  { "nodeid": 327, "leaf": -0.280750483 },
                  { "nodeid": 328, "leaf": -0.399893343 }
                ]},
                { "nodeid": 164, "depth": 7, "split": 64, "split_condition": 0.0470578261, "yes": 329, "no": 330, "missing": 330, "children": [
                  { "nodeid": 329, "leaf": -0.00313588697 },
                  { "nodeid": 330, "leaf": -0.268454701 }
                ]}
              ]},
              { "nodeid": 82, "depth": 6, "split": 47, "split_condition": 0.999998987, "yes": 165, "no": 166, "missing": 166, "children": [
                { "nodeid": 165, "depth": 7, "split": 17, "split_condition": 0.999998987, "yes": 331, "no": 332, "missing": 332, "children": [
                  { "nodeid": 331, "leaf": -0.471125603 },
                  { "nodeid": 332, "leaf": -0.440549821 }
                ]},
                { "nodeid": 166, "depth": 7, "split": 46, "split_condition": 0.999998987, "yes": 333, "no": 334, "missing": 334, "children": [
                  { "nodeid": 333, "leaf": -0.451178521 },
                  { "nodeid": 334, "leaf": -0.306697488 }
                ]}
              ]}
            ]}
          ]},
          { "nodeid": 20, "depth": 4, "split": 51, "split_condition": 0.999998987, "yes": 41, "no": 42, "missing": 42, "children": [
            { "nodeid": 41, "depth": 5, "split": 63, "split_condition": 0.0509793945, "yes": 83, "no": 84, "missing": 84, "children": [
              { "nodeid": 83, "depth": 6, "split": 46, "split_condition": 0.999998987, "yes": 167, "no": 168, "missing": 168, "children": [
                { "nodeid": 167, "depth": 7, "split": 68, "split_condition": 0.0588225313, "yes": 335, "no": 336, "missing": 336, "children": [
                  { "nodeid": 335, "leaf": -0.170400858 },
                  { "nodeid": 336, "leaf": -0.351931751 }
                ]},
                { "nodeid": 168, "depth": 7, "split": 61, "split_condition": 0.152940184, "yes": 337, "no": 338, "missing": 338, "children": [
                  { "nodeid": 337, "leaf": -0.141016543 },
                  { "nodeid": 338, "leaf": 0.201724842 }
                ]}
              ]},
              { "nodeid": 84, "depth": 6, "split": 71, "split_condition": 0.0666656718, "yes": 169, "no": 170, "missing": 170, "children": [
                { "nodeid": 169, "depth": 7, "split": 5, "split_condition": 0.999998987, "yes": 339, "no": 340, "missing": 340, "children": [
                  { "nodeid": 339, "leaf": -0.208942086 },
                  { "nodeid": 340, "leaf": -0.389569491 }
                ]},
                { "nodeid": 170, "depth": 7, "split": 69, "split_condition": 0.0666656718, "yes": 341, "no": 342, "missing": 342, "children": [
                  { "nodeid": 341, "leaf": -0.311952144 },
                  { "nodeid": 342, "leaf": -0.40501523 }
                ]}
              ]}
            ]},
            { "nodeid": 42, "depth": 5, "split": 50, "split_condition": 0.999998987, "yes": 85, "no": 86, "missing": 86, "children": [
              { "nodeid": 85, "depth": 6, "split": 68, "split_condition": 0.0823519453, "yes": 171, "no": 172, "missing": 172, "children": [
                { "nodeid": 171, "depth": 7, "split": 82, "split_condition": 0.0705872402, "yes": 343, "no": 344, "missing": 344, "children": [
                  { "nodeid": 343, "leaf": 0.213384762 },
                  { "nodeid": 344, "leaf": 0.352728158 }
                ]},
                { "nodeid": 172, "depth": 7, "split": 5, "split_condition": 0.999998987, "yes": 345, "no": 346, "missing": 346, "children": [
                  { "nodeid": 345, "leaf": 0.230817392 },
                  { "nodeid": 346, "leaf": -0.00935796648 }
                ]}
              ]},
              { "nodeid": 86, "depth": 6, "split": 68, "split_condition": 0.0784303769, "yes": 173, "no": 174, "missing": 174, "children": [
                { "nodeid": 173, "depth": 7, "split": 65, "split_condition": 0.192155868, "yes": 347, "no": 348, "missing": 348, "children": [
                  { "nodeid": 347, "leaf": -0.0826648101 },
                  { "nodeid": 348, "leaf": 0.177325979 }
                ]},
                { "nodeid": 174, "depth": 7, "split": 60, "split_condition": 0.0666656718, "yes": 349, "no": 350, "missing": 350, "children": [
                  { "nodeid": 349, "leaf": -0.0971639082 },
                  { "nodeid": 350, "leaf": -0.311464489 }
                ]}
              ]}
            ]}
          ]}
        ]},
        { "nodeid": 10, "depth": 3, "split": 23, "split_condition": 0.999998987, "yes": 21, "no": 22, "missing": 22, "children": [
          { "nodeid": 21, "depth": 4, "split": 83, "split_condition": 0.0862735137, "yes": 43, "no": 44, "missing": 44, "children": [
            { "nodeid": 43, "depth": 5, "split": 49, "split_condition": 0.999998987, "yes": 87, "no": 88, "missing": 88, "children": [
              { "nodeid": 87, "depth": 6, "split": 64, "split_condition": 0.0588225313, "yes": 175, "no": 176, "missing": 176, "children": [
                { "nodeid": 175, "depth": 7, "split": 48, "split_condition": 0.999998987, "yes": 351, "no": 352, "missing": 352, "children": [
                  { "nodeid": 351, "leaf": 0.0807159245 },
                  { "nodeid": 352, "leaf": -0.180885106 }
                ]},
                { "nodeid": 176, "depth": 7, "split": 35, "split_condition": 0.999998987, "yes": 353, "no": 354, "missing": 354, "children": [
                  { "nodeid": 353, "leaf": -0.252950072 },
                  { "nodeid": 354, "leaf": -0.000678467506 }
                ]}
              ]},
              { "nodeid": 88, "depth": 6, "split": 64, "split_condition": 0.180391163, "yes": 177, "no": 178, "missing": 178, "children": [
                { "nodeid": 177, "depth": 7, "split": 68, "split_condition": 0.0588225313, "yes": 355, "no": 356, "missing": 356, "children": [
                  { "nodeid": 355, "leaf": 0.162695378 },
                  { "nodeid": 356, "leaf": -0.126125321 }
                ]},
                { "nodeid": 178, "depth": 7, "split": 66, "split_condition": 0.113724492, "yes": 357, "no": 358, "missing": 358, "children": [
                  { "nodeid": 357, "leaf": 0.412073016 },
                  { "nodeid": 358, "leaf": 0.0310444608 }
                ]}
              ]}
            ]},
            { "nodeid": 44, "depth": 5, "split": 68, "split_condition": 0.0666656718, "yes": 89, "no": 90, "missing": 90, "children": [
              { "nodeid": 89, "depth": 6, "split": 53, "split_condition": 0.999998987, "yes": 179, "no": 180, "missing": 180, "children": [
                { "nodeid": 179, "depth": 7, "split": 48, "split_condition": 0.999998987, "yes": 359, "no": 360, "missing": 360, "children": [
                  { "nodeid": 359, "leaf": 0.366976053 },
                  { "nodeid": 360, "leaf": 0.233883157 }
                ]},
                { "nodeid": 180, "depth": 7, "split": 49, "split_condition": 0.999998987, "yes": 361, "no": 362, "missing": 362, "children": [
                  { "nodeid": 361, "leaf": 0.0225370545 },
                  { "nodeid": 362, "leaf": 0.27498129 }
                ]}
              ]},
              { "nodeid": 90, "depth": 6, "split": 84, "split_condition": 0.105881356, "yes": 181, "no": 182, "missing": 182, "children": [
                { "nodeid": 181, "depth": 7, "split": 54, "split_condition": 0.999998987, "yes": 363, "no": 364, "missing": 364, "children": [
                  { "nodeid": 363, "leaf": -0.083674185 },
                  { "nodeid": 364, "leaf": 0.105981089 }
                ]},
                { "nodeid": 182, "depth": 7, "split": 68, "split_condition": 0.243136257, "yes": 365, "no": 366, "missing": 366, "children": [
                  { "nodeid": 365, "leaf": 0.0994001105 },
                  { "nodeid": 366, "leaf": 0.353190482 }
                ]}
              ]}
            ]}
          ]},
          { "nodeid": 22, "depth": 4, "split": 49, "split_condition": 0.999998987, "yes": 45, "no": 46, "missing": 46, "children": [
            { "nodeid": 45, "depth": 5, "split": 35, "split_condition": 0.999998987, "yes": 91, "no": 92, "missing": 92, "children": [
              { "nodeid": 91, "depth": 6, "split": 65, "split_condition": 0.192155868, "yes": 183, "no": 184, "missing": 184, "children": [
                { "nodeid": 183, "depth": 7, "split": 3, "split_condition": 0.999998987, "yes": 367, "no": 368, "missing": 368, "children": [
                  { "nodeid": 367, "leaf": -0.393184751 },
                  { "nodeid": 368, "leaf": -0.230280548 }
                ]},
                { "nodeid": 184, "depth": 7, "split": 50, "split_condition": 0.999998987, "yes": 369, "no": 370, "missing": 370, "children": [
                  { "nodeid": 369, "leaf": -0.401207536 },
                  { "nodeid": 370, "leaf": 0.100852557 }
                ]}
              ]},
              { "nodeid": 92, "depth": 6, "split": 68, "split_condition": 0.0745088086, "yes": 185, "no": 186, "missing": 186, "children": [
                { "nodeid": 185, "depth": 7, "split": 31, "split_condition": 0.999998987, "yes": 371, "no": 372, "missing": 372, "children": [
                  { "nodeid": 371, "leaf": 0.234401256 },
                  { "nodeid": 372, "leaf": -0.0978451297 }
                ]},
                { "nodeid": 186, "depth": 7, "split": 34, "split_condition": 0.999998987, "yes": 373, "no": 374, "missing": 374, "children": [
                  { "nodeid": 373, "leaf": -0.30715996 },
                  { "nodeid": 374, "leaf": -0.108314969 }
                ]}
              ]}
            ]},
            { "nodeid": 46, "depth": 5, "split": 64, "split_condition": 0.149018615, "yes": 93, "no": 94, "missing": 94, "children": [
              { "nodeid": 93, "depth": 6, "split": 68, "split_condition": 0.0549009629, "yes": 187, "no": 188, "missing": 188, "children": [
                { "nodeid": 187, "depth": 7, "split": 83, "split_condition": 0.152940184, "yes": 375, "no": 376, "missing": 376, "children": [
                  { "nodeid": 375, "leaf": -0.100624852 },
                  { "nodeid": 376, "leaf": 0.163316548 }
                ]},
                { "nodeid": 188, "depth": 7, "split": 85, "split_condition": 0.133332342, "yes": 377, "no": 378, "missing": 378, "children": [
                  { "nodeid": 377, "leaf": -0.245229661 },
                  { "nodeid": 378, "leaf": 0.0903110877 }
                ]}
              ]},
              { "nodeid": 94, "depth": 6, "split": 68, "split_condition": 0.0666656718, "yes": 189, "no": 190, "missing": 190, "children": [
                { "nodeid": 189, "depth": 7, "split": 66, "split_condition": 0.0705872402, "yes": 379, "no": 380, "missing": 380, "children": [
                  { "nodeid": 379, "leaf": 0.370969832 },
                  { "nodeid": 380, "leaf": 0.206088126 }
                ]},
                { "nodeid": 190, "depth": 7, "split": 65, "split_condition": 0.0588225313, "yes": 381, "no": 382, "missing": 382, "children": [
                  { "nodeid": 381, "leaf": 0.2201823 },
                  { "nodeid": 382, "leaf": -0.0980530083 }
                ]}
              ]}
            ]}
          ]}
        ]}
      ]}
    ]},
    { "nodeid": 2, "depth": 1, "split": 67, "split_condition": 0.199999005, "yes": 5, "no": 6, "missing": 6, "children": [
      { "nodeid": 5, "depth": 2, "split": 51, "split_condition": 0.999998987, "yes": 11, "no": 12, "missing": 12, "children": [
        { "nodeid": 11, "depth": 3, "split": 83, "split_condition": 0.0745088086, "yes": 23, "no": 24, "missing": 24, "children": [
          { "nodeid": 23, "depth": 4, "split": 48, "split_condition": 0.999998987, "yes": 47, "no": 48, "missing": 48, "children": [
            { "nodeid": 47, "depth": 5, "split": 63, "split_condition": 0.0745088086, "yes": 95, "no": 96, "missing": 96, "children": [
              { "nodeid": 95, "depth": 6, "split": 67, "split_condition": 0.168626457, "yes": 191, "no": 192, "missing": 192, "children": [
                { "nodeid": 191, "depth": 7, "split": 4, "split_condition": 0.999998987, "yes": 383, "no": 384, "missing": 384, "children": [
                  { "nodeid": 383, "leaf": 0.186314717 },
                  { "nodeid": 384, "leaf": -0.0502741933 }
                ]},
                { "nodeid": 192, "depth": 7, "split": 4, "split_condition": 0.999998987, "yes": 385, "no": 386, "missing": 386, "children": [
                  { "nodeid": 385, "leaf": 0.3364636 },
                  { "nodeid": 386, "leaf": 0.19764711 }
                ]}
              ]},
              { "nodeid": 96, "depth": 6, "split": 4, "split_condition": 0.999998987, "yes": 193, "no": 194, "missing": 194, "children": [
                { "nodeid": 193, "depth": 7, "split": 20, "split_condition": 0.999998987, "yes": 387, "no": 388, "missing": 388, "children": [
                  { "nodeid": 387, "leaf": -0.00913274474 },
                  { "nodeid": 388, "leaf": 0.261413902 }
                ]},
                { "nodeid": 194, "depth": 7, "split": 68, "split_condition": 0.0588225313, "yes": 389, "no": 390, "missing": 390, "children": [
                  { "nodeid": 389, "leaf": -0.0222952981 },
                  { "nodeid": 390, "leaf": -0.297211111 }
                ]}
              ]}
            ]},
            { "nodeid": 48, "depth": 5, "split": 80, "split_condition": 0.0901950821, "yes": 97, "no": 98, "missing": 98, "children": [
              { "nodeid": 97, "depth": 6, "split": 6, "split_condition": 0.999998987, "yes": 195, "no": 196, "missing": 196, "children": [
                { "nodeid": 195, "depth": 7, "split": 4, "split_condition": 0.999998987, "yes": 391, "no": 392, "missing": 392, "children": [
                  { "nodeid": 391, "leaf": -0.000566958857 },
                  { "nodeid": 392, "leaf": -0.225318313 }
                ]},
                { "nodeid": 196, "depth": 7, "split": 20, "split_condition": 0.999998987, "yes": 393, "no": 394, "missing": 394, "children": [
                  { "nodeid": 393, "leaf": -0.417488575 },
                  { "nodeid": 394, "leaf": -0.212100714 }
                ]}
              ]},
              { "nodeid": 98, "depth": 6, "split": 20, "split_condition": 0.999998987, "yes": 197, "no": 198, "missing": 198, "children": [
                { "nodeid": 197, "depth": 7, "split": 6, "split_condition": 0.999998987, "yes": 395, "no": 396, "missing": 396, "children": [
                  { "nodeid": 395, "leaf": 0.0498404466 },
                  { "nodeid": 396, "leaf": -0.269121349 }
                ]},
                { "nodeid": 198, "depth": 7, "split": 34, "split_condition": 0.999998987, "yes": 397, "no": 398, "missing": 398, "children": [
                  { "nodeid": 397, "leaf": 0.298869818 },
                  { "nodeid": 398, "leaf": -0.146358058 }
                ]}
              ]}
            ]}
          ]},
          { "nodeid": 24, "depth": 4, "split": 23, "split_condition": 0.999998987, "yes": 49, "no": 50, "missing": 50, "children": [
            { "nodeid": 49, "depth": 5, "split": 68, "split_condition": 0.0666656718, "yes": 99, "no": 100, "missing": 100, "children": [
              { "nodeid": 99, "depth": 6, "split": 48, "split_condition": 0.999998987, "yes": 199, "no": 200, "missing": 200, "children": [
                { "nodeid": 199, "depth": 7, "split": 67, "split_condition": 0.168626457, "yes": 399, "no": 400, "missing": 400, "children": [
                  { "nodeid": 399, "leaf": 0.35501653 },
                  { "nodeid": 400, "leaf": 0.423273891 }
                ]},
                { "nodeid": 200, "depth": 7, "split": 4, "split_condition": 0.999998987, "yes": 401, "no": 402, "missing": 402, "children": [
                  { "nodeid": 401, "leaf": 0.347882122 },
                  { "nodeid": 402, "leaf": 0.0987713411 }
                ]}
              ]},
              { "nodeid": 100, "depth": 6, "split": 66, "split_condition": 0.0862735137, "yes": 201, "no": 202, "missing": 202, "children": [
                { "nodeid": 201, "depth": 7, "split": 48, "split_condition": 0.999998987, "yes": 403, "no": 404, "missing": 404, "children": [
                  { "nodeid": 403, "leaf": 0.342386216 },
                  { "nodeid": 404, "leaf": 0.171198845 }
                ]},
                { "nodeid": 202, "depth": 7, "split": 48, "split_condition": 0.999998987, "yes": 405, "no": 406, "missing": 406, "children": [
                  { "nodeid": 405, "leaf": 0.160074621 },
                  { "nodeid": 406, "leaf": -0.0766567439 }
                ]}
              ]}
            ]},
            { "nodeid": 50, "depth": 5, "split": 49, "split_condition": 0.999998987, "yes": 101, "no": 102, "missing": 102, "children": [
              { "nodeid": 101, "depth": 6, "split": 48, "split_condition": 0.999998987, "yes": 203, "no": 204, "missing": 204, "children": [
                { "nodeid": 203, "depth": 7, "split": 63, "split_condition": 0.0705872402, "yes": 407, "no": 408, "missing": 408, "children": [
                  { "nodeid": 407, "leaf": 0.235166535 },
                  { "nodeid": 408, "leaf": -0.0090199383 }
                ]},
                { "nodeid": 204, "depth": 7, "split": 63, "split_condition": 0.164704889, "yes": 409, "no": 410, "missing": 410, "children": [
                  { "nodeid": 409, "leaf": -0.255662799 },
                  { "nodeid": 410, "leaf": 0.278472573 }
                ]}
              ]},
              { "nodeid": 102, "depth": 6, "split": 68, "split_condition": 0.109802924, "yes": 205, "no": 206, "missing": 206, "children": [
                { "nodeid": 205, "depth": 7, "split": 64, "split_condition": 0.156861752, "yes": 411, "no": 412, "missing": 412, "children": [
                  { "nodeid": 411, "leaf": 0.28585121 },
                  { "nodeid": 412, "leaf": 0.436656326 }
                ]},
                { "nodeid": 206, "depth": 7, "split": 64, "split_condition": 0.180391163, "yes": 413, "no": 414, "missing": 414, "children": [
                  { "nodeid": 413, "leaf": -0.0855018273 },
                  { "nodeid": 414, "leaf": 0.265200198 }
                ]}
              ]}
            ]}
          ]}
        ]},
        { "nodeid": 12, "depth": 3, "split": 66, "split_condition": 0.207842141, "yes": 25, "no": 26, "missing": 26, "children": [
          { "nodeid": 25, "depth": 4, "split": 4, "split_condition": 0.999998987, "yes": 51, "no": 52, "missing": 52, "children": [
            { "nodeid": 51, "depth": 5, "split": 5, "split_condition": 0.999998987, "yes": 103, "no": 104, "missing": 104, "children": [
              { "nodeid": 103, "depth": 6, "split": 68, "split_condition": 0.0509793945, "yes": 207, "no": 208, "missing": 208, "children": [
                { "nodeid": 207, "depth": 7, "split": 48, "split_condition": 0.999998987, "yes": 415, "no": 416, "missing": 416, "children": [
                  { "nodeid": 415, "leaf": 0.22860992 },
                  { "nodeid": 416, "leaf": -0.00761509221 }
                ]},
                { "nodeid": 208, "depth": 7, "split": 73, "split_condition": 0.0509793945, "yes": 417, "no": 418, "missing": 418, "children": [
                  { "nodeid": 417, "leaf": 0.0360730514 },
                  { "nodeid": 418, "leaf": -0.133461088 }
                ]}
              ]},
              { "nodeid": 104, "depth": 6, "split": 19, "split_condition": 0.999998987, "yes": 209, "no": 210, "missing": 210, "children": [
                { "nodeid": 209, "depth": 7, "split": 45, "split_condition": 0.999998987, "yes": 419, "no": 420, "missing": 420, "children": [
                  { "nodeid": 419, "leaf": -0.112830944 },
                  { "nodeid": 420, "leaf": -0.327636242 }
                ]},
                { "nodeid": 210, "depth": 7, "split": 46, "split_condition": 0.999998987, "yes": 421, "no": 422, "missing": 422, "children": [
                  { "nodeid": 421, "leaf": -0.473860741 },
                  { "nodeid": 422, "leaf": -0.232392341 }
                ]}
              ]}
            ]},
            { "nodeid": 52, "depth": 5, "split": 48, "split_condition": 0.999998987, "yes": 105, "no": 106, "missing": 106, "children": [
              { "nodeid": 105, "depth": 6, "split": 64, "split_condition": 0.0588225313, "yes": 211, "no": 212, "missing": 212, "children": [
                { "nodeid": 211, "depth": 7, "split": 65, "split_condition": 0.176469594, "yes": 423, "no": 424, "missing": 424, "children": [
                  { "nodeid": 423, "leaf": -0.123754583 },
                  { "nodeid": 424, "leaf": 0.26255694 }
                ]},
                { "nodeid": 212, "depth": 7, "split": 65, "split_condition": 0.262744099, "yes": 425, "no": 426, "missing": 426, "children": [
                  { "nodeid": 425, "leaf": -0.322654903 },
                  { "nodeid": 426, "leaf": -0.00264755823 }
                ]}
              ]},
              { "nodeid": 106, "depth": 6, "split": 47, "split_condition": 0.999998987, "yes": 213, "no": 214, "missing": 214, "children": [
                { "nodeid": 213, "depth": 7, "split": 32, "split_condition": 0.999998987, "yes": 427, "no": 428, "missing": 428, "children": [
                  { "nodeid": 427, "leaf": -0.367436707 },
                  { "nodeid": 428, "leaf": -0.466059864 }
                ]},
                { "nodeid": 214, "depth": 7, "split": 46, "split_condition": 0.999998987, "yes": 429, "no": 430, "missing": 430, "children": [
                  { "nodeid": 429, "leaf": -0.344834268 },
                  { "nodeid": 430, "leaf": -0.111173101 }
                ]}
              ]}
            ]}
          ]},
          { "nodeid": 26, "depth": 4, "split": 50, "split_condition": 0.999998987, "yes": 53, "no": 54, "missing": 54, "children": [
            { "nodeid": 53, "depth": 5, "split": 5, "split_condition": 0.999998987, "yes": 107, "no": 108, "missing": 108, "children": [
              { "nodeid": 107, "depth": 6, "split": 4, "split_condition": 0.999998987, "yes": 215, "no": 216, "missing": 216, "children": [
                { "nodeid": 215, "depth": 7, "split": 65, "split_condition": 0.0784303769, "yes": 431, "no": 432, "missing": 432, "children": [
                  { "nodeid": 431, "leaf": 0.430125326 },
                  { "nodeid": 432, "leaf": 0.332320482 }
                ]},
                { "nodeid": 216, "depth": 7, "split": 64, "split_condition": 0.121567629, "yes": 433, "no": 434, "missing": 434, "children": [
                  { "nodeid": 433, "leaf": 0.314986289 },
                  { "nodeid": 434, "leaf": -0.0331029892 }
                ]}
              ]},
              { "nodeid": 108, "depth": 6, "split": 68, "split_condition": 0.0980382189, "yes": 217, "no": 218, "missing": 218, "children": [
                { "nodeid": 217, "depth": 7, "split": 66, "split_condition": 0.298038214, "yes": 435, "no": 436, "missing": 436, "children": [
                  { "nodeid": 435, "leaf": 0.126257449 },
                  { "nodeid": 436, "leaf": 0.353561819 }
                ]},
                { "nodeid": 218, "depth": 7, "split": 64, "split_condition": 0.0784303769, "yes": 437, "no": 438, "missing": 438, "children": [
                  { "nodeid": 437, "leaf": 0.143753842 },
                  { "nodeid": 438, "leaf": -0.194135457 }
                ]}
              ]}
            ]},
            { "nodeid": 54, "depth": 5, "split": 68, "split_condition": 0.0627441034, "yes": 109, "no": 110, "missing": 110, "children": [
              { "nodeid": 109, "depth": 6, "split": 4, "split_condition": 0.999998987, "yes": 219, "no": 220, "missing": 220, "children": [
                { "nodeid": 219, "depth": 7, "split": 83, "split_condition": 0.149018615, "yes": 439, "no": 440, "missing": 440, "children": [
                  { "nodeid": 439, "leaf": 0.0914231986 },
                  { "nodeid": 440, "leaf": 0.306821465 }
                ]},
                { "nodeid": 220, "depth": 7, "split": 63, "split_condition": 0.0666656718, "yes": 441, "no": 442, "missing": 442, "children": [
                  { "nodeid": 441, "leaf": 0.0607557483 },
                  { "nodeid": 442, "leaf": -0.263736755 }
                ]}
              ]},
              { "nodeid": 110, "depth": 6, "split": 60, "split_condition": 0.0705872402, "yes": 221, "no": 222, "missing": 222, "children": [
                { "nodeid": 221, "depth": 7, "split": 70, "split_condition": 0.0627441034, "yes": 443, "no": 444, "missing": 444, "children": [
                  { "nodeid": 443, "leaf": 0.109786697 },
                  { "nodeid": 444, "leaf": -0.0955773219 }
                ]},
                { "nodeid": 222, "depth": 7, "split": 65, "split_condition": 0.290195078, "yes": 445, "no": 446, "missing": 446, "children": [
                  { "nodeid": 445, "leaf": -0.259593844 },
                  { "nodeid": 446, "leaf": -0.0135185635 }
                ]}
              ]}
            ]}
          ]}
        ]}
      ]},
      { "nodeid": 6, "depth": 2, "split": 67, "split_condition": 0.254900962, "yes": 13, "no": 14, "missing": 14, "children": [
        { "nodeid": 13, "depth": 3, "split": 51, "split_condition": 0.999998987, "yes": 27, "no": 28, "missing": 28, "children": [
          { "nodeid": 27, "depth": 4, "split": 83, "split_condition": 0.0745088086, "yes": 55, "no": 56, "missing": 56, "children": [
            { "nodeid": 55, "depth": 5, "split": 48, "split_condition": 0.999998987, "yes": 111, "no": 112, "missing": 112, "children": [
              { "nodeid": 111, "depth": 6, "split": 63, "split_condition": 0.101959787, "yes": 223, "no": 224, "missing": 224, "children": [
                { "nodeid": 223, "depth": 7, "split": 68, "split_condition": 0.0823519453, "yes": 447, "no": 448, "missing": 448, "children": [
                  { "nodeid": 447, "leaf": 0.407541662 },
                  { "nodeid": 448, "leaf": 0.334571779 }
                ]},
                { "nodeid": 224, "depth": 7, "split": 68, "split_condition": 0.0862735137, "yes": 449, "no": 450, "missing": 450, "children": [
                  { "nodeid": 449, "leaf": 0.329351276 },
                  { "nodeid": 450, "leaf": 0.12420211 }
                ]}
              ]},
              { "nodeid": 112, "depth": 6, "split": 4, "split_condition": 0.999998987, "yes": 225, "no": 226, "missing": 226, "children": [
                { "nodeid": 225, "depth": 7, "split": 5, "split_condition": 0.999998987, "yes": 451, "no": 452, "missing": 452, "children": [
                  { "nodeid": 451, "leaf": 0.285013378 },
                  { "nodeid": 452, "leaf": 0.0262832884 }
                ]},
                { "nodeid": 226, "depth": 7, "split": 6, "split_condition": 0.999998987, "yes": 453, "no": 454, "missing": 454, "children": [
                  { "nodeid": 453, "leaf": 0.142704457 },
                  { "nodeid": 454, "leaf": -0.218743399 }
                ]}
              ]}
            ]},
            { "nodeid": 56, "depth": 5, "split": 23, "split_condition": 0.999998987, "yes": 113, "no": 114, "missing": 114, "children": [
              { "nodeid": 113, "depth": 6, "split": 68, "split_condition": 0.0784303769, "yes": 227, "no": 228, "missing": 228, "children": [
                { "nodeid": 227, "depth": 7, "split": 21, "split_condition": 0.999998987, "yes": 455, "no": 456, "missing": 456, "children": [
                  { "nodeid": 455, "leaf": 0.425947249 },
                  { "nodeid": 456, "leaf": 0.455223769 }
                ]},
                { "nodeid": 228, "depth": 7, "split": 66, "split_condition": 0.0941166505, "yes": 457, "no": 458, "missing": 458, "children": [
                  { "nodeid": 457, "leaf": 0.409942448 },
                  { "nodeid": 458, "leaf": 0.31442675 }
                ]}
              ]},
              { "nodeid": 114, "depth": 6, "split": 49, "split_condition": 0.999998987, "yes": 229, "no": 230, "missing": 230, "children": [
                { "nodeid": 229, "depth": 7, "split": 48, "split_condition": 0.999998987, "yes": 459, "no": 460, "missing": 460, "children": [
                  { "nodeid": 459, "leaf": 0.368958741 },
                  { "nodeid": 460, "leaf": 0.197119504 }
                ]},
                { "nodeid": 230, "depth": 7, "split": 68, "split_condition": 0.180391163, "yes": 461, "no": 462, "missing": 462, "children": [
                  { "nodeid": 461, "leaf": 0.432111651 },
                  { "nodeid": 462, "leaf": 0.233137727 }
                ]}
