-0.0
[
  { "nodeid": 0, "depth": 0, "split": 67, "split_condition": 0.145097047, "yes": 1, "no": 2, "missing": 2, "children": [
    { "nodeid": 1, "depth": 1, "split": 67, "split_condition": 0.117646061, "yes": 3, "no": 4, "missing": 4, "children": [
      { "nodeid": 3, "depth": 2, "split": 66, "split_condition": 0.258822531, "yes": 7, "no": 8, "missing": 8, "children": [
        { "nodeid": 7, "depth": 3, "split": 67, "split_condition": 0.0941166505, "yes": 15, "no": 16, "missing": 16, "children": [
          { "nodeid": 15, "depth": 4, "split": 68, "split_condition": 0.266665667, "yes": 31, "no": 32, "missing": 32, "children": [
            { "nodeid": 31, "depth": 5, "split": 66, "split_condition": 0.176469594, "yes": 63, "no": 64, "missing": 64, "children": [
              { "nodeid": 63, "depth": 6, "split": 69, "split_condition": 0.247057825, "yes": 127, "no": 128, "missing": 128, "children": [
                { "nodeid": 127, "depth": 7, "split": 65, "split_condition": 0.247057825, "yes": 255, "no": 256, "missing": 256, "children": [
                  { "nodeid": 255, "leaf": -0.596231937 },
                  { "nodeid": 256, "leaf": -0.555406928 }
                ]},
                { "nodeid": 128, "depth": 7, "split": 54, "split_condition": 0.999998987, "yes": 257, "no": 258, "missing": 258, "children": [
                  { "nodeid": 257, "leaf": -0.585355997 },
                  { "nodeid": 258, "leaf": -0.504672229 }
                ]}
              ]},
              { "nodeid": 64, "depth": 6, "split": 51, "split_condition": 0.999998987, "yes": 129, "no": 130, "missing": 130, "children": [
                { "nodeid": 129, "depth": 7, "split": 65, "split_condition": 0.207842141, "yes": 259, "no": 260, "missing": 260, "children": [
                  { "nodeid": 259, "leaf": -0.586915076 },
                  { "nodeid": 260, "leaf": -0.559418619 }
                ]},
                { "nodeid": 130, "depth": 7, "split": 20, "split_condition": 0.999998987, "yes": 261, "no": 262, "missing": 262, "children": [
                  { "nodeid": 261, "leaf": -0.499513358 },
                  { "nodeid": 262, "leaf": -0.320798218 }
                ]}
              ]}
            ]},
            { "nodeid": 32, "depth": 5, "split": 53, "split_condition": 0.999998987, "yes": 65, "no": 66, "missing": 66, "children": [
              { "nodeid": 65, "depth": 6, "split": 69, "split_condition": 0.399998993, "yes": 131, "no": 132, "missing": 132, "children": [
                { "nodeid": 131, "depth": 7, "split": 67, "split_condition": 0.0745088086, "yes": 263, "no": 264, "missing": 264, "children": [
                  { "nodeid": 263, "leaf": -0.584973216 },
                  { "nodeid": 264, "leaf": -0.551195741 }
                ]},
                { "nodeid": 132, "depth": 7, "split": 54, "split_condition": 0.999998987, "yes": 265, "no": 266, "missing": 266, "children": [
                  { "nodeid": 265, "leaf": -0.543943584 },
                  { "nodeid": 266, "leaf": -0.384312153 }
                ]}
              ]},
              { "nodeid": 66, "depth": 6, "split": 21, "split_condition": 0.999998987, "yes": 133, "no": 134, "missing": 134, "children": [
                { "nodeid": 133, "depth": 7, "split": 67, "split_condition": 0.0705872402, "yes": 267, "no": 268, "missing": 268, "children": [
                  { "nodeid": 267, "leaf": -0.523961961 },
                  { "nodeid": 268, "leaf": -0.362481058 }
                ]},
                { "nodeid": 134, "depth": 7, "split": 67, "split_condition": 0.0549009629, "yes": 269, "no": 270, "missing": 270, "children": [
                  { "nodeid": 269, "leaf": -0.425626487 },
                  { "nodeid": 270, "leaf": -0.045293007 }
                ]}
              ]}
            ]}
          ]},
          { "nodeid": 16, "depth": 4, "split": 21, "split_condition": 0.999998987, "yes": 33, "no": 34, "missing": 34, "children": [
            { "nodeid": 33, "depth": 5, "split": 66, "split_condition": 0.192155868, "yes": 67, "no": 68, "missing": 68, "children": [
              { "nodeid": 67, "depth": 6, "split": 68, "split_condition": 0.243136257, "yes": 135, "no": 136, "missing": 136, "children": [
                { "nodeid": 135, "depth": 7, "split": 69, "split_condition": 0.231371552, "yes": 271, "no": 272, "missing": 272, "children": [
                  { "nodeid": 271, "leaf": -0.570308805 },
                  { "nodeid": 272, "leaf": -0.462830395 }
                ]},
                { "nodeid": 136, "depth": 7, "split": 53, "split_condition": 0.999998987, "yes": 273, "no": 274, "missing": 274, "children": [
                  { "nodeid": 273, "leaf": -0.54827714 },
                  { "nodeid": 274, "leaf": -0.271342337 }
                ]}
              ]},
              { "nodeid": 68, "depth": 6, "split": 51, "split_condition": 0.999998987, "yes": 137, "no": 138, "missing": 138, "children": [
                { "nodeid": 137, "depth": 7, "split": 79, "split_condition": 0.141175479, "yes": 275, "no": 276, "missing": 276, "children": [
                  { "nodeid": 275, "leaf": -0.550080061 },
                  { "nodeid": 276, "leaf": -0.406010777 }
                ]},
                { "nodeid": 138, "depth": 7, "split": 20, "split_condition": 0.999998987, "yes": 277, "no": 278, "missing": 278, "children": [
                  { "nodeid": 277, "leaf": -0.311029106 },
                  { "nodeid": 278, "leaf": 0.0880327523 }
                ]}
              ]}
            ]},
            { "nodeid": 34, "depth": 5, "split": 23, "split_condition": 0.999998987, "yes": 69, "no": 70, "missing": 70, "children": [
              { "nodeid": 69, "depth": 6, "split": 67, "split_condition": 0.105881356, "yes": 139, "no": 140, "missing": 140, "children": [
                { "nodeid": 139, "depth": 7, "split": 68, "split_condition": 0.266665667, "yes": 279, "no": 280, "missing": 280, "children": [
                  { "nodeid": 279, "leaf": -0.474867135 },
                  { "nodeid": 280, "leaf": -0.130111516 }
                ]},
                { "nodeid": 140, "depth": 7, "split": 83, "split_condition": 0.105881356, "yes": 281, "no": 282, "missing": 282, "children": [
                  { "nodeid": 281, "leaf": -0.358166575 },
                  { "nodeid": 282, "leaf": -0.13622728 }
                ]}
              ]},
              { "nodeid": 70, "depth": 6, "split": 35, "split_condition": 0.999998987, "yes": 141, "no": 142, "missing": 142, "children": [
                { "nodeid": 141, "depth": 7, "split": 49, "split_condition": 0.999998987, "yes": 283, "no": 284, "missing": 284, "children": [
                  { "nodeid": 283, "leaf": -0.575191438 },
                  { "nodeid": 284, "leaf": -0.493325561 }
                ]},
                { "nodeid": 142, "depth": 7, "split": 68, "split_condition": 0.0509793945, "yes": 285, "no": 286, "missing": 286, "children": [
                  { "nodeid": 285, "leaf": -0.338973939 },
                  { "nodeid": 286, "leaf": -0.490842044 }
                ]}
              ]}
            ]}
          ]}
        ]},
        { "nodeid": 8, "depth": 3, "split": 51, "split_condition": 0.999998987, "yes": 17, "no": 18, "missing": 18, "children": [
          { "nodeid": 17, "depth": 4, "split": 67, "split_condition": 0.0784303769, "yes": 35, "no": 36, "missing": 36, "children": [
            { "nodeid": 35, "depth": 5, "split": 64, "split_condition": 0.411763698, "yes": 71, "no": 72, "missing": 72, "children": [
              { "nodeid": 71, "depth": 6, "split": 68, "split_condition": 0.349018604, "yes": 143, "no": 144, "missing": 144, "children": [
                { "nodeid": 143, "depth": 7, "split": 61, "split_condition": 0.325489193, "yes": 287, "no": 288, "missing": 288, "children": [
                  { "nodeid": 287, "leaf": -0.57961458 },
                  { "nodeid": 288, "leaf": -0.518195808 }
                ]},
                { "nodeid": 144, "depth": 7, "split": 67, "split_condition": 0.0549009629, "yes": 289, "no": 290, "missing": 290, "children": [
                  { "nodeid": 289, "leaf": -0.561623752 },
                  { "nodeid": 290, "leaf": -0.42035988 }
                ]}
              ]},
              { "nodeid": 72, "depth": 6, "split": 17, "split_condition": 0.999998987, "yes": 145, "no": 146, "missing": 146, "children": [
                { "nodeid": 145, "depth": 7, "split": 20, "split_condition": 0.999998987, "yes": 291, "no": 292, "missing": 292, "children": [
                  { "nodeid": 291, "leaf": -0.557848692 },
                  { "nodeid": 292, "leaf": -0.454012543 }
                ]},
                { "nodeid": 146, "leaf": -0.34234941 }
              ]}
            ]},
            { "nodeid": 36, "depth": 5, "split": 21, "split_condition": 0.999998987, "yes": 73, "no": 74, "missing": 74, "children": [
              { "nodeid": 73, "depth": 6, "split": 65, "split_condition": 0.325489193, "yes": 147, "no": 148, "missing": 148, "children": [
                { "nodeid": 147, "depth": 7, "split": 69, "split_condition": 0.023528412, "yes": 293, "no": 294, "missing": 294, "children": [
                  { "nodeid": 293, "leaf": -0.436667264 },
                  { "nodeid": 294, "leaf": -0.556092501 }
                ]},
                { "nodeid": 148, "depth": 7, "split": 50, "split_condition": 0.999998987, "yes": 295, "no": 296, "missing": 296, "children": [
                  { "nodeid": 295, "leaf": -0.509684443 },
                  { "nodeid": 296, "leaf": -0.370979667 }
                ]}
              ]},
              { "nodeid": 74, "depth": 6, "split": 84, "split_condition": 0.0784303769, "yes": 149, "no": 150, "missing": 150, "children": [
                { "nodeid": 149, "depth": 7, "split": 23, "split_condition": 0.999998987, "yes": 297, "no": 298, "missing": 298, "children": [
                  { "nodeid": 297, "leaf": -0.499389023 },
                  { "nodeid": 298, "leaf": -0.57369554 }
                ]},
                { "nodeid": 150, "depth": 7, "split": 72, "split_condition": 0.0549009629, "yes": 299, "no": 300, "missing": 300, "children": [
                  { "nodeid": 299, "leaf": -0.327540189 },
                  { "nodeid": 300, "leaf": -0.471789569 }
                ]}
              ]}
            ]}
          ]},
          { "nodeid": 18, "depth": 4, "split": 67, "split_condition": 0.0784303769, "yes": 37, "no": 38, "missing": 38, "children": [
            { "nodeid": 37, "depth": 5, "split": 67, "split_condition": 0.0549009629, "yes": 75, "no": 76, "missing": 76, "children": [
              { "nodeid": 75, "depth": 6, "split": 72, "split_condition": 0.243136257, "yes": 151, "no": 152, "missing": 152, "children": [
                { "nodeid": 151, "depth": 7, "split": 20, "split_condition": 0.999998987, "yes": 301, "no": 302, "missing": 302, "children": [
                  { "nodeid": 301, "leaf": -0.429486483 },
                  { "nodeid": 302, "leaf": -0.278784692 }
                ]},
                { "nodeid": 152, "depth": 7, "split": 63, "split_condition": 0.101959787, "yes": 303, "no": 304, "missing": 304, "children": [
                  { "nodeid": 303, "leaf": 0.0863591433 },
                  { "nodeid": 304, "leaf": -0.280572504 }
                ]}
              ]},
              { "nodeid": 76, "depth": 6, "split": 20, "split_condition": 0.999998987, "yes": 153, "no": 154, "missing": 154, "children": [
                { "nodeid": 153, "depth": 7, "split": 35, "split_condition": 0.999998987, "yes": 305, "no": 306, "missing": 306, "children": [
                  { "nodeid": 305, "leaf": -0.306322485 },
                  { "nodeid": 306, "leaf": -0.0631705001 }
                ]},
                { "nodeid": 154, "depth": 7, "split": 23, "split_condition": 0.999998987, "yes": 307, "no": 308, "missing": 308, "children": [
                  { "nodeid": 307, "leaf": 0.107820652 },
                  { "nodeid": 308, "leaf": -0.219537631 }
                ]}
              ]}
            ]},
            { "nodeid": 38, "depth": 5, "split": 50, "split_condition": 0.999998987, "yes": 77, "no": 78, "missing": 78, "children": [
              { "nodeid": 77, "depth": 6, "split": 68, "split_condition": 0.0862735137, "yes": 155, "no": 156, "missing": 156, "children": [
                { "nodeid": 155, "depth": 7, "split": 82, "split_condition": 0.0705872402, "yes": 309, "no": 310, "missing": 310, "children": [
                  { "nodeid": 309, "leaf": 0.130670249 },
                  { "nodeid": 310, "leaf": 0.339401722 }
                ]},
                { "nodeid": 156, "depth": 7, "split": 5, "split_condition": 0.999998987, "yes": 311, "no": 312, "missing": 312, "children": [
                  { "nodeid": 311, "leaf": 0.113273717 },
                  { "nodeid": 312, "leaf": -0.212839678 }
                ]}
              ]},
              { "nodeid": 78, "depth": 6, "split": 83, "split_condition": 0.207842141, "yes": 157, "no": 158, "missing": 158, "children": [
                { "nodeid": 157, "depth": 7, "split": 4, "split_condition": 0.999998987, "yes": 313, "no": 314, "missing": 314, "children": [
                  { "nodeid": 313, "leaf": -0.250867337 },
                  { "nodeid": 314, "leaf": -0.475839227 }
                ]},
                { "nodeid": 158, "depth": 7, "split": 65, "split_condition": 0.188234299, "yes": 315, "no": 316, "missing": 316, "children": [
                  { "nodeid": 315, "leaf": -0.0982551128 },
                  { "nodeid": 316, "leaf": 0.235124618 }
                ]}
              ]}
            ]}
          ]}
        ]}
      ]},
      { "nodeid": 4, "depth": 2, "split": 21, "split_condition": 0.999998987, "yes": 9, "no": 10, "missing": 10, "children": [
        { "nodeid": 9, "depth": 3, "split": 66, "split_condition": 0.247057825, "yes": 19, "no": 20, "missing": 20, "children": [
          { "nodeid": 19, "depth": 4, "split": 4, "split_condition": 0.999998987, "yes": 39, "no": 40, "missing": 40, "children": [
            { "nodeid": 39, "depth": 5, "split": 20, "split_condition": 0.999998987, "yes": 79, "no": 80, "missing": 80, "children": [
              { "nodeid": 79, "depth": 6, "split": 36, "split_condition": 0.999998987, "yes": 159, "no": 160, "missing": 160, "children": [
                { "nodeid": 159, "depth": 7, "split": 67, "split_condition": 0.129410774, "yes": 317, "no": 318, "missing": 318, "children": [
                  { "nodeid": 317, "leaf": -0.521673381 },
                  { "nodeid": 318, "leaf": -0.430182219 }
                ]},
                { "nodeid": 160, "depth": 7, "split": 5, "split_condition": 0.999998987, "yes": 319, "no": 320, "missing": 320, "children": [
                  { "nodeid": 319, "leaf": -0.120189391 },
                  { "nodeid": 320, "leaf": -0.417363644 }
                ]}
              ]},
              { "nodeid": 80, "depth": 6, "split": 51, "split_condition": 0.999998987, "yes": 161, "no": 162, "missing": 162, "children": [
                { "nodeid": 161, "depth": 7, "split": 34, "split_condition": 0.999998987, "yes": 321, "no": 322, "missing": 322, "children": [
                  { "nodeid": 321, "leaf": 0.0902592167 },
                  { "nodeid": 322, "leaf": -0.297868848 }
                ]},
                { "nodeid": 162, "depth": 7, "split": 66, "split_condition": 0.156861752, "yes": 323, "no": 324, "missing": 324, "children": [
                  { "nodeid": 323, "leaf": -0.397643685 },
                  { "nodeid": 324, "leaf": 0.140545487 }
                ]}
              ]}
            ]},
            { "nodeid": 40, "depth": 5, "split": 48, "split_condition": 0.999998987, "yes": 81, "no": 82, "missing": 82, "children": [
              { "nodeid": 81, "depth": 6, "split": 36, "split_condition": 0.999998987, "yes": 163, "no": 164, "missing": 164, "children": [
                { "nodeid": 163, "depth": 7, "split": 50, "split_condition": 0.999998987, "yes": 325, "no": 326, "missing": 326, "children": [
                  { "nodeid": 325, "leaf": -0.466247052 },
                  { "nodeid": 326, "leaf": -0.558717072 }
                ]},
                { "nodeid": 164, "depth": 7, "split": 64, "split_condition": 0.0509793945, "yes": 327, "no": 328, "missing": 328, "children": [
                  { "nodeid": 327, "leaf": -0.257010996 },
                  { "nodeid": 328, "leaf": -0.449203342 }
                ]}
              ]},
              { "nodeid": 82, "depth": 6, "split": 47, "split_condition": 0.999998987, "yes": 165, "no": 166, "missing": 166, "children": [
                { "nodeid": 165, "depth": 7, "split": 17, "split_condition": 0.999998987, "yes": 329, "no": 330, "missing": 330, "children": [
                  { "nodeid": 329, "leaf": -0.588982522 },
                  { "nodeid": 330, "leaf": -0.559277117 }
                ]},
                { "nodeid": 166, "depth": 7, "split": 46, "split_condition": 0.999998987, "yes": 331, "no": 332, "missing": 332, "children": [
                  { "nodeid": 331, "leaf": -0.57005471 },
                  { "nodeid": 332, "leaf": -0.449349999 }
                ]}
              ]}
            ]}
          ]},
          { "nodeid": 20, "depth": 4, "split": 51, "split_condition": 0.999998987, "yes": 41, "no": 42, "missing": 42, "children": [
            { "nodeid": 41, "depth": 5, "split": 46, "split_condition": 0.999998987, "yes": 83, "no": 84, "missing": 84, "children": [
              { "nodeid": 83, "depth": 6, "split": 20, "split_condition": 0.999998987, "yes": 167, "no": 168, "missing": 168, "children": [
                { "nodeid": 167, "depth": 7, "split": 6, "split_condition": 0.999998987, "yes": 333, "no": 334, "missing": 334, "children": [
                  { "nodeid": 333, "leaf": -0.425128549 },
                  { "nodeid": 334, "leaf": -0.553759038 }
                ]},
                { "nodeid": 168, "depth": 7, "split": 61, "split_condition": 0.0745088086, "yes": 335, "no": 336, "missing": 336, "children": [
                  { "nodeid": 335, "leaf": -0.248663992 },
                  { "nodeid": 336, "leaf": -0.486841798 }
                ]}
              ]},
              { "nodeid": 84, "depth": 6, "split": 68, "split_condition": 0.0470578261, "yes": 169, "no": 170, "missing": 170, "children": [
                { "nodeid": 169, "leaf": -0.0594321489 },
                { "nodeid": 170, "depth": 7, "split": 19, "split_condition": 0.999998987, "yes": 337, "no": 338, "missing": 338, "children": [
                  { "nodeid": 337, "leaf": -0.468216747 },
                  { "nodeid": 338, "leaf": -0.155254632 }
                ]}
              ]}
            ]},
            { "nodeid": 42, "depth": 5, "split": 50, "split_condition": 0.999998987, "yes": 85, "no": 86, "missing": 86, "children": [
              { "nodeid": 85, "depth": 6, "split": 68, "split_condition": 0.0823519453, "yes": 171, "no": 172, "missing": 172, "children": [
                { "nodeid": 171, "depth": 7, "split": 82, "split_condition": 0.0745088086, "yes": 339, "no": 340, "missing": 340, "children": [
                  { "nodeid": 339, "leaf": 0.313809603 },
                  { "nodeid": 340, "leaf": 0.449226677 }
                ]},
                { "nodeid": 172, "depth": 7, "split": 5, "split_condition": 0.999998987, "yes": 341, "no": 342, "missing": 342, "children": [
                  { "nodeid": 341, "leaf": 0.26081562 },
                  { "nodeid": 342, "leaf": -0.0500264354 }
                ]}
              ]},
              { "nodeid": 86, "depth": 6, "split": 83, "split_condition": 0.172548026, "yes": 173, "no": 174, "missing": 174, "children": [
                { "nodeid": 173, "depth": 7, "split": 62, "split_condition": 0.0980382189, "yes": 343, "no": 344, "missing": 344, "children": [
                  { "nodeid": 343, "leaf": -0.146210372 },
                  { "nodeid": 344, "leaf": -0.393150121 }
                ]},
                { "nodeid": 174, "depth": 7, "split": 38, "split_condition": 0.999998987, "yes": 345, "no": 346, "missing": 346, "children": [
                  { "nodeid": 345, "leaf": -0.15203099 },
                  { "nodeid": 346, "leaf": 0.183994785 }
                ]}
              ]}
            ]}
          ]}
        ]},
        { "nodeid": 10, "depth": 3, "split": 23, "split_condition": 0.999998987, "yes": 21, "no": 22, "missing": 22, "children": [
          { "nodeid": 21, "depth": 4, "split": 83, "split_condition": 0.105881356, "yes": 43, "no": 44, "missing": 44, "children": [
            { "nodeid": 43, "depth": 5, "split": 67, "split_condition": 0.129410774, "yes": 87, "no": 88, "missing": 88, "children": [
              { "nodeid": 87, "depth": 6, "split": 48, "split_condition": 0.999998987, "yes": 175, "no": 176, "missing": 176, "children": [
                { "nodeid": 175, "depth": 7, "split": 68, "split_condition": 0.0470578261, "yes": 347, "no": 348, "missing": 348, "children": [
                  { "nodeid": 347, "leaf": 0.080049403 },
                  { "nodeid": 348, "leaf": -0.202235773 }
                ]},
                { "nodeid": 176, "depth": 7, "split": 63, "split_condition": 0.164704889, "yes": 349, "no": 350, "missing": 350, "children": [
                  { "nodeid": 349, "leaf": -0.40281269 },
                  { "nodeid": 350, "leaf": -0.0194392689 }
                ]}
              ]},
              { "nodeid": 88, "depth": 6, "split": 48, "split_condition": 0.999998987, "yes": 177, "no": 178, "missing": 178, "children": [
                { "nodeid": 177, "depth": 7, "split": 68, "split_condition": 0.0627441034, "yes": 351, "no": 352, "missing": 352, "children": [
                  { "nodeid": 351, "leaf": 0.272666186 },
                  { "nodeid": 352, "leaf": 0.00413883943 }
                ]},
                { "nodeid": 178, "depth": 7, "split": 63, "split_condition": 0.164704889, "yes": 353, "no": 354, "missing": 354, "children": [
                  { "nodeid": 353, "leaf": -0.226720035 },
                  { "nodeid": 354, "leaf": 0.217432931 }
                ]}
              ]}
            ]},
            { "nodeid": 44, "depth": 5, "split": 68, "split_condition": 0.0627441034, "yes": 89, "no": 90, "missing": 90, "children": [
              { "nodeid": 89, "depth": 6, "split": 53, "split_condition": 0.999998987, "yes": 179, "no": 180, "missing": 180, "children": [
                { "nodeid": 179, "depth": 7, "split": 67, "split_condition": 0.129410774, "yes": 355, "no": 356, "missing": 356, "children": [
                  { "nodeid": 355, "leaf": 0.327373803 },
                  { "nodeid": 356, "leaf": 0.480529875 }
                ]},
                { "nodeid": 180, "depth": 7, "split": 48, "split_condition": 0.999998987, "yes": 357, "no": 358, "missing": 358, "children": [
                  { "nodeid": 357, "leaf": 0.282879412 },
                  { "nodeid": 358, "leaf": -0.0155392801 }
                ]}
              ]},
              { "nodeid": 90, "depth": 6, "split": 66, "split_condition": 0.0705872402, "yes": 181, "no": 182, "missing": 182, "children": [
                { "nodeid": 181, "depth": 7, "split": 67, "split_condition": 0.129410774, "yes": 359, "no": 360, "missing": 360, "children": [
                  { "nodeid": 359, "leaf": 0.0166915841 },
                  { "nodeid": 360, "leaf": 0.247023836 }
                ]},
                { "nodeid": 182, "depth": 7, "split": 67, "split_condition": 0.129410774, "yes": 361, "no": 362, "missing": 362, "children": [
                  { "nodeid": 361, "leaf": -0.224716201 },
                  { "nodeid": 362, "leaf": -0.00153493916 }
                ]}
              ]}
            ]}
          ]},
          { "nodeid": 22, "depth": 4, "split": 49, "split_condition": 0.999998987, "yes": 45, "no": 46, "missing": 46, "children": [
            { "nodeid": 45, "depth": 5, "split": 35, "split_condition": 0.999998987, "yes": 91, "no": 92, "missing": 92, "children": [
              { "nodeid": 91, "depth": 6, "split": 65, "split_condition": 0.164704889, "yes": 183, "no": 184, "missing": 184, "children": [
                { "nodeid": 183, "depth": 7, "split": 69, "split_condition": 0.231371552, "yes": 363, "no": 364, "missing": 364, "children": [
                  { "nodeid": 363, "leaf": -0.514454246 },
                  { "nodeid": 364, "leaf": -0.264319181 }
                ]},
                { "nodeid": 184, "depth": 7, "split": 50, "split_condition": 0.999998987, "yes": 365, "no": 366, "missing": 366, "children": [
                  { "nodeid": 365, "leaf": -0.498944908 },
                  { "nodeid": 366, "leaf": 0.00227463176 }
                ]}
              ]},
              { "nodeid": 92, "depth": 6, "split": 68, "split_condition": 0.0588225313, "yes": 185, "no": 186, "missing": 186, "children": [
                { "nodeid": 185, "depth": 7, "split": 31, "split_condition": 0.999998987, "yes": 367, "no": 368, "missing": 368, "children": [
                  { "nodeid": 367, "leaf": 0.256357133 },
                  { "nodeid": 368, "leaf": -0.178830519 }
                ]},
                { "nodeid": 186, "depth": 7, "split": 64, "split_condition": 0.0745088086, "yes": 369, "no": 370, "missing": 370, "children": [
                  { "nodeid": 369, "leaf": -0.114573896 },
                  { "nodeid": 370, "leaf": -0.355758727 }
                ]}
              ]}
            ]},
            { "nodeid": 46, "depth": 5, "split": 64, "split_condition": 0.180391163, "yes": 93, "no": 94, "missing": 94, "children": [
              { "nodeid": 93, "depth": 6, "split": 68, "split_condition": 0.0588225313, "yes": 187, "no": 188, "missing": 188, "children": [
                { "nodeid": 187, "depth": 7, "split": 67, "split_condition": 0.129410774, "yes": 371, "no": 372, "missing": 372, "children": [
                  { "nodeid": 371, "leaf": -0.227586553 },
                  { "nodeid": 372, "leaf": 0.133939028 }
                ]},
                { "nodeid": 188, "depth": 7, "split": 85, "split_condition": 0.109802924, "yes": 373, "no": 374, "missing": 374, "children": [
                  { "nodeid": 373, "leaf": -0.39145416 },
                  { "nodeid": 374, "leaf": -0.108050793 }
                ]}
              ]},
              { "nodeid": 94, "depth": 6, "split": 68, "split_condition": 0.105881356, "yes": 189, "no": 190, "missing": 190, "children": [
                { "nodeid": 189, "depth": 7, "split": 65, "split_condition": 0.0784303769, "yes": 375, "no": 376, "missing": 376, "children": [
                  { "nodeid": 375, "leaf": 0.467882812 },
                  { "nodeid": 376, "leaf": 0.237305641 }
                ]},
                { "nodeid": 190, "leaf": -0.114280187 }
              ]}
            ]}
          ]}
        ]}
      ]}
    ]},
    { "nodeid": 2, "depth": 1, "split": 67, "split_condition": 0.192155868, "yes": 5, "no": 6, "missing": 6, "children": [
      { "nodeid": 5, "depth": 2, "split": 51, "split_condition": 0.999998987, "yes": 11, "no": 12, "missing": 12, "children": [
        { "nodeid": 11, "depth": 3, "split": 6, "split_condition": 0.999998987, "yes": 23, "no": 24, "missing": 24, "children": [
          { "nodeid": 23, "depth": 4, "split": 67, "split_condition": 0.164704889, "yes": 47, "no": 48, "missing": 48, "children": [
            { "nodeid": 47, "depth": 5, "split": 23, "split_condition": 0.999998987, "yes": 95, "no": 96, "missing": 96, "children": [
              { "nodeid": 95, "depth": 6, "split": 83, "split_condition": 0.0862735137, "yes": 191, "no": 192, "missing": 192, "children": [
                { "nodeid": 191, "depth": 7, "split": 48, "split_condition": 0.999998987, "yes": 377, "no": 378, "missing": 378, "children": [
                  { "nodeid": 377, "leaf": 0.228608027 },
                  { "nodeid": 378, "leaf": -0.126679033 }
                ]},
                { "nodeid": 192, "depth": 7, "split": 21, "split_condition": 0.999998987, "yes": 379, "no": 380, "missing": 380, "children": [
                  { "nodeid": 379, "leaf": 0.265894711 },
                  { "nodeid": 380, "leaf": 0.459686577 }
                ]}
              ]},
              { "nodeid": 96, "depth": 6, "split": 49, "split_condition": 0.999998987, "yes": 193, "no": 194, "missing": 194, "children": [
                { "nodeid": 193, "depth": 7, "split": 35, "split_condition": 0.999998987, "yes": 381, "no": 382, "missing": 382, "children": [
                  { "nodeid": 381, "leaf": -0.176788583 },
                  { "nodeid": 382, "leaf": 0.219568074 }
                ]},
                { "nodeid": 194, "depth": 7, "split": 64, "split_condition": 0.141175479, "yes": 383, "no": 384, "missing": 384, "children": [
                  { "nodeid": 383, "leaf": 0.13882108 },
                  { "nodeid": 384, "leaf": 0.474991053 }
                ]}
              ]}
            ]},
            { "nodeid": 48, "depth": 5, "split": 66, "split_condition": 0.105881356, "yes": 97, "no": 98, "missing": 98, "children": [
              { "nodeid": 97, "depth": 6, "split": 23, "split_condition": 0.999998987, "yes": 195, "no": 196, "missing": 196, "children": [
                { "nodeid": 195, "depth": 7, "split": 83, "split_condition": 0.0745088086, "yes": 385, "no": 386, "missing": 386, "children": [
                  { "nodeid": 385, "leaf": 0.383097798 },
                  { "nodeid": 386, "leaf": 0.515941441 }
                ]},
                { "nodeid": 196, "depth": 7, "split": 49, "split_condition": 0.999998987, "yes": 387, "no": 388, "missing": 388, "children": [
                  { "nodeid": 387, "leaf": 0.239481151 },
                  { "nodeid": 388, "leaf": 0.49584505 }
                ]}
              ]},
              { "nodeid": 98, "depth": 6, "split": 68, "split_condition": 0.0745088086, "yes": 197, "no": 198, "missing": 198, "children": [
                { "nodeid": 197, "depth": 7, "split": 48, "split_condition": 0.999998987, "yes": 389, "no": 390, "missing": 390, "children": [
                  { "nodeid": 389, "leaf": 0.405367911 },
                  { "nodeid": 390, "leaf": 0.163929626 }
                ]},
                { "nodeid": 198, "depth": 7, "split": 70, "split_condition": 0.0705872402, "yes": 391, "no": 392, "missing": 392, "children": [
                  { "nodeid": 391, "leaf": 0.224116564 },
                  { "nodeid": 392, "leaf": 0.0156149976 }
                ]}
              ]}
            ]}
          ]},
          { "nodeid": 24, "depth": 4, "split": 20, "split_condition": 0.999998987, "yes": 49, "no": 50, "missing": 50, "children": [
            { "nodeid": 49, "depth": 5, "split": 48, "split_condition": 0.999998987, "yes": 99, "no": 100, "missing": 100, "children": [
              { "nodeid": 99, "depth": 6, "split": 67, "split_condition": 0.164704889, "yes": 199, "no": 200, "missing": 200, "children": [
                { "nodeid": 199, "depth": 7, "split": 68, "split_condition": 0.0705872402, "yes": 393, "no": 394, "missing": 394, "children": [
                  { "nodeid": 393, "leaf": -0.00924915262 },
                  { "nodeid": 394, "leaf": -0.31508705 }
                ]},
                { "nodeid": 200, "depth": 7, "split": 68, "split_condition": 0.0745088086, "yes": 395, "no": 396, "missing": 396, "children": [
                  { "nodeid": 395, "leaf": 0.326338232 },
                  { "nodeid": 396, "leaf": -0.00976495259 }
                ]}
              ]},
              { "nodeid": 100, "depth": 6, "split": 49, "split_condition": 0.999998987, "yes": 201, "no": 202, "missing": 202, "children": [
                { "nodeid": 201, "depth": 7, "split": 50, "split_condition": 0.999998987, "yes": 397, "no": 398, "missing": 398, "children": [
                  { "nodeid": 397, "leaf": -0.322215825 },
                  { "nodeid": 398, "leaf": -0.506869018 }
                ]},
                { "nodeid": 202, "depth": 7, "split": 68, "split_condition": 0.0627441034, "yes": 399, "no": 400, "missing": 400, "children": [
                  { "nodeid": 399, "leaf": 0.116093449 },
                  { "nodeid": 400, "leaf": -0.307483852 }
                ]}
              ]}
            ]},
            { "nodeid": 50, "depth": 5, "split": 4, "split_condition": 0.999998987, "yes": 101, "no": 102, "missing": 102, "children": [
              { "nodeid": 101, "depth": 6, "split": 65, "split_condition": 0.0745088086, "yes": 203, "no": 204, "missing": 204, "children": [
                { "nodeid": 203, "depth": 7, "split": 34, "split_condition": 0.999998987, "yes": 401, "no": 402, "missing": 402, "children": [
                  { "nodeid": 401, "leaf": 0.509686887 },
                  { "nodeid": 402, "leaf": 0.312522501 }
                ]},
                { "nodeid": 204, "depth": 7, "split": 68, "split_condition": 0.105881356, "yes": 403, "no": 404, "missing": 404, "children": [
                  { "nodeid": 403, "leaf": 0.359885156 },
                  { "nodeid": 404, "leaf": 0.0472655594 }
                ]}
              ]},
              { "nodeid": 102, "depth": 6, "split": 48, "split_condition": 0.999998987, "yes": 205, "no": 206, "missing": 206, "children": [
                { "nodeid": 205, "depth": 7, "split": 63, "split_condition": 0.0627441034, "yes": 405, "no": 406, "missing": 406, "children": [
                  { "nodeid": 405, "leaf": 0.319585741 },
                  { "nodeid": 406, "leaf": -0.0614002384 }
                ]},
                { "nodeid": 206, "depth": 7, "split": 47, "split_condition": 0.999998987, "yes": 407, "no": 408, "missing": 408, "children": [
                  { "nodeid": 407, "leaf": -0.414641917 },
                  { "nodeid": 408, "leaf": -0.0552538075 }
                ]}
              ]}
            ]}
          ]}
        ]},
        { "nodeid": 12, "depth": 3, "split": 66, "split_condition": 0.223528415, "yes": 25, "no": 26, "missing": 26, "children": [
          { "nodeid": 25, "depth": 4, "split": 67, "split_condition": 0.164704889, "yes": 51, "no": 52, "missing": 52, "children": [
            { "nodeid": 51, "depth": 5, "split": 4, "split_condition": 0.999998987, "yes": 103, "no": 104, "missing": 104, "children": [
              { "nodeid": 103, "depth": 6, "split": 5, "split_condition": 0.999998987, "yes": 207, "no": 208, "missing": 208, "children": [
                { "nodeid": 207, "depth": 7, "split": 63, "split_condition": 0.0470578261, "yes": 409, "no": 410, "missing": 410, "children": [
                  { "nodeid": 409, "leaf": -0.0597247779 },
                  { "nodeid": 410, "leaf": -0.233683586 }
                ]},
                { "nodeid": 208, "depth": 7, "split": 46, "split_condition": 0.999998987, "yes": 411, "no": 412, "missing": 412, "children": [
                  { "nodeid": 411, "leaf": -0.487112463 },
                  { "nodeid": 412, "leaf": -0.339567035 }
                ]}
              ]},
              { "nodeid": 104, "depth": 6, "split": 48, "split_condition": 0.999998987, "yes": 209, "no": 210, "missing": 210, "children": [
                { "nodeid": 209, "depth": 7, "split": 64, "split_condition": 0.0470578261, "yes": 413, "no": 414, "missing": 414, "children": [
                  { "nodeid": 413, "leaf": -0.291831434 },
                  { "nodeid": 414, "leaf": -0.443020433 }
                ]},
                { "nodeid": 210, "depth": 7, "split": 47, "split_condition": 0.999998987, "yes": 415, "no": 416, "missing": 416, "children": [
                  { "nodeid": 415, "leaf": -0.568153024 },
                  { "nodeid": 416, "leaf": -0.429784447 }
                ]}
              ]}
            ]},
            { "nodeid": 52, "depth": 5, "split": 4, "split_condition": 0.999998987, "yes": 105, "no": 106, "missing": 106, "children": [
              { "nodeid": 105, "depth": 6, "split": 5, "split_condition": 0.999998987, "yes": 211, "no": 212, "missing": 212, "children": [
                { "nodeid": 211, "depth": 7, "split": 68, "split_condition": 0.0627441034, "yes": 417, "no": 418, "missing": 418, "children": [
                  { "nodeid": 417, "leaf": 0.189483121 },
                  { "nodeid": 418, "leaf": -0.0454109684 }
                ]},
                { "nodeid": 212, "depth": 7, "split": 48, "split_condition": 0.999998987, "yes": 419, "no": 420, "missing": 420, "children": [
                  { "nodeid": 419, "leaf": -0.185498804 },
                  { "nodeid": 420, "leaf": -0.458900988 }
                ]}
              ]},
              { "nodeid": 106, "depth": 6, "split": 48, "split_condition": 0.999998987, "yes": 213, "no": 214, "missing": 214, "children": [
                { "nodeid": 213, "depth": 7, "split": 63, "split_condition": 0.0666656718, "yes": 421, "no": 422, "missing": 422, "children": [
                  { "nodeid": 421, "leaf": -0.0488810204 },
                  { "nodeid": 422, "leaf": -0.339130104 }
                ]},
                { "nodeid": 214, "depth": 7, "split": 47, "split_condition": 0.999998987, "yes": 423, "no": 424, "missing": 424, "children": [
                  { "nodeid": 423, "leaf": -0.50055021 },
                  { "nodeid": 424, "leaf": -0.286296844 }
                ]}
              ]}
            ]}
          ]},
          { "nodeid": 26, "depth": 4, "split": 50, "split_condition": 0.999998987, "yes": 53, "no": 54, "missing": 54, "children": [
            { "nodeid": 53, "depth": 5, "split": 68, "split_condition": 0.0901950821, "yes": 107, "no": 108, "missing": 108, "children": [
              { "nodeid": 107, "depth": 6, "split": 66, "split_condition": 0.294116646, "yes": 215, "no": 216, "missing": 216, "children": [
                { "nodeid": 215, "depth": 7, "split": 5, "split_condition": 0.999998987, "yes": 425, "no": 426, "missing": 426, "children": [
                  { "nodeid": 425, "leaf": 0.416048259 },
                  { "nodeid": 426, "leaf": 0.203938037 }
                ]},
                { "nodeid": 216, "depth": 7, "split": 5, "split_condition": 0.999998987, "yes": 427, "no": 428, "missing": 428, "children": [
                  { "nodeid": 427, "leaf": 0.50371027 },
                  { "nodeid": 428, "leaf": 0.423235446 }
                ]}
              ]},
              { "nodeid": 108, "depth": 6, "split": 5, "split_condition": 0.999998987, "yes": 217, "no": 218, "missing": 218, "children": [
                { "nodeid": 217, "depth": 7, "split": 74, "split_condition": 0.0627441034, "yes": 429, "no": 430, "missing": 430, "children": [
                  { "nodeid": 429, "leaf": 0.462896287 },
                  { "nodeid": 430, "leaf": 0.26347369 }
                ]},
                { "nodeid": 218, "depth": 7, "split": 64, "split_condition": 0.0980382189, "yes": 431, "no": 432, "missing": 432, "children": [
                  { "nodeid": 431, "leaf": 0.189124748 },
                  { "nodeid": 432, "leaf": -0.17949754 }
                ]}
              ]}
            ]},
            { "nodeid": 54, "depth": 5, "split": 68, "split_condition": 0.0705872402, "yes": 109, "no": 110, "missing": 110, "children": [
              { "nodeid": 109, "depth": 6, "split": 4, "split_condition": 0.999998987, "yes": 219, "no": 220, "missing": 220, "children": [
                { "nodeid": 219, "depth": 7, "split": 73, "split_condition": 0.0784303769, "yes": 433, "no": 434, "missing": 434, "children": [
                  { "nodeid": 433, "leaf": 0.307568312 },
                  { "nodeid": 434, "leaf": 0.0632130951 }
                ]},
                { "nodeid": 220, "depth": 7, "split": 63, "split_condition": 0.0745088086, "yes": 435, "no": 436, "missing": 436, "children": [
                  { "nodeid": 435, "leaf": 0.0288354699 },
                  { "nodeid": 436, "leaf": -0.304211855 }
                ]}
              ]},
              { "nodeid": 110, "depth": 6, "split": 63, "split_condition": 0.0705872402, "yes": 221, "no": 222, "missing": 222, "children": [
                { "nodeid": 221, "depth": 7, "split": 65, "split_condition": 0.188234299, "yes": 437, "no": 438, "missing": 438, "children": [
                  { "nodeid": 437, "leaf": -0.0823737532 },
                  { "nodeid": 438, "leaf": 0.208750352 }
                ]},
                { "nodeid": 222, "depth": 7, "split": 65, "split_condition": 0.286273509, "yes": 439, "no": 440, "missing": 440, "children": [
                  { "nodeid": 439, "leaf": -0.341944873 },
                  { "nodeid": 440, "leaf": -0.0577950254 }
                ]}
              ]}
            ]}
          ]}
        ]}
      ]},
      { "nodeid": 6, "depth": 2, "split": 67, "split_condition": 0.243136257, "yes": 13, "no": 14, "missing": 14, "children": [
        { "nodeid": 13, "depth": 3, "split": 51, "split_condition": 0.999998987, "yes": 27, "no": 28, "missing": 28, "children": [
          { "nodeid": 27, "depth": 4, "split": 48, "split_condition": 0.999998987, "yes": 55, "no": 56, "missing": 56, "children": [
            { "nodeid": 55, "depth": 5, "split": 68, "split_condition": 0.101959787, "yes": 111, "no": 112, "missing": 112, "children": [
              { "nodeid": 111, "depth": 6, "split": 4, "split_condition": 0.999998987, "yes": 223, "no": 224, "missing": 224, "children": [
                { "nodeid": 223, "depth": 7, "split": 66, "split_condition": 0.156861752, "yes": 441, "no": 442, "missing": 442, "children": [
                  { "nodeid": 441, "leaf": 0.565451443 },
                  { "nodeid": 442, "leaf": 0.497685194 }
                ]},
                { "nodeid": 224, "depth": 7, "split": 63, "split_condition": 0.0941166505, "yes": 443, "no": 444, "missing": 444, "children": [
                  { "nodeid": 443, "leaf": 0.52968657 },
                  { "nodeid": 444, "leaf": 0.400364876 }
                ]}
              ]},
              { "nodeid": 112, "depth": 6, "split": 66, "split_condition": 0.125489205, "yes": 225, "no": 226, "missing": 226, "children": [
                { "nodeid": 225, "depth": 7, "split": 63, "split_condition": 0.0784303769, "yes": 445, "no": 446, "missing": 446, "children": [
                  { "nodeid": 445, "leaf": 0.514124215 },
                  { "nodeid": 446, "leaf": 0.416192353 }
                ]},
                { "nodeid": 226, "depth": 7, "split": 63, "split_condition": 0.117646061, "yes": 447, "no": 448, "missing": 448, "children": [
                  { "nodeid": 447, "leaf": 0.366375178 },
                  { "nodeid": 448, "leaf": 0.0756383166 }
                ]}
              ]}
            ]},
            { "nodeid": 56, "depth": 5, "split": 4, "split_condition": 0.999998987, "yes": 113, "no": 114, "missing": 114, "children": [
              { "nodeid": 113, "depth": 6, "split": 63, "split_condition": 0.176469594, "yes": 227, "no": 228, "missing": 228, "children": [
                { "nodeid": 227, "depth": 7, "split": 49, "split_condition": 0.999998987, "yes": 449, "no": 450, "missing": 450, "children": [
                  { "nodeid": 449, "leaf": 0.360476553 },
                  { "nodeid": 450, "leaf": 0.523871005 }
                ]},
                { "nodeid": 228, "depth": 7, "split": 66, "split_condition": 0.176469594, "yes": 451, "no": 452, "missing": 452, "children": [
                  { "nodeid": 451, "leaf": 0.561546981 },
                  { "nodeid": 452, "leaf": 0.345820248 }
                ]}
              ]},
              { "nodeid": 114, "depth": 6, "split": 6, "split_condition": 0.999998987, "yes": 229, "no": 230, "missing": 230, "children": [
                { "nodeid": 229, "depth": 7, "split": 23, "split_condition": 0.999998987, "yes": 453, "no": 454, "missing": 454, "children": [
                  { "nodeid": 453, "leaf": 0.391352296 },
                  { "nodeid": 454, "leaf": 0.0861098319 }
                ]},
                { "nodeid": 230, "depth": 7, "split": 50, "split_condition": 0.999998987, "yes": 455, "no": 456, "missing": 456, "children": [
                  { "nodeid": 455, "leaf": 0.215966061 },
                  { "nodeid": 456, "leaf": -0.527944028 }
                ]}
              ]}
            ]}
          ]},
          { "nodeid": 28, "depth": 4, "split": 48, "split_condition": 0.999998987, "yes": 57, "no": 58, "missing": 58, "children": [
            { "nodeid": 57, "depth": 5, "split": 68, "split_condition": 0.0745088086, "yes": 115, "no": 116, "missing": 116, "children": [
              { "nodeid": 115, "depth": 6, "split": 83, "split_condition": 0.101959787, "yes": 231, "no": 232, "missing": 232, "children": [
                { "nodeid": 231, "depth": 7, "split": 66, "split_condition": 0.223528415, "yes": 457, "no": 458, "missing": 458, "children": [
                  { "nodeid": 457, "leaf": 0.243723959 },
                  { "nodeid": 458, "leaf": 0.462741405 }
                ]},
                { "nodeid": 232, "depth": 7, "split": 63, "split_condition": 0.0862735137, "yes": 459, "no": 460, "missing": 460, "children": [
                  { "nodeid": 459, "leaf": 0.478402525 },
                  { "nodeid": 460, "leaf": 0.336780071 }
                ]}
              ]},
              { "nodeid": 116, "depth": 6, "split": 63, "split_condition": 0.0784303769, "yes": 233, "no": 234, "missing": 234, "children": [
                { "nodeid": 233, "depth": 7, "split": 66, "split_condition": 0.258822531, "yes": 461, "no": 462, "missing": 462, "children": [
                  { "nodeid": 461, "leaf": 0.22929804 },
                  { "nodeid": 462, "leaf": 0.456134796 }
                ]},
                { "nodeid": 234, "depth": 7, "split": 66, "split_condition": 0.294116646, "yes": 463, "no": 464, "missing": 464, "children": [
                  { "nodeid": 463, "leaf": -0.0354391783 },
                  { "nodeid": 464, "leaf": 0.281952053 }
                ]}
              ]}
            ]},
            { "nodeid": 58, "depth": 5, "split": 4, "split_condition": 0.999998987, "yes": 117, "no": 118, "missing": 118, "children": [
              { "nodeid": 117, "depth": 6, "split": 5, "split_condition": 0.999998987, "yes": 235, "no": 236, "missing": 236, "children": [
                { "nodeid": 235, "depth": 7, "split": 83, "split_condition": 0.133332342, "yes": 465, "no": 466, "missing": 466, "children": [
                  { "nodeid": 465, "leaf": 0.18922402 },
                  { "nodeid": 466, "leaf": 0.380359739 }
                ]},
                { "nodeid": 236, "depth": 7, "split": 49, "split_condition": 0.999998987, "yes": 467, "no": 468, "missing": 468, "children": [
                  { "nodeid": 467, "leaf": -0.323533773 },
                  { "nodeid": 468, "leaf": 0.107368164 }
                ]}
              ]},
              { "nodeid": 118, "depth": 6, "split": 32, "split_condition": 0.999998987, "yes": 237, "no": 238, "missing": 238, "children": [
                { "nodeid": 237, "depth": 7, "split": 64, "split_condition": 0.0627441034, "yes": 469, "no": 470, "missing": 470, "children": [
                  { "nodeid": 469, "leaf": 0.0323726311 },
                  { "nodeid": 470, "leaf": -0.214837044 }
                ]},
                { "nodeid": 238, "depth": 7, "split": 66, "split_condition": 0.156861752, "yes": 471, "no": 472, "missing": 472, "children": [
                  { "nodeid": 471, "leaf": -0.541535795 },
                  { "nodeid": 472, "leaf": -0.373019218 }
                ]}
              ]}
            ]}
          ]}
        ]},
        { "nodeid": 14, "depth": 3, "split": 51, "split_condition": 0.999998987, "yes": 29, "no": 30, "missing": 30, "children": [
          { "nodeid": 29, "depth": 4, "split": 48, "split_condition": 0.999998987, "yes": 59, "no": 60, "missing": 60, "children": [
            { "nodeid": 59, "depth": 5, "split": 68, "split_condition": 0.141175479, "yes": 119, "no": 120, "missing": 120, "children": [
              { "nodeid": 119, "depth": 6, "split": 67, "split_condition": 0.274508804, "yes": 239, "no": 240, "missing": 240, "children": [
                { "nodeid": 239, "depth": 7, "split": 66, "split_condition": 0.192155868, "yes": 473, "no": 474, "missing": 474, "children": [
                  { "nodeid": 473, "leaf": 0.576735914 },
                  { "nodeid": 474, "leaf": 0.528571784 }
                ]},
                { "nodeid": 240, "depth": 7, "split": 66, "split_condition": 0.258822531, "yes": 475, "no": 476, "missing": 476, "children": [
                  { "nodeid": 475, "leaf": 0.587526083 },
                  { "nodeid": 476, "leaf": 0.569665432 }
                ]}
              ]},
              { "nodeid": 120, "depth": 6, "split": 84, "split_condition": 0.0823519453, "yes": 241, "no": 242, "missing": 242, "children": [
                { "nodeid": 241, "depth": 7, "split": 67, "split_condition": 0.290195078, "yes": 477, "no": 478, "missing": 478, "children": [
                  { "nodeid": 477, "leaf": 0.474381864 },
                  { "nodeid": 478, "leaf": 0.546076417 }
                ]},
                { "nodeid": 242, "depth": 7, "split": 63, "split_condition": 0.13725391, "yes": 479, "no": 480, "missing": 480, "children": [
                  { "nodeid": 479, "leaf": 0.574379742 },
                  { "nodeid": 480, "leaf": 0.544306397 }
                ]}
              ]}
            ]},
            { "nodeid": 60, "depth": 5, "split": 83, "split_condition": 0.0745088086, "yes": 121, "no": 122, "missing": 122, "children": [
              { "nodeid": 121, "depth": 6, "split": 4, "split_condition": 0.999998987, "yes": 243, "no": 244, "missing": 244, "children": [
                { "nodeid": 243, "depth": 7, "split": 67, "split_condition": 0.286273509, "yes": 481, "no": 482, "missing": 482, "children": [
                  { "nodeid": 481, "leaf": 0.489554733 },
                  { "nodeid": 482, "leaf": 0.551886976 }
                ]},
                { "nodeid": 244, "depth": 7, "split": 50, "split_condition": 0.999998987, "yes": 483, "no": 484, "missing": 484, "children": [
                  { "nodeid": 483, "leaf": 0.519464254 },
                  { "nodeid": 484, "leaf": 0.286617726 }
                ]}
              ]},
              { "nodeid": 122, "depth": 6, "split": 63, "split_condition": 0.192155868, "yes": 245, "no": 246, "missing": 246, "children": [
                { "nodeid": 245, "depth": 7, "split": 49, "split_condition": 0.999998987, "yes": 485, "no": 486, "missing": 486, "children": [
                  { "nodeid": 485, "leaf": 0.54314512 },
                  { "nodeid": 486, "leaf": 0.580132306 }
                ]},
                { "nodeid": 246, "depth": 7, "split": 4, "split_condition": 0.999998987, "yes": 487, "no": 488, "missing": 488, "children": [
                  { "nodeid": 487, "leaf": 0.587753057 },
                  { "nodeid": 488, "leaf": 0.563973188 }
                ]}
              ]}
            ]}
          ]},
          { "nodeid": 30, "depth": 4, "split": 53, "split_condition": 0.999998987, "yes": 61, "no": 62, "missing": 62, "children": [
            { "nodeid": 61, "depth": 5, "split": 68, "split_condition": 0.176469594, "yes": 123, "no": 124, "missing": 124, "children": [
              { "nodeid": 123, "depth": 6, "split": 67, "split_condition": 0.286273509, "yes": 247, "no": 248, "missing": 248, "children": [
                { "nodeid": 247, "depth": 7, "split": 48, "split_condition": 0.999998987, "yes": 489, "no": 490, "missing": 490, "children": [
                  { "nodeid": 489, "leaf": 0.52498734 },
                  { "nodeid": 490, "leaf": 0.404924572 }
                ]},
                { "nodeid": 248, "depth": 7, "split": 8, "split_condition": 0.999998987, "yes": 491, "no": 492, "missing": 492, "children": [
                  { "nodeid": 491, "leaf": 0.570107877 },
                  { "nodeid": 492, "leaf": 0.488770992 }
                ]}
              ]},
              { "nodeid": 124, "depth": 6, "split": 67, "split_condition": 0.301959783, "yes": 249, "no": 250, "missing": 250, "children": [
                { "nodeid": 249, "depth": 7, "split": 68, "split_condition": 0.266665667, "yes": 493, "no": 494, "missing": 494, "children": [
                  { "nodeid": 493, "leaf": 0.294507802 },
                  { "nodeid": 494, "leaf": 0.114929087 }
                ]},
                { "nodeid": 250, "depth": 7, "split": 8, "split_condition": 0.999998987, "yes": 495, "no": 496, "missing": 496, "children": [
                  { "nodeid": 495, "leaf": 0.491591901 },
                  { "nodeid": 496, "leaf": 0.314220667 }
                ]}
              ]}
            ]},
            { "nodeid": 62, "depth": 5, "split": 84, "split_condition": 0.149018615, "yes": 125, "no": 126, "missing": 126, "children": [
              { "nodeid": 125, "depth": 6, "split": 67, "split_condition": 0.301959783, "yes": 251, "no": 252, "missing": 252, "children": [
                { "nodeid": 251, "depth": 7, "split": 66, "split_condition": 0.247057825, "yes": 497, "no": 498, "missing": 498, "children": [
                  { "nodeid": 497, "leaf": 0.186484575 },
                  { "nodeid": 498, "leaf": 0.38407132 }
                ]},
                { "nodeid": 252, "depth": 7, "split": 45, "split_condition": 0.999998987, "yes": 499, "no": 500, "missing": 500, "children": [
                  { "nodeid": 499, "leaf": 0.436196506 },
                  { "nodeid": 500, "leaf": 0.313060254 }
                ]}
              ]},
              { "nodeid": 126, "depth": 6, "split": 67, "split_condition": 0.278430372, "yes": 253, "no": 254, "missing": 254, "children": [
                { "nodeid": 253, "depth": 7, "split": 69, "split_condition": 0.0745088086, "yes": 501, "no": 502, "missing": 502, "children": [
                  { "nodeid": 501, "leaf": 0.431593329 },
                  { "nodeid": 502, "leaf": 0.262942851 }
                ]},
                { "nodeid": 254, "depth": 7, "split": 69, "split_condition": 0.101959787, "yes": 503, "no": 504, "missing": 504, "children": [
                  { "nodeid": 503, "leaf": 0.524473965 },
                  { "nodeid": 504, "leaf": 0.421562046 }
                ]}
              ]}
            ]}
          ]}
        ]}
      ]}
    ]}
  ]},
  { "nodeid": 0, "depth": 0, "split": 67, "split_condition": 0.149018615, "yes": 1, "no": 2, "missing": 2, "children": [
    { "nodeid": 1, "depth": 1, "split": 67, "split_condition": 0.117646061, "yes": 3, "no": 4, "missing": 4, "children": [
      { "nodeid": 3, "depth": 2, "split": 66, "split_condition": 0.247057825, "yes": 7, "no": 8, "missing": 8, "children": [
        { "nodeid": 7, "depth": 3, "split": 67, "split_condition": 0.0980382189, "yes": 15, "no": 16, "missing": 16, "children": [
          { "nodeid": 15, "depth": 4, "split": 68, "split_condition": 0.215685278, "yes": 31, "no": 32, "missing": 32, "children": [
            { "nodeid": 31, "depth": 5, "split": 66, "split_condition": 0.156861752, "yes": 63, "no": 64, "missing": 64, "children": [
              { "nodeid": 63, "depth": 6, "split": 65, "split_condition": 0.247057825, "yes": 127, "no": 128, "missing": 128, "children": [
                { "nodeid": 127, "depth": 7, "split": 69, "split_condition": 0.262744099, "yes": 255, "no": 256, "missing": 256, "children": [
                  { "nodeid": 255, "leaf": -0.461160749 },
                  { "nodeid": 256, "leaf": -0.423102111 }
                ]},
                { "nodeid": 128, "depth": 7, "split": 50, "split_condition": 0.999998987, "yes": 257, "no": 258, "missing": 258, "children": [
                  { "nodeid": 257, "leaf": -0.459120214 },
                  { "nodeid": 258, "leaf": -0.366550982 }
                ]}
              ]},
              { "nodeid": 64, "depth": 6, "split": 51, "split_condition": 0.999998987, "yes": 129, "no": 130, "missing": 130, "children": [
                { "nodeid": 129, "depth": 7, "split": 21, "split_condition": 0.999998987, "yes": 259, "no": 260, "missing": 260, "children": [
                  { "nodeid": 259, "leaf": -0.457374811 },
                  { "nodeid": 260, "leaf": -0.442724228 }
                ]},
                { "nodeid": 130, "depth": 7, "split": 80, "split_condition": 0.0901950821, "yes": 261, "no": 262, "missing": 262, "children": [
                  { "nodeid": 261, "leaf": -0.402022094 },
                  { "nodeid": 262, "leaf": -0.278732032 }
                ]}
              ]}
            ]},
            { "nodeid": 32, "depth": 5, "split": 53, "split_condition": 0.999998987, "yes": 65, "no": 66, "missing": 66, "children": [
              { "nodeid": 65, "depth": 6, "split": 69, "split_condition": 0.329410762, "yes": 131, "no": 132, "missing": 132, "children": [
                { "nodeid": 131, "depth": 7, "split": 70, "split_condition": 0.368626446, "yes": 263, "no": 264, "missing": 264, "children": [
                  { "nodeid": 263, "leaf": -0.449060351 },
                  { "nodeid": 264, "leaf": -0.311493307 }
                ]},
                { "nodeid": 132, "depth": 7, "split": 54, "split_condition": 0.999998987, "yes": 265, "no": 266, "missing": 266, "children": [
                  { "nodeid": 265, "leaf": -0.422683865 },
                  { "nodeid": 266, "leaf": -0.264479667 }
                ]}
              ]},
              { "nodeid": 66, "depth": 6, "split": 21, "split_condition": 0.999998987, "yes": 133, "no": 134, "missing": 134, "children": [
                { "nodeid": 133, "depth": 7, "split": 67, "split_condition": 0.0705872402, "yes": 267, "no": 268, "missing": 268, "children": [
                  { "nodeid": 267, "leaf": -0.41212526 },
                  { "nodeid": 268, "leaf": -0.30359441 }
                ]},
                { "nodeid": 134, "depth": 7, "split": 67, "split_condition": 0.0627441034, "yes": 269, "no": 270, "missing": 270, "children": [
                  { "nodeid": 269, "leaf": -0.304860681 },
                  { "nodeid": 270, "leaf": -0.027790552 }
                ]}
              ]}
            ]}
          ]},
          { "nodeid": 16, "depth": 4, "split": 21, "split_condition": 0.999998987, "yes": 33, "no": 34, "missing": 34, "children": [
            { "nodeid": 33, "depth": 5, "split": 66, "split_condition": 0.168626457, "yes": 67, "no": 68, "missing": 68, "children": [
              { "nodeid": 67, "depth": 6, "split": 68, "split_condition": 0.266665667, "yes": 135, "no": 136, "missing": 136, "children": [
                { "nodeid": 135, "depth": 7, "split": 69, "split_condition": 0.247057825, "yes": 271, "no": 272, "missing": 272, "children": [
                  { "nodeid": 271, "leaf": -0.433473021 },
                  { "nodeid": 272, "leaf": -0.324111462 }
                ]},
                { "nodeid": 136, "depth": 7, "split": 53, "split_condition": 0.999998987, "yes": 273, "no": 274, "missing": 274, "children": [
                  { "nodeid": 273, "leaf": -0.405132383 },
                  { "nodeid": 274, "leaf": -0.133634686 }
                ]}
              ]},
              { "nodeid": 68, "depth": 6, "split": 51, "split_condition": 0.999998987, "yes": 137, "no": 138, "missing": 138, "children": [
                { "nodeid": 137, "depth": 7, "split": 69, "split_condition": 0.262744099, "yes": 275, "no": 276, "missing": 276, "children": [
                  { "nodeid": 275, "leaf": -0.422283173 },
                  { "nodeid": 276, "leaf": -0.298100144 }
                ]},
                { "nodeid": 138, "depth": 7, "split": 20, "split_condition": 0.999998987, "yes": 277, "no": 278, "missing": 278, "children": [
                  { "nodeid": 277, "leaf": -0.27108416 },
                  { "nodeid": 278, "leaf": 0.00528681418 }
                ]}
              ]}
            ]},
            { "nodeid": 34, "depth": 5, "split": 23, "split_condition": 0.999998987, "yes": 69, "no": 70, "missing": 70, "children": [
              { "nodeid": 69, "depth": 6, "split": 83, "split_condition": 0.121567629, "yes": 139, "no": 140, "missing": 140, "children": [
                { "nodeid": 139, "depth": 7, "split": 68, "split_condition": 0.266665667, "yes": 279, "no": 280, "missing": 280, "children": [
                  { "nodeid": 279, "leaf": -0.309728354 },
                  { "nodeid": 280, "leaf": 0.0241303798 }
                ]},
                { "nodeid": 140, "depth": 7, "split": 68, "split_condition": 0.0470578261, "yes": 281, "no": 282, "missing": 282, "children": [
                  { "nodeid": 281, "leaf": 0.0648749247 },
                  { "nodeid": 282, "leaf": -0.227527305 }
                ]}
              ]},
              { "nodeid": 70, "depth": 6, "split": 64, "split_condition": 0.180391163, "yes": 141, "no": 142, "missing": 142, "children": [
                { "nodeid": 141, "depth": 7, "split": 35, "split_condition": 0.999998987, "yes": 283, "no": 284, "missing": 284, "children": [
                  { "nodeid": 283, "leaf": -0.429650486 },
                  { "nodeid": 284, "leaf": -0.315942556 }
                ]},
                { "nodeid": 142, "depth": 7, "split": 49, "split_condition": 0.999998987, "yes": 285, "no": 286, "missing": 286, "children": [
                  { "nodeid": 285, "leaf": -0.421110183 },
                  { "nodeid": 286, "leaf": -0.0150565822 }
                ]}
              ]}
            ]}
          ]}
        ]},
        { "nodeid": 8, "depth": 3, "split": 51, "split_condition": 0.999998987, "yes": 17, "no": 18, "missing": 18, "children": [
          { "nodeid": 17, "depth": 4, "split": 67, "split_condition": 0.0901950821, "yes": 35, "no": 36, "missing": 36, "children": [
            { "nodeid": 35, "depth": 5, "split": 64, "split_condition": 0.294116646, "yes": 71, "no": 72, "missing": 72, "children": [
              { "nodeid": 71, "depth": 6, "split": 21, "split_condition": 0.999998987, "yes": 143, "no": 144, "missing": 144, "children": [
                { "nodeid": 143, "depth": 7, "split": 74, "split_condition": 0.101959787, "yes": 287, "no": 288, "missing": 288, "children": [
                  { "nodeid": 287, "leaf": -0.456921965 },
                  { "nodeid": 288, "leaf": -0.440078765 }
                ]},
                { "nodeid": 144, "depth": 7, "split": 82, "split_condition": 0.0823519453, "yes": 289, "no": 290, "missing": 290, "children": [
                  { "nodeid": 289, "leaf": -0.433108836 },
                  { "nodeid": 290, "leaf": -0.332833499 }
                ]}
              ]},
              { "nodeid": 72, "depth": 6, "split": 73, "split_condition": 0.0392146893, "yes": 145, "no": 146, "missing": 146, "children": [
                { "nodeid": 145, "depth": 7, "split": 71, "split_condition": 0.0666656718, "yes": 291, "no": 292, "missing": 292, "children": [
                  { "nodeid": 291, "leaf": -0.164292261 },
                  { "nodeid": 292, "leaf": -0.353417844 }
                ]},
                { "nodeid": 146, "depth": 7, "split": 60, "split_condition": 0.0392146893, "yes": 293, "no": 294, "missing": 294, "children": [
                  { "nodeid": 293, "leaf": -0.280007839 },
                  { "nodeid": 294, "leaf": -0.412881166 }
                ]}
              ]}
            ]},
            { "nodeid": 36, "depth": 5, "split": 21, "split_condition": 0.999998987, "yes": 73, "no": 74, "missing": 74, "children": [
              { "nodeid": 73, "depth": 6, "split": 60, "split_condition": 0.0274499804, "yes": 147, "no": 148, "missing": 148, "children": [
                { "nodeid": 147, "depth": 7, "split": 0, "split_condition": 0.999998987, "yes": 295, "no": 296, "missing": 296, "children": [
                  { "nodeid": 295, "leaf": -0.372104377 },
                  { "nodeid": 296, "leaf": -0.233332843 }
                ]},
                { "nodeid": 148, "depth": 7, "split": 68, "split_condition": 0.156861752, "yes": 297, "no": 298, "missing": 298, "children": [
                  { "nodeid": 297, "leaf": -0.424551398 },
                  { "nodeid": 298, "leaf": -0.372324198 }
                ]}
              ]},
              { "nodeid": 74, "depth": 6, "split": 84, "split_condition": 0.101959787, "yes": 149, "no": 150, "missing": 150, "children": [
                { "nodeid": 149, "depth": 7, "split": 17, "split_condition": 0.999998987, "yes": 299, "no": 300, "missing": 300, "children": [
                  { "nodeid": 299, "leaf": -0.3988249 },
                  { "nodeid": 300, "leaf": -0.277444363 }
                ]},
                { "nodeid": 150, "depth": 7, "split": 72, "split_condition": 0.0470578261, "yes": 301, "no": 302, "missing": 302, "children": [
                  { "nodeid": 301, "leaf": -0.0786185414 },
                  { "nodeid": 302, "leaf": -0.309791625 }
                ]}
              ]}
            ]}
          ]},
          { "nodeid": 18, "depth": 4, "split": 67, "split_condition": 0.0666656718, "yes": 37, "no": 38, "missing": 38, "children": [
            { "nodeid": 37, "depth": 5, "split": 80, "split_condition": 0.0980382189, "yes": 75, "no": 76, "missing": 76, "children": [
              { "nodeid": 75, "depth": 6, "split": 66, "split_condition": 0.294116646, "yes": 151, "no": 152, "missing": 152, "children": [
                { "nodeid": 151, "depth": 7, "split": 77, "split_condition": 0.101959787, "yes": 303, "no": 304, "missing": 304, "children": [
                  { "nodeid": 303, "leaf": -0.379305899 },
                  { "nodeid": 304, "leaf": -0.240526348 }
                ]},
                { "nodeid": 152, "depth": 7, "split": 72, "split_condition": 0.243136257, "yes": 305, "no": 306, "missing": 306, "children": [
                  { "nodeid": 305, "leaf": -0.229388043 },
                  { "nodeid": 306, "leaf": 0.0991374776 }
                ]}
              ]},
              { "nodeid": 76, "depth": 6, "split": 64, "split_condition": 0.180391163, "yes": 153, "no": 154, "missing": 154, "children": [
                { "nodeid": 153, "depth": 7, "split": 67, "split_condition": 0.0509793945, "yes": 307, "no": 308, "missing": 308, "children": [
                  { "nodeid": 307, "leaf": -0.255486101 },
                  { "nodeid": 308, "leaf": -0.0380791053 }
                ]},
                { "nodeid": 154, "depth": 7, "split": 68, "split_condition": 0.0901950821, "yes": 309, "no": 310, "missing": 310, "children": [
                  { "nodeid": 309, "leaf": 0.218965292 },
                  { "nodeid": 310, "leaf": -0.2200533 }
                ]}
              ]}
            ]},
            { "nodeid": 38, "depth": 5, "split": 50, "split_condition": 0.999998987, "yes": 77, "no": 78, "missing": 78, "children": [
              { "nodeid": 77, "depth": 6, "split": 5, "split_condition": 0.999998987, "yes": 155, "no": 156, "missing": 156, "children": [
                { "nodeid": 155, "depth": 7, "split": 4, "split_condition": 0.999998987, "yes": 311, "no": 312, "missing": 312, "children": [
                  { "nodeid": 311, "leaf": 0.246554971 },
                  { "nodeid": 312, "leaf": 0.0173126254 }
                ]},
                { "nodeid": 156, "depth": 7, "split": 49, "split_condition": 0.999998987, "yes": 313, "no": 314, "missing": 314, "children": [
                  { "nodeid": 313, "leaf": 0.0694038048 },
                  { "nodeid": 314, "leaf": -0.229669854 }
                ]}
              ]},
              { "nodeid": 78, "depth": 6, "split": 65, "split_condition": 0.176469594, "yes": 157, "no": 158, "missing": 158, "children": [
                { "nodeid": 157, "depth": 7, "split": 38, "split_condition": 0.999998987, "yes": 315, "no": 316, "missing": 316, "children": [
                  { "nodeid": 315, "leaf": -0.372520298 },
                  { "nodeid": 316, "leaf": -0.183815673 }
                ]},
                { "nodeid": 158, "depth": 7, "split": 64, "split_condition": 0.0823519453, "yes": 317, "no": 318, "missing": 318, "children": [
                  { "nodeid": 317, "leaf": 0.123501658 },
                  { "nodeid": 318, "leaf": -0.190631524 }
                ]}
              ]}
            ]}
          ]}
        ]}
      ]},
      { "nodeid": 4, "depth": 2, "split": 21, "split_condition": 0.999998987, "yes": 9, "no": 10, "missing": 10, "children": [
        { "nodeid": 9, "depth": 3, "split": 66, "split_condition": 0.258822531, "yes": 19, "no": 20, "missing": 20, "children": [
          { "nodeid": 19, "depth": 4, "split": 67, "split_condition": 0.133332342, "yes": 39, "no": 40, "missing": 40, "children": [
            { "nodeid": 39, "depth": 5, "split": 20, "split_condition": 0.999998987, "yes": 79, "no": 80, "missing": 80, "children": [
              { "nodeid": 79, "depth": 6, "split": 65, "split_condition": 0.192155868, "yes": 159, "no": 160, "missing": 160, "children": [
                { "nodeid": 159, "depth": 7, "split": 78, "split_condition": 0.113724492, "yes": 319, "no": 320, "missing": 320, "children": [
                  { "nodeid": 319, "leaf": -0.399664134 },
                  { "nodeid": 320, "leaf": -0.296624839 }
                ]},
                { "nodeid": 160, "depth": 7, "split": 50, "split_condition": 0.999998987, "yes": 321, "no": 322, "missing": 322, "children": [
                  { "nodeid": 321, "leaf": -0.413515866 },
                  { "nodeid": 322, "leaf": -0.00317593548 }
                ]}
              ]},
              { "nodeid": 80, "depth": 6, "split": 4, "split_condition": 0.999998987, "yes": 161, "no": 162, "missing": 162, "children": [
                { "nodeid": 161, "depth": 7, "split": 65, "split_condition": 0.0470578261, "yes": 323, "no": 324, "missing": 324, "children": [
                  { "nodeid": 323, "leaf": -0.081655398 },
                  { "nodeid": 324, "leaf": -0.296372086 }
                ]},
                { "nodeid": 162, "depth": 7, "split": 66, "split_condition": 0.180391163, "yes": 325, "no": 326, "missing": 326, "children": [
                  { "nodeid": 325, "leaf": -0.418585271 },
                  { "nodeid": 326, "leaf": -0.201784968 }
                ]}
              ]}
            ]},
            { "nodeid": 40, "depth": 5, "split": 48, "split_condition": 0.999998987, "yes": 81, "no": 82, "missing": 82, "children": [
              { "nodeid": 81, "depth": 6, "split": 63, "split_condition": 0.0549009629, "yes": 163, "no": 164, "missing": 164, "children": [
                { "nodeid": 163, "depth": 7, "split": 36, "split_condition": 0.999998987, "yes": 327, "no": 328, "missing": 328, "children": [
                  { "nodeid": 327, "leaf": -0.102512434 },
                  { "nodeid": 328, "leaf": 0.146586046 }
                ]},
                { "nodeid": 164, "depth": 7, "split": 4, "split_condition": 0.999998987, "yes": 329, "no": 330, "missing": 330, "children": [
                  { "nodeid": 329, "leaf": -0.191324726 },
                  { "nodeid": 330, "leaf": -0.363477141 }
                ]}
              ]},
              { "nodeid": 82, "depth": 6, "split": 63, "split_condition": 0.192155868, "yes": 165, "no": 166, "missing": 166, "children": [
                { "nodeid": 165, "depth": 7, "split": 49, "split_condition": 0.999998987, "yes": 331, "no": 332, "missing": 332, "children": [
                  { "nodeid": 331, "leaf": -0.40229401 },
                  { "nodeid": 332, "leaf": -0.200844735 }
                ]},
                { "nodeid": 166, "depth": 7, "split": 4, "split_condition": 0.999998987, "yes": 333, "no": 334, "missing": 334, "children": [
                  { "nodeid": 333, "leaf": 0.0686573312 },
                  { "nodeid": 334, "leaf": -0.408420354 }
                ]}
              ]}
            ]}
          ]},
          { "nodeid": 20, "depth": 4, "split": 51, "split_condition": 0.999998987, "yes": 41, "no": 42, "missing": 42, "children": [
            { "nodeid": 41, "depth": 5, "split": 63, "split_condition": 0.0666656718, "yes": 83, "no": 84, "missing": 84, "children": [
              { "nodeid": 83, "depth": 6, "split": 46, "split_condition": 0.999998987, "yes": 167, "no": 168, "missing": 168, "children": [
                { "nodeid": 167, "depth": 7, "split": 5, "split_condition": 0.999998987, "yes": 335, "no": 336, "missing": 336, "children": [
                  { "nodeid": 335, "leaf": -0.242620081 },
                  { "nodeid": 336, "leaf": -0.426891506 }
                ]},
                { "nodeid": 168, "depth": 7, "split": 61, "split_condition": 0.105881356, "yes": 337, "no": 338, "missing": 338, "children": [
                  { "nodeid": 337, "leaf": -0.275680453 },
                  { "nodeid": 338, "leaf": 0.192073062 }
                ]}
              ]},
              { "nodeid": 84, "depth": 6, "split": 73, "split_condition": 0.0588225313, "yes": 169, "no": 170, "missing": 170, "children": [
                { "nodeid": 169, "depth": 7, "split": 78, "split_condition": 0.113724492, "yes": 339, "no": 340, "missing": 340, "children": [
                  { "nodeid": 339, "leaf": -0.343868971 },
                  { "nodeid": 340, "leaf": -0.106250063 }
                ]},
                { "nodeid": 170, "depth": 7, "split": 77, "split_condition": 0.0823519453, "yes": 341, "no": 342, "missing": 342, "children": [
                  { "nodeid": 341, "leaf": -0.438917667 },
                  { "nodeid": 342, "leaf": -0.362707555 }
                ]}
              ]}
            ]},
            { "nodeid": 42, "depth": 5, "split": 50, "split_condition": 0.999998987, "yes": 85, "no": 86, "missing": 86, "children": [
              { "nodeid": 85, "depth": 6, "split": 68, "split_condition": 0.0901950821, "yes": 171, "no": 172, "missing": 172, "children": [
                { "nodeid": 171, "depth": 7, "split": 80, "split_condition": 0.0666656718, "yes": 343, "no": 344, "missing": 344, "children": [
                  { "nodeid": 343, "leaf": 0.247897282 },
                  { "nodeid": 344, "leaf": 0.357994407 }
                ]},
                { "nodeid": 172, "depth": 7, "split": 62, "split_condition": 0.0784303769, "yes": 345, "no": 346, "missing": 346, "children": [
                  { "nodeid": 345, "leaf": 0.240239158 },
                  { "nodeid": 346, "leaf": -0.015588508 }
                ]}
              ]},
              { "nodeid": 86, "depth": 6, "split": 83, "split_condition": 0.172548026, "yes": 173, "no": 174, "missing": 174, "children": [
                { "nodeid": 173, "depth": 7, "split": 62, "split_condition": 0.0901950821, "yes": 347, "no": 348, "missing": 348, "children": [
                  { "nodeid": 347, "leaf": -0.071690321 },
                  { "nodeid": 348, "leaf": -0.280082047 }
                ]},
                { "nodeid": 174, "depth": 7, "split": 65, "split_condition": 0.129410774, "yes": 349, "no": 350, "missing": 350, "children": [
                  { "nodeid": 349, "leaf": -0.102503046 },
                  { "nodeid": 350, "leaf": 0.196494639 }
                ]}
              ]}
            ]}
          ]}
        ]},
        { "nodeid": 10, "depth": 3, "split": 23, "split_condition": 0.999998987, "yes": 21, "no": 22, "missing": 22, "children": [
          { "nodeid": 21, "depth": 4, "split": 83, "split_condition": 0.0823519453, "yes": 43, "no": 44, "missing": 44, "children": [
            { "nodeid": 43, "depth": 5, "split": 49, "split_condition": 0.999998987, "yes": 87, "no": 88, "missing": 88, "children": [
              { "nodeid": 87, "depth": 6, "split": 64, "split_condition": 0.0823519453, "yes": 175, "no": 176, "missing": 176, "children": [
                { "nodeid": 175, "depth": 7, "split": 67, "split_condition": 0.133332342, "yes": 351, "no": 352, "missing": 352, "children": [
                  { "nodeid": 351, "leaf": -0.175619051 },
                  { "nodeid": 352, "leaf": 0.036099609 }
                ]},
                { "nodeid": 176, "depth": 7, "split": 35, "split_condition": 0.999998987, "yes": 353, "no": 354, "missing": 354, "children": [
                  { "nodeid": 353, "leaf": -0.318896919 },
                  { "nodeid": 354, "leaf": -0.106415831 }
                ]}
              ]},
              { "nodeid": 88, "depth": 6, "split": 64, "split_condition": 0.180391163, "yes": 177, "no": 178, "missing": 178, "children": [
                { "nodeid": 177, "depth": 7, "split": 65, "split_condition": 0.0549009629, "yes": 355, "no": 356, "missing": 356, "children": [
                  { "nodeid": 355, "leaf": 0.0823646411 },
                  { "nodeid": 356, "leaf": -0.179562673 }
                ]},
                { "nodeid": 178, "depth": 7, "split": 66, "split_condition": 0.156861752, "yes": 357, "no": 358, "missing": 358, "children": [
                  { "nodeid": 357, "leaf": 0.40698269 },
                  { "nodeid": 358, "leaf": -0.0990135372 }
                ]}
              ]}
            ]},
            { "nodeid": 44, "depth": 5, "split": 68, "split_condition": 0.0588225313, "yes": 89, "no": 90, "missing": 90, "children": [
              { "nodeid": 89, "depth": 6, "split": 53, "split_condition": 0.999998987, "yes": 179, "no": 180, "missing": 180, "children": [
                { "nodeid": 179, "depth": 7, "split": 67, "split_condition": 0.133332342, "yes": 359, "no": 360, "missing": 360, "children": [
                  { "nodeid": 359, "leaf": 0.240521759 },
                  { "nodeid": 360, "leaf": 0.37457794 }
                ]},
                { "nodeid": 180, "depth": 7, "split": 49, "split_condition": 0.999998987, "yes": 361, "no": 362, "missing": 362, "children": [
                  { "nodeid": 361, "leaf": -0.0194323361 },
                  { "nodeid": 362, "leaf": 0.270903915 }
                ]}
              ]},
              { "nodeid": 90, "depth": 6, "split": 67, "split_condition": 0.133332342, "yes": 181, "no": 182, "missing": 182, "children": [
                { "nodeid": 181, "depth": 7, "split": 84, "split_condition": 0.101959787, "yes": 363, "no": 364, "missing": 364, "children": [
                  { "nodeid": 363, "leaf": -0.140390486 },
                  { "nodeid": 364, "leaf": 0.0449521579 }
                ]},
                { "nodeid": 182, "depth": 7, "split": 66, "split_condition": 0.0862735137, "yes": 365, "no": 366, "missing": 366, "children": [
                  { "nodeid": 365, "leaf": 0.185740858 },
                  { "nodeid": 366, "leaf": -0.0346318446 }
                ]}
              ]}
            ]}
          ]},
          { "nodeid": 22, "depth": 4, "split": 49, "split_condition": 0.999998987, "yes": 45, "no": 46, "missing": 46, "children": [
            { "nodeid": 45, "depth": 5, "split": 35, "split_condition": 0.999998987, "yes": 91, "no": 92, "missing": 92, "children": [
              { "nodeid": 91, "depth": 6, "split": 65, "split_condition": 0.207842141, "yes": 183, "no": 184, "missing": 184, "children": [
                { "nodeid": 183, "depth": 7, "split": 3, "split_condition": 0.999998987, "yes": 367, "no": 368, "missing": 368, "children": [
                  { "nodeid": 367, "leaf": -0.404313266 },
                  { "nodeid": 368, "leaf": -0.249662384 }
                ]},
                { "nodeid": 184, "depth": 7, "split": 34, "split_condition": 0.999998987, "yes": 369, "no": 370, "missing": 370, "children": [
                  { "nodeid": 369, "leaf": -0.284577012 },
                  { "nodeid": 370, "leaf": 0.19729583 }
                ]}
              ]},
              { "nodeid": 92, "depth": 6, "split": 67, "split_condition": 0.133332342, "yes": 185, "no": 186, "missing": 186, "children": [
                { "nodeid": 185, "depth": 7, "split": 71, "split_condition": 0.0549009629, "yes": 371, "no": 372, "missing": 372, "children": [
                  { "nodeid": 371, "leaf": 0.0348725617 },
                  { "nodeid": 372, "leaf": -0.243795618 }
                ]},
                { "nodeid": 186, "depth": 7, "split": 68, "split_condition": 0.0901950821, "yes": 373, "no": 374, "missing": 374, "children": [
                  { "nodeid": 373, "leaf": 0.247222498 },
                  { "nodeid": 374, "leaf": -0.202283189 }
                ]}
              ]}
            ]},
            { "nodeid": 46, "depth": 5, "split": 64, "split_condition": 0.156861752, "yes": 93, "no": 94, "missing": 94, "children": [
              { "nodeid": 93, "depth": 6, "split": 67, "split_condition": 0.133332342, "yes": 187, "no": 188, "missing": 188, "children": [
                { "nodeid": 187, "depth": 7, "split": 68, "split_condition": 0.0352931209, "yes": 375, "no": 376, "missing": 376, "children": [
                  { "nodeid": 375, "leaf": -0.0685024038 },
                  { "nodeid": 376, "leaf": -0.302305669 }
                ]},
                { "nodeid": 188, "depth": 7, "split": 68, "split_condition": 0.0666656718, "yes": 377, "no": 378, "missing": 378, "children": [
                  { "nodeid": 377, "leaf": 0.147167787 },
                  { "nodeid": 378, "leaf": -0.18313165 }
                ]}
              ]},
              { "nodeid": 94, "depth": 6, "split": 68, "split_condition": 0.0627441034, "yes": 189, "no": 190, "missing": 190, "children": [
                { "nodeid": 189, "depth": 7, "split": 81, "split_condition": 0.0745088086, "yes": 379, "no": 380, "missing": 380, "children": [
                  { "nodeid": 379, "leaf": 0.148655757 },
                  { "nodeid": 380, "leaf": 0.372783542 }
                ]},
                { "nodeid": 190, "depth": 7, "split": 80, "split_condition": 0.105881356, "yes": 381, "no": 382, "missing": 382, "children": [
                  { "nodeid": 381, "leaf": -0.17181173 },
                  { "nodeid": 382, "leaf": 0.176538885 }
                ]}
              ]}
            ]}
          ]}
        ]}
      ]}
    ]},
    { "nodeid": 2, "depth": 1, "split": 67, "split_condition": 0.196077436, "yes": 5, "no": 6, "missing": 6, "children": [
      { "nodeid": 5, "depth": 2, "split": 51, "split_condition": 0.999998987, "yes": 11, "no": 12, "missing": 12, "children": [
        { "nodeid": 11, "depth": 3, "split": 83, "split_condition": 0.0745088086, "yes": 23, "no": 24, "missing": 24, "children": [
          { "nodeid": 23, "depth": 4, "split": 48, "split_condition": 0.999998987, "yes": 47, "no": 48, "missing": 48, "children": [
            { "nodeid": 47, "depth": 5, "split": 63, "split_condition": 0.0705872402, "yes": 95, "no": 96, "missing": 96, "children": [
              { "nodeid": 95, "depth": 6, "split": 4, "split_condition": 0.999998987, "yes": 191, "no": 192, "missing": 192, "children": [
                { "nodeid": 191, "depth": 7, "split": 68, "split_condition": 0.0823519453, "yes": 383, "no": 384, "missing": 384, "children": [
                  { "nodeid": 383, "leaf": 0.354315698 },
                  { "nodeid": 384, "leaf": 0.185712457 }
                ]},
                { "nodeid": 192, "depth": 7, "split": 6, "split_condition": 0.999998987, "yes": 385, "no": 386, "missing": 386, "children": [
                  { "nodeid": 385, "leaf": 0.217973679 },
                  { "nodeid": 386, "leaf": -0.0355929248 }
                ]}
              ]},
              { "nodeid": 96, "depth": 6, "split": 4, "split_condition": 0.999998987, "yes": 193, "no": 194, "missing": 194, "children": [
                { "nodeid": 193, "depth": 7, "split": 68, "split_condition": 0.0784303769, "yes": 387, "no": 388, "missing": 388, "children": [
                  { "nodeid": 387, "leaf": 0.226890549 },
                  { "nodeid": 388, "leaf": -0.0426039733 }
                ]},
                { "nodeid": 194, "depth": 7, "split": 6, "split_condition": 0.999998987, "yes": 389, "no": 390, "missing": 390, "children": [
                  { "nodeid": 389, "leaf": -0.0813542455 },
                  { "nodeid": 390, "leaf": -0.334615141 }
                ]}
              ]}
            ]},
            { "nodeid": 48, "depth": 5, "split": 80, "split_condition": 0.0823519453, "yes": 97, "no": 98, "missing": 98, "children": [
              { "nodeid": 97, "depth": 6, "split": 4, "split_condition": 0.999998987, "yes": 195, "no": 196, "missing": 196, "children": [
                { "nodeid": 195, "depth": 7, "split": 81, "split_condition": 0.0784303769, "yes": 391, "no": 392, "missing": 392, "children": [
                  { "nodeid": 391, "leaf": -0.283257723 },
                  { "nodeid": 392, "leaf": 0.00941225514 }
                ]},
                { "nodeid": 196, "depth": 7, "split": 21, "split_condition": 0.999998987, "yes": 393, "no": 394, "missing": 394, "children": [
                  { "nodeid": 393, "leaf": -0.408925086 },
                  { "nodeid": 394, "leaf": -0.163515314 }
                ]}
              ]},
              { "nodeid": 98, "depth": 6, "split": 63, "split_condition": 0.164704889, "yes": 197, "no": 198, "missing": 198, "children": [
                { "nodeid": 197, "depth": 7, "split": 68, "split_condition": 0.0470578261, "yes": 395, "no": 396, "missing": 396, "children": [
                  { "nodeid": 395, "leaf": 0.0875640884 },
                  { "nodeid": 396, "leaf": -0.146288961 }
                ]},
                { "nodeid": 198, "depth": 7, "split": 66, "split_condition": 0.105881356, "yes": 397, "no": 398, "missing": 398, "children": [
                  { "nodeid": 397, "leaf": 0.337457985 },
                  { "nodeid": 398, "leaf": -0.0720102116 }
                ]}
              ]}
            ]}
          ]},
          { "nodeid": 24, "depth": 4, "split": 48, "split_condition": 0.999998987, "yes": 49, "no": 50, "missing": 50, "children": [
            { "nodeid": 49, "depth": 5, "split": 68, "split_condition": 0.0784303769, "yes": 99, "no": 100, "missing": 100, "children": [
              { "nodeid": 99, "depth": 6, "split": 23, "split_condition": 0.999998987, "yes": 199, "no": 200, "missing": 200, "children": [
                { "nodeid": 199, "depth": 7, "split": 66, "split_condition": 0.109802924, "yes": 399, "no": 400, "missing": 400, "children": [
                  { "nodeid": 399, "leaf": 0.415543795 },
                  { "nodeid": 400, "leaf": 0.311228245 }
                ]},
                { "nodeid": 200, "depth": 7, "split": 4, "split_condition": 0.999998987, "yes": 401, "no": 402, "missing": 402, "children": [
                  { "nodeid": 401, "leaf": 0.336913496 },
                  { "nodeid": 402, "leaf": 0.123935245 }
                ]}
              ]},
              { "nodeid": 100, "depth": 6, "split": 23, "split_condition": 0.999998987, "yes": 201, "no": 202, "missing": 202, "children": [
                { "nodeid": 201, "depth": 7, "split": 66, "split_condition": 0.0941166505, "yes": 403, "no": 404, "missing": 404, "children": [
                  { "nodeid": 403, "leaf": 0.308835745 },
                  { "nodeid": 404, "leaf": 0.108756356 }
                ]},
                { "nodeid": 202, "depth": 7, "split": 5, "split_condition": 0.999998987, "yes": 405, "no": 406, "missing": 406, "children": [
                  { "nodeid": 405, "leaf": 0.0972269252 },
                  { "nodeid": 406, "leaf": -0.198647678 }
                ]}
              ]}
            ]},
            { "nodeid": 50, "depth": 5, "split": 63, "split_condition": 0.164704889, "yes": 101, "no": 102, "missing": 102, "children": [
              { "nodeid": 101, "depth": 6, "split": 49, "split_condition": 0.999998987, "yes": 203, "no": 204, "missing": 204, "children": [
                { "nodeid": 203, "depth": 7, "split": 38, "split_condition": 0.999998987, "yes": 407, "no": 408, "missing": 408, "children": [
                  { "nodeid": 407, "leaf": -0.155724138 },
                  { "nodeid": 408, "leaf": 0.158391282 }
                ]},
                { "nodeid": 204, "depth": 7, "split": 68, "split_condition": 0.0784303769, "yes": 409, "no": 410, "missing": 410, "children": [
                  { "nodeid": 409, "leaf": 0.336224139 },
                  { "nodeid": 410, "leaf": 0.0861861184 }
                ]}
              ]},
              { "nodeid": 102, "depth": 6, "split": 66, "split_condition": 0.0784303769, "yes": 205, "no": 206, "missing": 206, "children": [
                { "nodeid": 205, "depth": 7, "split": 4, "split_condition": 0.999998987, "yes": 411, "no": 412, "missing": 412, "children": [
                  { "nodeid": 411, "leaf": 0.42762658 },
                  { "nodeid": 412, "leaf": 0.233630136 }
                ]},
                { "nodeid": 206, "depth": 7, "split": 68, "split_condition": 0.0705872402, "yes": 413, "no": 414, "missing": 414, "children": [
                  { "nodeid": 413, "leaf": 0.364913166 },
                  { "nodeid": 414, "leaf": 0.0978683233 }
                ]}
              ]}
            ]}
          ]}
        ]},
        { "nodeid": 12, "depth": 3, "split": 66, "split_condition": 0.180391163, "yes": 25, "no": 26, "missing": 26, "children": [
          { "nodeid": 25, "depth": 4, "split": 81, "split_condition": 0.0588225313, "yes": 51, "no": 52, "missing": 52, "children": [
            { "nodeid": 51, "depth": 5, "split": 48, "split_condition": 0.999998987, "yes": 103, "no": 104, "missing": 104, "children": [
              { "nodeid": 103, "depth": 6, "split": 63, "split_condition": 0.0745088086, "yes": 207, "no": 208, "missing": 208, "children": [
                { "nodeid": 207, "depth": 7, "split": 31, "split_condition": 0.999998987, "yes": 415, "no": 416, "missing": 416, "children": [
                  { "nodeid": 415, "leaf": -0.0184136089 },
                  { "nodeid": 416, "leaf": -0.27289018 }
                ]},
                { "nodeid": 208, "depth": 7, "split": 80, "split_condition": 0.125489205, "yes": 417, "no": 418, "missing": 418, "children": [
                  { "nodeid": 417, "leaf": -0.286220819 },
                  { "nodeid": 418, "leaf": -0.0376893356 }
                ]}
              ]},
              { "nodeid": 104, "depth": 6, "split": 49, "split_condition": 0.999998987, "yes": 209, "no": 210, "missing": 210, "children": [
                { "nodeid": 209, "depth": 7, "split": 63, "split_condition": 0.250979394, "yes": 419, "no": 420, "missing": 420, "children": [
                  { "nodeid": 419, "leaf": -0.399844259 },
                  { "nodeid": 420, "leaf": -0.0612402111 }
                ]},
                { "nodeid": 210, "depth": 7, "split": 20, "split_condition": 0.999998987, "yes": 421, "no": 422, "missing": 422, "children": [
                  { "nodeid": 421, "leaf": -0.240038201 },
                  { "nodeid": 422, "leaf": 0.189073905 }
                ]}
              ]}
            ]},
            { "nodeid": 52, "depth": 5, "split": 4, "split_condition": 0.999998987, "yes": 105, "no": 106, "missing": 106, "children": [
              { "nodeid": 105, "depth": 6, "split": 71, "split_condition": 0.0549009629, "yes": 211, "no": 212, "missing": 212, "children": [
                { "nodeid": 211, "depth": 7, "split": 65, "split_condition": 0.176469594, "yes": 423, "no": 424, "missing": 424, "children": [
                  { "nodeid": 423, "leaf": 0.056939017 },
                  { "nodeid": 424, "leaf": 0.423168749 }
                ]},
                { "nodeid": 212, "depth": 7, "split": 73, "split_condition": 0.0588225313, "yes": 425, "no": 426, "missing": 426, "children": [
                  { "nodeid": 425, "leaf": 0.00871032942 },
                  { "nodeid": 426, "leaf": -0.172852486 }
                ]}
              ]},
              { "nodeid": 106, "depth": 6, "split": 48, "split_condition": 0.999998987, "yes": 213, "no": 214, "missing": 214, "children": [
                { "nodeid": 213, "depth": 7, "split": 64, "split_condition": 0.0627441034, "yes": 427, "no": 428, "missing": 428, "children": [
                  { "nodeid": 427, "leaf": -0.0363847688 },
                  { "nodeid": 428, "leaf": -0.255688459 }
                ]},
                { "nodeid": 214, "depth": 7, "split": 47, "split_condition": 0.999998987, "yes": 429, "no": 430, "missing": 430, "children": [
                  { "nodeid": 429, "leaf": -0.401039213 },
                  { "nodeid": 430, "leaf": -0.171145618 }
                ]}
              ]}
            ]}
          ]},
          { "nodeid": 26, "depth": 4, "split": 50, "split_condition": 0.999998987, "yes": 53, "no": 54, "missing": 54, "children": [
            { "nodeid": 53, "depth": 5, "split": 5, "split_condition": 0.999998987, "yes": 107, "no": 108, "missing": 108, "children": [
              { "nodeid": 107, "depth": 6, "split": 4, "split_condition": 0.999998987, "yes": 215, "no": 216, "missing": 216, "children": [
                { "nodeid": 215, "depth": 7, "split": 68, "split_condition": 0.0666656718, "yes": 431, "no": 432, "missing": 432, "children": [
                  { "nodeid": 431, "leaf": 0.406791389 },
                  { "nodeid": 432, "leaf": 0.299106061 }
                ]},
                { "nodeid": 216, "depth": 7, "split": 64, "split_condition": 0.101959787, "yes": 433, "no": 434, "missing": 434, "children": [
                  { "nodeid": 433, "leaf": 0.269845605 },
                  { "nodeid": 434, "leaf": -0.0409279317 }
                ]}
              ]},
              { "nodeid": 108, "depth": 6, "split": 66, "split_condition": 0.258822531, "yes": 217, "no": 218, "missing": 218, "children": [
                { "nodeid": 217, "depth": 7, "split": 68, "split_condition": 0.0627441034, "yes": 435, "no": 436, "missing": 436, "children": [
                  { "nodeid": 435, "leaf": 0.105348147 },
                  { "nodeid": 436, "leaf": -0.212822482 }
                ]},
                { "nodeid": 218, "depth": 7, "split": 64, "split_condition": 0.0941166505, "yes": 437, "no": 438, "missing": 438, "children": [
                  { "nodeid": 437, "leaf": 0.289208204 },
                  { "nodeid": 438, "leaf": 0.0623565279 }
                ]}
              ]}
            ]},
            { "nodeid": 54, "depth": 5, "split": 68, "split_condition": 0.0823519453, "yes": 109, "no": 110, "missing": 110, "children": [
              { "nodeid": 109, "depth": 6, "split": 4, "split_condition": 0.999998987, "yes": 219, "no": 220, "missing": 220, "children": [
                { "nodeid": 219, "depth": 7, "split": 83, "split_condition": 0.121567629, "yes": 439, "no": 440, "missing": 440, "children": [
                  { "nodeid": 439, "leaf": 0.0147480974 },
                  { "nodeid": 440, "leaf": 0.227380648 }
                ]},
                { "nodeid": 220, "depth": 7, "split": 64, "split_condition": 0.0705872402, "yes": 441, "no": 442, "missing": 442, "children": [
                  { "nodeid": 441, "leaf": 0.0182382204 },
                  { "nodeid": 442, "leaf": -0.273957819 }
                ]}
              ]},
              { "nodeid": 110, "depth": 6, "split": 72, "split_condition": 0.0784303769, "yes": 221, "no": 222, "missing": 222, "children": [
                { "nodeid": 221, "depth": 7, "split": 4, "split_condition": 0.999998987, "yes": 443, "no": 444, "missing": 444, "children": [
                  { "nodeid": 443, "leaf": 0.0322878025 },
                  { "nodeid": 444, "leaf": -0.256579012 }
                ]},
                { "nodeid": 222, "depth": 7, "split": 85, "split_condition": 0.121567629, "yes": 445, "no": 446, "missing": 446, "children": [
                  { "nodeid": 445, "leaf": -0.318468928 },
                  { "nodeid": 446, "leaf": -0.113811783 }
                ]}
              ]}
            ]}
          ]}
        ]}
      ]},
      { "nodeid": 6, "depth": 2, "split": 67, "split_condition": 0.258822531, "yes": 13, "no": 14, "missing": 14, "children": [
        { "nodeid": 13, "depth": 3, "split": 51, "split_condition": 0.999998987, "yes": 27, "no": 28, "missing": 28, "children": [
          { "nodeid": 27, "depth": 4, "split": 83, "split_condition": 0.0705872402, "yes": 55, "no": 56, "missing": 56, "children": [
            { "nodeid": 55, "depth": 5, "split": 48, "split_condition": 0.999998987, "yes": 111, "no": 112, "missing": 112, "children": [
              { "nodeid": 111, "depth": 6, "split": 68, "split_condition": 0.0980382189, "yes": 223, "no": 224, "missing": 224, "children": [
                { "nodeid": 223, "depth": 7, "split": 66, "split_condition": 0.156861752, "yes": 447, "no": 448, "missing": 448, "children": [
                  { "nodeid": 447, "leaf": 0.402788103 },
                  { "nodeid": 448, "leaf": 0.303240865 }
                ]},
                { "nodeid": 224, "depth": 7, "split": 63, "split_condition": 0.105881356, "yes": 449, "no": 450, "missing": 450, "children": [
                  { "nodeid": 449, "leaf": 0.321047813 },
                  { "nodeid": 450, "leaf": 0.100019291 }
                ]}
              ]},
              { "nodeid": 112, "depth": 6, "split": 4, "split_condition": 0.999998987, "yes": 225, "no": 226, "missing": 226, "children": [
                { "nodeid": 225, "depth": 7, "split": 5, "split_condition": 0.999998987, "yes": 451, "no": 452, "missing": 452, "children": [
                  { "nodeid": 451, "leaf": 0.286209911 },
                  { "nodeid": 452, "leaf": 0.0214134455 }
                ]},
                { "nodeid": 226, "depth": 7, "split": 6, "split_condition": 0.999998987, "yes": 453, "no": 454, "missing": 454, "children": [
                  { "nodeid": 453, "leaf": 0.110024013 },
                  { "nodeid": 454, "leaf": -0.226442859 }
                ]}
              ]}
            ]},
            { "nodeid": 56, "depth": 5, "split": 23, "split_condition": 0.999998987, "yes": 113, "no": 114, "missing": 114, "children": [
              { "nodeid": 113, "depth": 6, "split": 68, "split_condition": 0.0862735137, "yes": 227, "no": 228, "missing": 228, "children": [
                { "nodeid": 227, "depth": 7, "split": 21, "split_condition": 0.999998987, "yes": 455, "no": 456, "missing": 456, "children": [
                  { "nodeid": 455, "leaf": 0.424005628 },
                  { "nodeid": 456, "leaf": 0.452856213 }
                ]},
                { "nodeid": 228, "depth": 7, "split": 66, "split_condition": 0.141175479, "yes": 457, "no": 458, "missing": 458, "children": [
                  { "nodeid": 457, "leaf": 0.398785025 },
                  { "nodeid": 458, "leaf": 0.257931471 }
                ]}
              ]},
              { "nodeid": 114, "depth": 6, "split": 49, "split_condition": 0.999998987, "yes": 229, "no": 230, "missing": 230, "children": [
                { "nodeid": 229, "depth": 7, "split": 48, "split_condition": 0.999998987, "yes": 459, "no": 460, "missing": 460, "children": [
                  { "nodeid": 459, "leaf": 0.374527872 },
                  { "nodeid": 460, "leaf": 0.220843732 }
                ]},
                { "nodeid": 230, "depth": 7, "split": 68, "split_condition": 0.196077436, "yes": 461, "no": 462, "missing": 462, "children": [
                  { "nodeid": 461, "leaf": 0.432557404 },
                  { "nodeid": 462, "leaf": 0.220415145 }
                ]}
              ]}
            ]}
          ]},
          { "nodeid": 28, "depth": 4, "split": 68, "split_condition": 0.0666656718, "yes": 57, "no": 58, "missing": 58, "children": [
            { "nodeid": 57, "depth": 5, "split": 48, "split_condition": 0.999998987, "yes": 115, "no": 116, "missing": 116, "children": [
              { "nodeid": 115, "depth": 6, "split": 45, "split_condition": 0.999998987, "yes": 231, "no": 232, "missing": 232, "children": [
                { "nodeid": 231, "depth": 7, "split": 63, "split_condition": 0.0705872402, "yes": 463, "no": 464, "missing": 464, "children": [
